{"learner":{"attributes":{"scikit_learn":"{\"_estimator_type\": \"classifier\"}"},"feature_names":["EFG_PCT_LAST_5_HOME","EFG_PCT_LAST_5_AWAY","TOV_PCT_LAST_5_HOME","TOV_PCT_LAST_5_AWAY","ORB_RAW_LAST_5_HOME","ORB_RAW_LAST_5_AWAY","DIFF_EFG","DIFF_TOV","DIFF_ORB","DIFF_WIN","DIFF_REST"],"feature_types":["float","float","float","float","float","float","float","float","float","float","float"],"gradient_booster":{"model":{"cats":{"enc":[],"feature_segments":[],"sorted_idx":[]},"gbtree_model_param":{"num_parallel_tree":"1","num_trees":"150"},"iteration_indptr":[0,1,2,3,4,5,6,7,8,9,10,11,12,13,14,15,16,17,18,19,20,21,22,23,24,25,26,27,28,29,30,31,32,33,34,35,36,37,38,39,40,41,42,43,44,45,46,47,48,49,50,51,52,53,54,55,56,57,58,59,60,61,62,63,64,65,66,67,68,69,70,71,72,73,74,75,76,77,78,79,80,81,82,83,84,85,86,87,88,89,90,91,92,93,94,95,96,97,98,99,100,101,102,103,104,105,106,107,108,109,110,111,112,113,114,115,116,117,118,119,120,121,122,123,124,125,126,127,128,129,130,131,132,133,134,135,136,137,138,139,140,141,142,143,144,145,146,147,148,149,150],"tree_info":[0,0,0,0,0,0,0,0,0,0,0,0,0,0,0,0,0,0,0,0,0,0,0,0,0,0,0,0,0,0,0,0,0,0,0,0,0,0,0,0,0,0,0,0,0,0,0,0,0,0,0,0,0,0,0,0,0,0,0,0,0,0,0,0,0,0,0,0,0,0,0,0,0,0,0,0,0,0,0,0,0,0,0,0,0,0,0,0,0,0,0,0,0,0,0,0,0,0,0,0,0,0,0,0,0,0,0,0,0,0,0,0,0,0,0,0,0,0,0,0,0,0,0,0,0,0,0,0,0,0,0,0,0,0,0,0,0,0,0,0,0,0,0,0,0,0,0,0,0,0],"trees":[{"base_weights":[-1.7125624E-8,-1.8792456E-1,6.1738336E-1,-6.07366E-1,-3.5003245E-2,-7.7325886E-1,7.1968156E-1,-8.431853E-1,-2.0753038E-1,-3.5061264E-1,1.0012167E-1,6.7727165E-3,-1.0405294E0,1.1825877E0,5.8442277E-1,-1.2623561E-2,-3.3051472E-2,2.4813058E-2,-9.579333E-3,-3.1155057E-4,-1.6797788E-2,-8.875041E-3,6.007981E-3,-4.6720345E-2,-8.543406E-3,3.778233E-2,-1.2668729E-2,2.267267E-2,9.22144E-3],"categories":[],"categories_nodes":[],"categories_segments":[],"categories_sizes":[],"default_left":[0,0,0,0,0,0,0,0,0,0,0,0,0,0,0,0,0,0,0,0,0,0,0,0,0,0,0,0,0],"id":0,"left_children":[1,3,5,7,9,11,13,15,17,19,21,-1,23,25,27,-1,-1,-1,-1,-1,-1,-1,-1,-1,-1,-1,-1,-1,-1],"loss_changes":[7.764667E1,3.2887894E1,2.277369E1,1.2744373E1,1.6115124E1,3.220913E0,8.449593E0,8.912632E0,6.2963443E0,8.059771E0,1.05590725E1,0E0,3.072176E0,4.4814453E0,5.2241898E0,0E0,0E0,0E0,0E0,0E0,0E0,0E0,0E0,0E0,0E0,0E0,0E0,0E0,0E0],"parents":[2147483647,0,0,1,1,2,2,3,3,4,4,5,5,6,6,7,7,8,8,9,9,10,10,12,12,13,13,14,14],"right_children":[2,4,6,8,10,12,14,16,18,20,22,-1,24,26,28,-1,-1,-1,-1,-1,-1,-1,-1,-1,-1,-1,-1,-1,-1],"split_conditions":[4E-1,-3.683211E-2,-2.4009295E-2,5.2655363E-1,1.0701242E-1,5.0976413E-1,1.0140538E-1,-8.072782E-3,5.279114E-1,5.3599566E-1,0E0,6.7727165E-3,2.8E0,1.8821659E-3,5.326557E-1,-1.2623561E-2,-3.3051472E-2,2.4813058E-2,-9.579333E-3,-3.1155057E-4,-1.6797788E-2,-8.875041E-3,6.007981E-3,-4.6720345E-2,-8.543406E-3,3.778233E-2,-1.2668729E-2,2.267267E-2,9.22144E-3],"split_indices":[9,6,6,0,3,0,2,7,0,1,10,0,8,7,1,0,0,0,0,0,0,0,0,0,0,0,0,0,0],"split_type":[0,0,0,0,0,0,0,0,0,0,0,0,0,0,0,0,0,0,0,0,0,0,0,0,0,0,0,0,0],"sum_hessian":[6.672438E2,5.120708E2,1.5517297E2,1.3601881E2,3.76052E2,1.0183227E1,1.4498975E2,8.486022E1,5.1158592E1,1.1225795E2,2.6379407E2,2.18212E0,8.001106E0,3.1034595E1,1.13955154E2,3.3216717E1,5.1643505E1,4.36424E0,4.679435E1,4.3157486E1,6.9100464E1,5.2855797E1,2.1093826E2,4.1217823E0,3.8793244E0,2.9822306E1,1.2122889E0,6.9342926E1,4.4612232E1],"tree_param":{"num_deleted":"0","num_feature":"11","num_nodes":"29","size_leaf_vector":"1"}},{"base_weights":[-3.7818216E-5,-1.8220127E-1,6.009757E-1,-5.875553E-1,-3.3993676E-2,-7.520083E-1,7.0120287E-1,-8.149898E-1,-2.0077947E-1,-3.3963233E-1,9.716299E-2,6.638874E-3,-1.0112023E0,1.1553231E0,5.6894726E-1,-1.2229925E-2,-3.1904217E-2,2.429671E-2,-9.282798E-3,-3.0240198E-4,-1.6254608E-2,-8.600667E-3,5.8347955E-3,-4.5310397E-2,-8.329759E-3,3.6935363E-2,-1.24454815E-2,1.819782E-2,-1.5457219E-2],"categories":[],"categories_nodes":[],"categories_segments":[],"categories_sizes":[],"default_left":[0,0,0,0,0,0,0,0,0,0,0,0,0,0,0,0,0,0,0,0,0,0,0,0,0,0,0,0,0],"id":1,"left_children":[1,3,5,7,9,11,13,15,17,19,21,-1,23,25,27,-1,-1,-1,-1,-1,-1,-1,-1,-1,-1,-1,-1,-1,-1],"loss_changes":[7.326507E1,3.0831839E1,2.1634537E1,1.1925678E1,1.5150044E1,3.0537186E0,8.077423E0,8.292664E0,5.984257E0,7.5543795E0,9.943285E0,0E0,2.8899145E0,4.3021355E0,4.9901466E0,0E0,0E0,0E0,0E0,0E0,0E0,0E0,0E0,0E0,0E0,0E0,0E0,0E0,0E0],"parents":[2147483647,0,0,1,1,2,2,3,3,4,4,5,5,6,6,7,7,8,8,9,9,10,10,12,12,13,13,14,14],"right_children":[2,4,6,8,10,12,14,16,18,20,22,-1,24,26,28,-1,-1,-1,-1,-1,-1,-1,-1,-1,-1,-1,-1,-1,-1],"split_conditions":[4E-1,-3.683211E-2,-2.4009295E-2,5.2655363E-1,1.0701242E-1,5.0976413E-1,1.0140538E-1,-8.072782E-3,5.279114E-1,5.3599566E-1,0E0,6.638874E-3,2.8E0,1.8821659E-3,1.46E1,-1.2229925E-2,-3.1904217E-2,2.429671E-2,-9.282798E-3,-3.0240198E-4,-1.6254608E-2,-8.600667E-3,5.8347955E-3,-4.5310397E-2,-8.329759E-3,3.6935363E-2,-1.24454815E-2,1.819782E-2,-1.5457219E-2],"split_indices":[9,6,6,0,3,0,2,7,0,1,10,0,8,7,4,0,0,0,0,0,0,0,0,0,0,0,0,0,0],"split_type":[0,0,0,0,0,0,0,0,0,0,0,0,0,0,0,0,0,0,0,0,0,0,0,0,0,0,0,0,0],"sum_hessian":[6.67193E2,5.125416E2,1.5465134E2,1.3643144E2,3.761102E2,1.021771E1,1.4443362E2,8.521539E1,5.1216057E1,1.1245745E2,2.6365274E2,2.1795304E0,8.038178E0,3.0831923E1,1.1360171E2,3.328834E1,5.192705E1,4.344824E0,4.6871235E1,4.3159817E1,6.929763E1,5.293633E1,2.1071643E2,4.153162E0,3.8850167E0,2.961701E1,1.214912E0,1.10215164E2,3.3865469E0],"tree_param":{"num_deleted":"0","num_feature":"11","num_nodes":"29","size_leaf_vector":"1"}},{"base_weights":[-1.1541981E-4,-1.7667377E-1,5.849439E-1,-5.6858E-1,-3.3014867E-2,-7.316732E-1,6.8313307E-1,-7.881127E-1,-1.942622E-1,-3.2904103E-1,9.429215E-2,6.5077115E-3,-9.832684E-1,1.1292347E0,5.536931E-1,-1.2803099E-2,-3.1914625E-2,2.3795363E-2,-8.996269E-3,-3.612301E-2,-7.5977976E-3,-8.335469E-3,5.666526E-3,-4.3985933E-2,-8.121869E-3,3.612565E-2,-1.2226725E-2,2.1639893E-2,8.510767E-3],"categories":[],"categories_nodes":[],"categories_segments":[],"categories_sizes":[],"default_left":[0,0,0,0,0,0,0,0,0,0,0,0,0,0,0,0,0,0,0,0,0,0,0,0,0,0,0,0,0],"id":2,"left_children":[1,3,5,7,9,11,13,15,17,19,21,-1,23,25,27,-1,-1,-1,-1,-1,-1,-1,-1,-1,-1,-1,-1,-1,-1],"loss_changes":[6.911117E1,2.8917141E1,2.0550755E1,1.1170601E1,1.4244461E1,2.897519E0,7.7390366E0,8.166683E0,5.6887827E0,7.2309837E0,9.363663E0,0E0,2.724104E0,4.132511E0,4.9659805E0,0E0,0E0,0E0,0E0,0E0,0E0,0E0,0E0,0E0,0E0,0E0,0E0,0E0,0E0],"parents":[2147483647,0,0,1,1,2,2,3,3,4,4,5,5,6,6,7,7,8,8,9,9,10,10,12,12,13,13,14,14],"right_children":[2,4,6,8,10,12,14,16,18,20,22,-1,24,26,28,-1,-1,-1,-1,-1,-1,-1,-1,-1,-1,-1,-1,-1,-1],"split_conditions":[4E-1,-3.683211E-2,-2.4009295E-2,5.2655363E-1,1.0701242E-1,5.0976413E-1,1.0140538E-1,1E1,5.279114E-1,-7.3661124E-3,0E0,6.5077115E-3,2.8E0,1.8821659E-3,5.326557E-1,-1.2803099E-2,-3.1914625E-2,2.3795363E-2,-8.996269E-3,-3.612301E-2,-7.5977976E-3,-8.335469E-3,5.666526E-3,-4.3985933E-2,-8.121869E-3,3.612565E-2,-1.2226725E-2,2.1639893E-2,8.510767E-3],"split_indices":[9,6,6,0,3,0,2,5,0,7,10,0,8,7,1,0,0,0,0,0,0,0,0,0,0,0,0,0,0],"split_type":[0,0,0,0,0,0,0,0,0,0,0,0,0,0,0,0,0,0,0,0,0,0,0,0,0,0,0,0,0],"sum_hessian":[6.670518E2,5.1295197E2,1.5409987E2,1.3679979E2,3.7615216E2,1.0246953E1,1.4385292E2,8.553128E1,5.126851E1,1.1264195E2,2.6351022E2,2.1769478E0,8.070005E0,3.0615541E1,1.1323738E2,3.8119637E1,4.7411648E1,4.3246493E0,4.694386E1,7.7908053E0,1.0485115E2,5.301255E1,2.1049767E2,4.1795635E0,3.8904417E0,2.939814E1,1.2174022E0,6.883063E1,4.4406754E1],"tree_param":{"num_deleted":"0","num_feature":"11","num_nodes":"29","size_leaf_vector":"1"}},{"base_weights":[-1.9137938E-4,-1.7138788E-1,5.6959635E-1,-5.503718E-1,-3.2139115E-2,-7.1219045E-1,6.657972E-1,-7.6241577E-1,-1.8796895E-1,-3.1905964E-1,9.1506355E-2,6.379177E-3,-9.566213E-1,1.1042268E0,5.3910357E-1,-1.11363195E-2,-3.002875E-2,2.5731709E-2,-8.475999E-3,-3.282363E-5,-1.5412999E-2,-8.079079E-3,5.50303E-3,-3.9156877E-2,-2.7187732E-3,3.5350125E-2,-1.2012357E-2,2.1090418E-2,8.274214E-3],"categories":[],"categories_nodes":[],"categories_segments":[],"categories_sizes":[],"default_left":[0,0,0,0,0,0,0,0,0,0,0,0,0,0,0,0,0,0,0,0,0,0,0,0,0,0,0,0,0],"id":3,"left_children":[1,3,5,7,9,11,13,15,17,19,21,-1,23,25,27,-1,-1,-1,-1,-1,-1,-1,-1,-1,-1,-1,-1,-1,-1],"loss_changes":[6.524299E1,2.712429E1,1.952908E1,1.0471645E1,1.3410229E1,2.751367E0,7.417721E0,7.730194E0,5.4156427E0,7.045686E0,8.818036E0,0E0,2.628005E0,3.9717789E0,4.720459E0,0E0,0E0,0E0,0E0,0E0,0E0,0E0,0E0,0E0,0E0,0E0,0E0,0E0,0E0],"parents":[2147483647,0,0,1,1,2,2,3,3,4,4,5,5,6,6,7,7,8,8,9,9,10,10,12,12,13,13,14,14],"right_children":[2,4,6,8,10,12,14,16,18,20,22,-1,24,26,28,-1,-1,-1,-1,-1,-1,-1,-1,-1,-1,-1,-1,-1,-1],"split_conditions":[4E-1,-3.683211E-2,-2.4009295E-2,5.2655363E-1,1.0701242E-1,5.0976413E-1,1.0140538E-1,-8.072782E-3,5.2774674E-1,5.3599566E-1,0E0,6.379177E-3,1.32E1,1.8821659E-3,5.326557E-1,-1.11363195E-2,-3.002875E-2,2.5731709E-2,-8.475999E-3,-3.282363E-5,-1.5412999E-2,-8.079079E-3,5.50303E-3,-3.9156877E-2,-2.7187732E-3,3.5350125E-2,-1.2012357E-2,2.1090418E-2,8.274214E-3],"split_indices":[9,6,6,0,3,0,2,7,0,1,10,0,4,7,1,0,0,0,0,0,0,0,0,0,0,0,0,0,0],"split_type":[0,0,0,0,0,0,0,0,0,0,0,0,0,0,0,0,0,0,0,0,0,0,0,0,0,0,0,0,0],"sum_hessian":[6.668448E2,5.1331506E2,1.5352972E2,1.3713408E2,3.76181E2,1.0271282E1,1.4325844E2,8.581782E1,5.1316265E1,1.1281417E2,2.6336682E2,2.1743743E0,8.096908E0,3.0386988E1,1.12871445E2,3.3475243E1,5.234258E1,3.5864987E0,4.7729767E1,4.3227417E1,6.9586754E1,5.3084705E1,2.1028214E2,5.411356E0,2.685552E0,2.9167225E1,1.2197639E0,6.853573E1,4.4335716E1],"tree_param":{"num_deleted":"0","num_feature":"11","num_nodes":"29","size_leaf_vector":"1"}},{"base_weights":[-2.0175877E-4,-1.6621633E-1,5.5478287E-1,-5.328746E-1,-3.1215934E-2,-6.925245E-1,6.48989E-1,-7.3786473E-1,-1.8183537E-1,-3.091776E-1,8.880289E-2,-7.19464E-2,-1.076067E0,1.0802145E0,5.2493036E-1,-1.1714819E-2,-3.00823E-2,2.290206E-2,-8.459088E-3,-3.4631394E-2,-7.0743826E-3,-7.8311395E-3,5.344166E-3,1.5222477E-2,-2.874952E-2,-4.9307227E-2,-6.858562E-3,3.4606062E-2,-1.1802248E-2,1.6855178E-2,-1.5678909E-2],"categories":[],"categories_nodes":[],"categories_segments":[],"categories_sizes":[],"default_left":[0,0,0,0,0,0,0,0,0,0,0,0,0,0,0,0,0,0,0,0,0,0,0,0,0,0,0,0,0,0,0],"id":4,"left_children":[1,3,5,7,9,11,13,15,17,19,21,23,25,27,29,-1,-1,-1,-1,-1,-1,-1,-1,-1,-1,-1,-1,-1,-1,-1,-1],"loss_changes":[6.1598827E1,2.5456774E1,1.8538235E1,9.827015E0,1.2610994E1,2.610794E0,7.117729E0,7.6195335E0,5.171237E0,6.795122E0,8.304359E0,3.2519646E0,2.9467692E0,3.8192291E0,4.682041E0,0E0,0E0,0E0,0E0,0E0,0E0,0E0,0E0,0E0,0E0,0E0,0E0,0E0,0E0,0E0,0E0],"parents":[2147483647,0,0,1,1,2,2,3,3,4,4,5,5,6,6,7,7,8,8,9,9,10,10,11,11,12,12,13,13,14,14],"right_children":[2,4,6,8,10,12,14,16,18,20,22,24,26,28,30,-1,-1,-1,-1,-1,-1,-1,-1,-1,-1,-1,-1,-1,-1,-1,-1],"split_conditions":[4E-1,-3.683211E-2,-2.4009295E-2,5.2655363E-1,1.0701242E-1,5.566668E-1,1.0140538E-1,1E1,5.279114E-1,-7.3661124E-3,0E0,-3.384314E-2,2.8E0,1.8821659E-3,1.46E1,-1.1714819E-2,-3.00823E-2,2.290206E-2,-8.459088E-3,-3.4631394E-2,-7.0743826E-3,-7.8311395E-3,5.344166E-3,1.5222477E-2,-2.874952E-2,-4.9307227E-2,-6.858562E-3,3.4606062E-2,-1.1802248E-2,1.6855178E-2,-1.5678909E-2],"split_indices":[9,6,6,0,3,1,2,5,0,7,10,6,8,7,4,0,0,0,0,0,0,0,0,0,0,0,0,0,0,0,0],"split_type":[0,0,0,0,0,0,0,0,0,0,0,0,0,0,0,0,0,0,0,0,0,0,0,0,0,0,0,0,0,0,0],"sum_hessian":[6.6656665E2,5.136247E2,1.5294193E2,1.3742746E2,3.7619727E2,1.0294154E1,1.4264777E2,8.606667E1,5.1360775E1,1.12974365E2,2.632229E2,4.385663E0,5.9084907E0,3.0147692E1,1.1250008E2,3.830563E1,4.7761047E1,4.285275E0,4.70755E1,7.846278E0,1.0512809E2,5.3153015E1,2.1006989E2,2.9106793E0,1.4749838E0,2.9760756E0,2.9324152E0,2.8925692E1,1.2220018E0,1.0911913E2,3.3809485E0],"tree_param":{"num_deleted":"0","num_feature":"11","num_nodes":"31","size_leaf_vector":"1"}},{"base_weights":[-3.5157442E-4,-1.612743E-1,5.400502E-1,-5.343685E-1,-3.5890136E-2,-6.771854E-1,6.324957E-1,-7.3484445E-1,2.9258952E-1,3.9365613E-1,-9.594537E-2,-7.231159E-2,-1.0496998E0,1.0571201E0,5.109203E-1,-1.8729145E-2,-4.492235E-2,1.9181747E-2,-1.9156348E-2,2.3298064E-2,3.2585426E-3,-9.944198E-3,7.310573E-4,1.4912149E-2,-2.817827E-2,1.203767E-3,-4.2573377E-2,3.3890966E-2,-1.1596298E-2,1.1099831E-3,1.7902346E-2],"categories":[],"categories_nodes":[],"categories_segments":[],"categories_sizes":[],"default_left":[0,0,0,0,0,0,0,0,0,0,0,0,0,0,0,0,0,0,0,0,0,0,0,0,0,0,0,0,0,0,0],"id":5,"left_children":[1,3,5,7,9,11,13,15,17,19,21,23,25,27,29,-1,-1,-1,-1,-1,-1,-1,-1,-1,-1,-1,-1,-1,-1,-1,-1],"loss_changes":[5.811061E1,2.4067616E1,1.768195E1,2.1674435E1,1.0006895E1,2.4715548E0,6.843239E0,7.8712616E0,8.795197E0,5.111257E0,9.638614E0,3.1241112E0,2.8440218E0,3.674244E0,4.5790863E0,0E0,0E0,0E0,0E0,0E0,0E0,0E0,0E0,0E0,0E0,0E0,0E0,0E0,0E0,0E0,0E0],"parents":[2147483647,0,0,1,1,2,2,3,3,4,4,5,5,6,6,7,7,8,8,9,9,10,10,11,11,12,12,13,13,14,14],"right_children":[2,4,6,8,10,12,14,16,18,20,22,24,26,28,30,-1,-1,-1,-1,-1,-1,-1,-1,-1,-1,-1,-1,-1,-1,-1,-1],"split_conditions":[4E-1,-2E-1,-2.4009295E-2,-3.4052355E-4,-3.6E0,5.566668E-1,1.0140538E-1,1.32E1,1.3086177E-1,5.25132E-1,1.0964216E-1,-3.384314E-2,0E0,1.8821659E-3,8.6E0,-1.8729145E-2,-4.492235E-2,1.9181747E-2,-1.9156348E-2,2.3298064E-2,3.2585426E-3,-9.944198E-3,7.310573E-4,1.4912149E-2,-2.817827E-2,1.203767E-3,-4.2573377E-2,3.3890966E-2,-1.1596298E-2,1.1099831E-3,1.7902346E-2],"split_indices":[9,9,6,6,8,1,2,5,2,1,3,6,10,7,4,0,0,0,0,0,0,0,0,0,0,0,0,0,0,0,0],"split_type":[0,0,0,0,0,0,0,0,0,0,0,0,0,0,0,0,0,0,0,0,0,0,0,0,0,0,0,0,0,0,0],"sum_hessian":[6.662213E2,5.138938E2,1.5232753E2,1.284412E2,3.854526E2,1.0305755E1,1.4202177E2,1.0346903E2,2.4972168E1,4.659881E1,3.388538E2,4.3829746E0,5.9227796E0,2.9898964E1,1.121228E2,9.195778E1,1.1511253E1,1.84236E1,6.54857E0,1.9148464E1,2.7450344E1,1.1397671E2,2.2487709E2,2.9030404E0,1.4799345E0,1.7250354E0,4.1977444E0,2.8674845E1,1.2241205E0,1.741099E1,9.4711815E1],"tree_param":{"num_deleted":"0","num_feature":"11","num_nodes":"31","size_leaf_vector":"1"}},{"base_weights":[-4.0878757E-4,-2.7290037E-1,3.0270436E-1,-6.673494E-1,-9.2780285E-2,9.52166E-2,6.2784284E-1,-5.6424296E-1,-1.332802E0,4.7435388E-1,-1.5495479E-1,-2.726063E-1,1.961829E-1,-6.9044185E-1,6.678067E-1,-8.912374E-3,-2.6792498E-2,-1.8084585E-3,-4.8918977E-2,3.0951375E-2,-4.9580494E-3,-7.5346674E-3,3.6701001E-3,-1.7200772E-2,8.279274E-3,1.0766731E-2,-1.7988206E-4,8.816675E-3,-4.466193E-2,3.2092728E-2,1.6704973E-2],"categories":[],"categories_nodes":[],"categories_segments":[],"categories_sizes":[],"default_left":[0,0,0,0,0,0,0,0,0,0,0,0,0,0,0,0,0,0,0,0,0,0,0,0,0,0,0,0,0,0,0],"id":6,"left_children":[1,3,5,7,9,11,13,15,17,19,21,23,25,27,29,-1,-1,-1,-1,-1,-1,-1,-1,-1,-1,-1,-1,-1,-1,-1,-1],"loss_changes":[5.5167004E1,2.4927378E1,2.1271255E1,6.8021545E0,8.628735E0,7.265491E0,6.940956E0,8.262077E0,5.221382E0,8.803849E0,5.8835483E0,7.1279497E0,5.033702E0,3.6675375E0,4.7519455E0,0E0,0E0,0E0,0E0,0E0,0E0,0E0,0E0,0E0,0E0,0E0,0E0,0E0,0E0,0E0,0E0],"parents":[2147483647,0,0,1,1,2,2,3,3,4,4,5,5,6,6,7,7,8,8,9,9,10,10,11,11,12,12,13,13,14,14],"right_children":[2,4,6,8,10,12,14,16,18,20,22,24,26,28,30,-1,-1,-1,-1,-1,-1,-1,-1,-1,-1,-1,-1,-1,-1,-1,-1],"split_conditions":[6.684973E-3,-2E-1,4E-1,1.32E1,5.2793944E-1,0E0,7.4E0,1.18E1,0E0,1.16E1,1E0,1.257276E-1,4.6030814E-3,1.1307078E-1,1.0140538E-1,-8.912374E-3,-2.6792498E-2,-1.8084585E-3,-4.8918977E-2,3.0951375E-2,-4.9580494E-3,-7.5346674E-3,3.6701001E-3,-1.7200772E-2,8.279274E-3,1.0766731E-2,-1.7988206E-4,8.816675E-3,-4.466193E-2,3.2092728E-2,1.6704973E-2],"split_indices":[6,9,9,5,1,10,5,4,10,5,10,3,7,2,2,0,0,0,0,0,0,0,0,0,0,0,0,0,0,0,0],"split_type":[0,0,0,0,0,0,0,0,0,0,0,0,0,0,0,0,0,0,0,0,0,0,0,0,0,0,0,0,0,0,0],"sum_hessian":[6.659153E2,3.5072314E2,3.1519217E2,1.09099236E2,2.4162392E2,1.9319637E2,1.219958E2,9.606297E1,1.30362625E1,2.3217014E1,2.184069E2,4.1243874E1,1.5195248E2,3.1105804E0,1.18885216E2,5.4052135E1,4.2010838E1,2.7004864E0,1.0335776E1,1.2078746E1,1.1138268E1,1.6222159E2,5.6185314E1,2.6610086E1,1.4633788E1,8.376532E1,6.8187164E1,1.6759279E0,1.4346526E0,2.385224E1,9.5032974E1],"tree_param":{"num_deleted":"0","num_feature":"11","num_nodes":"31","size_leaf_vector":"1"}},{"base_weights":[-4.508272E-4,-4.185617E-1,1.8684907E-1,-6.7951435E-1,-2.377159E-1,4.3502627E-3,5.99545E-1,-4.039963E-1,-1.0341855E0,-1.0232176E-1,-6.2767535E-1,-2.751817E-1,1.23912774E-1,1.0172712E0,4.8060673E-1,-2.6958441E-2,-3.2134955E-3,-3.7522696E-2,-4.1463985E-3,-2.71932E-2,-2.3132384E-4,-2.34981E-2,2.2764053E-2,3.5973795E-4,-1.4947645E-2,1.0279318E-3,1.2124612E-2,3.2696716E-2,-1.18728625E-2,1.9345667E-2,6.497451E-3],"categories":[],"categories_nodes":[],"categories_segments":[],"categories_sizes":[],"default_left":[0,0,0,0,0,0,0,0,0,0,0,0,0,0,0,0,0,0,0,0,0,0,0,0,0,0,0,0,0,0,0],"id":7,"left_children":[1,3,5,7,9,11,13,15,17,19,21,23,25,27,29,-1,-1,-1,-1,-1,-1,-1,-1,-1,-1,-1,-1,-1,-1,-1,-1],"loss_changes":[5.2280697E1,9.5854225E0,3.4722656E1,7.7911224E0,6.4580207E0,1.0752232E1,6.534485E0,7.0872283E0,6.8293686E0,7.059915E0,7.4203806E0,6.180508E0,5.646636E0,3.5542736E0,4.714201E0,0E0,0E0,0E0,0E0,0E0,0E0,0E0,0E0,0E0,0E0,0E0,0E0,0E0,0E0,0E0,0E0],"parents":[2147483647,0,0,1,1,2,2,3,3,4,4,5,5,6,6,7,7,8,8,9,9,10,10,11,11,12,12,13,13,14,14],"right_children":[2,4,6,8,10,12,14,16,18,20,22,24,26,28,30,-1,-1,-1,-1,-1,-1,-1,-1,-1,-1,-1,-1,-1,-1,-1,-1],"split_conditions":[-2.1375367E-2,-2E-1,4E-1,1.2E1,9.767247E-3,1.06874935E-1,1.0140538E-1,1.1238569E-1,1E0,9E0,1.3E1,5.3599566E-1,1E0,1.8821659E-3,5.326557E-1,-2.6958441E-2,-3.2134955E-3,-3.7522696E-2,-4.1463985E-3,-2.71932E-2,-2.3132384E-4,-2.34981E-2,2.2764053E-2,3.5973795E-4,-1.4947645E-2,1.0279318E-3,1.2124612E-2,3.2696716E-2,-1.18728625E-2,1.9345667E-2,6.497451E-3],"split_indices":[6,9,9,4,7,3,2,2,10,4,5,1,10,7,1,0,0,0,0,0,0,0,0,0,0,0,0,0,0,0,0],"split_type":[0,0,0,0,0,0,0,0,0,0,0,0,0,0,0,0,0,0,0,0,0,0,0,0,0,0,0,0,0,0,0],"sum_hessian":[6.655953E2,2.0553758E2,4.600577E2,8.300604E1,1.2253155E2,3.1969534E2,1.4036235E2,4.7919765E1,3.5086273E1,9.188976E1,3.0641787E1,9.538583E1,2.2430952E2,2.9433895E1,1.1092845E2,1.721378E1,3.0705988E1,2.7937378E1,7.1488976E0,8.770105E0,8.311966E1,2.7941204E1,2.7005816E0,4.2115166E1,5.3270668E1,1.7079492E2,5.35146E1,2.821266E1,1.2212337E0,6.7496666E1,4.343179E1],"tree_param":{"num_deleted":"0","num_feature":"11","num_nodes":"31","size_leaf_vector":"1"}},{"base_weights":[-4.996814E-4,-2.5797617E-1,2.875384E-1,-6.305515E-1,-8.728589E-2,9.181448E-2,5.9680295E-1,-5.304834E-1,-1.2771369E0,4.5849165E-1,-1.468599E-1,-2.629277E-1,1.8945767E-1,-6.828814E-1,6.361256E-1,-3.248809E-2,-1.128704E-2,-4.5430705E-2,3.9388305E-3,3.0169997E-2,-4.9542338E-3,-9.588766E-3,1.5878539E-4,-1.657828E-2,8.02919E-3,1.0390762E-2,-1.503075E-4,8.563222E-3,-4.3837402E-2,3.082881E-2,1.5874542E-2],"categories":[],"categories_nodes":[],"categories_segments":[],"categories_sizes":[],"default_left":[0,0,0,0,0,0,0,0,0,0,0,0,0,0,0,0,0,0,0,0,0,0,0,0,0,0,0,0,0,0,0],"id":8,"left_children":[1,3,5,7,9,11,13,15,17,19,21,23,25,27,29,-1,-1,-1,-1,-1,-1,-1,-1,-1,-1,-1,-1,-1,-1,-1,-1],"loss_changes":[4.9480103E1,2.2348072E1,1.9006376E1,6.4735985E0,7.9603167E0,6.7707872E0,6.5668793E0,7.8942776E0,4.9104156E0,8.401026E0,5.7748585E0,6.649103E0,4.662008E0,3.518949E0,4.429661E0,0E0,0E0,0E0,0E0,0E0,0E0,0E0,0E0,0E0,0E0,0E0,0E0,0E0,0E0,0E0,0E0],"parents":[2147483647,0,0,1,1,2,2,3,3,4,4,5,5,6,6,7,7,8,8,9,9,10,10,11,11,12,12,13,13,14,14],"right_children":[2,4,6,8,10,12,14,16,18,20,22,24,26,28,30,-1,-1,-1,-1,-1,-1,-1,-1,-1,-1,-1,-1,-1,-1,-1,-1],"split_conditions":[6.684973E-3,-2E-1,4E-1,1.32E1,5.2793944E-1,0E0,7.4E0,0E0,-8.171943E-3,1.16E1,5.369007E-1,1.257276E-1,4.6030814E-3,1.1307078E-1,1.0140538E-1,-3.248809E-2,-1.128704E-2,-4.5430705E-2,3.9388305E-3,3.0169997E-2,-4.9542338E-3,-9.588766E-3,1.5878539E-4,-1.657828E-2,8.02919E-3,1.0390762E-2,-1.503075E-4,8.563222E-3,-4.3837402E-2,3.082881E-2,1.5874542E-2],"split_indices":[6,9,9,5,1,10,5,10,6,5,0,3,7,2,2,0,0,0,0,0,0,0,0,0,0,0,0,0,0,0,0],"split_type":[0,0,0,0,0,0,0,0,0,0,0,0,0,0,0,0,0,0,0,0,0,0,0,0,0,0,0,0,0,0,0],"sum_hessian":[6.6517993E2,3.512779E2,3.1390204E2,1.09522606E2,2.4175528E2,1.9303381E2,1.2086821E2,9.642061E1,1.3101993E1,2.3132692E1,2.1862259E2,4.1299202E1,1.5173462E2,3.1154513E0,1.1775276E2,1.9731197E1,7.6689415E1,1.1148978E1,1.9530143E0,1.199537E1,1.1137322E1,1.0186113E2,1.1676145E2,2.6686975E1,1.4612224E1,8.354643E1,6.818819E1,1.6705244E0,1.4449269E0,2.3423124E1,9.4329636E1],"tree_param":{"num_deleted":"0","num_feature":"11","num_nodes":"31","size_leaf_vector":"1"}},{"base_weights":[-5.5116595E-4,-2.2593117E-1,3.1216308E-1,-5.7149255E-1,-1.0452175E-1,4.4998303E-1,-1.7396621E-1,-1.0515827E0,-4.536419E-1,-1.5948862E-1,5.066776E-1,-5.6031096E-1,4.9843428E-1,-7.134634E-1,-2.1954529E-2,-5.35899E-3,-3.698908E-2,-1.6401736E-2,1.22275585E-2,-1.5877124E-2,-1.7909078E-3,3.3692863E-2,5.1887985E-3,-4.2395364E-2,-3.7893404E-3,2.9719045E-2,1.0847894E-2,1.0337209E-2,-2.9151322E-2,1.3358257E-2,-7.36509E-3],"categories":[],"categories_nodes":[],"categories_segments":[],"categories_sizes":[],"default_left":[0,0,0,0,0,0,0,0,0,0,0,0,0,0,0,0,0,0,0,0,0,0,0,0,0,0,0,0,0,0,0],"id":9,"left_children":[1,3,5,7,9,11,13,15,17,19,21,23,25,27,29,-1,-1,-1,-1,-1,-1,-1,-1,-1,-1,-1,-1,-1,-1,-1,-1],"loss_changes":[4.6993153E1,1.6197134E1,1.8789137E1,5.2103157E0,9.755304E0,1.0943798E1,5.1024113E0,2.7966957E0,6.833864E0,9.7451515E0,4.7428412E0,3.686152E0,1.3679527E1,4.074641E0,5.3025856E0,0E0,0E0,0E0,0E0,0E0,0E0,0E0,0E0,0E0,0E0,0E0,0E0,0E0,0E0,0E0,0E0],"parents":[2147483647,0,0,1,1,2,2,3,3,4,4,5,5,6,6,7,7,8,8,9,9,10,10,11,11,12,12,13,13,14,14],"right_children":[2,4,6,8,10,12,14,16,18,20,22,24,26,28,30,-1,-1,-1,-1,-1,-1,-1,-1,-1,-1,-1,-1,-1,-1,-1,-1],"split_conditions":[2E-1,-4.4235148E-2,5.598688E-1,0E0,1.3983098E-1,9.527042E-2,1.0518309E-1,-2E-1,6.2023836E-1,0E0,1.4357375E-1,1.5295313E-2,1.0140538E-1,8E0,1.192104E-1,-5.35899E-3,-3.698908E-2,-1.6401736E-2,1.22275585E-2,-1.5877124E-2,-1.7909078E-3,3.3692863E-2,5.1887985E-3,-4.2395364E-2,-3.7893404E-3,2.9719045E-2,1.0847894E-2,1.0337209E-2,-2.9151322E-2,1.3358257E-2,-7.36509E-3],"split_indices":[9,6,1,10,3,3,3,8,1,10,3,7,2,5,3,0,0,0,0,0,0,0,0,0,0,0,0,0,0,0,0],"split_type":[0,0,0,0,0,0,0,0,0,0,0,0,0,0,0,0,0,0,0,0,0,0,0,0,0,0,0,0,0,0,0],"sum_hessian":[6.647624E2,3.864889E2,2.782735E2,9.95208E1,2.869681E2,2.1686546E2,6.1408028E1,1.8053398E1,8.14674E1,2.639678E2,2.3000305E1,9.440935E0,2.0742453E2,1.2687163E1,4.8720863E1,3.4473512E0,1.4606047E1,7.385069E1,7.616711E0,5.5186604E1,2.087812E2,7.24763E0,1.5752674E1,2.42308E0,7.017855E0,4.3764767E1,1.6365977E2,2.4235644E0,1.0263598E1,1.5445981E1,3.3274883E1],"tree_param":{"num_deleted":"0","num_feature":"11","num_nodes":"31","size_leaf_vector":"1"}},{"base_weights":[-5.824998E-4,-2.3390669E-1,2.876914E-1,-5.818651E-1,-7.863843E-2,9.9880524E-2,5.7307976E-1,-6.422008E-1,1.8928641E-1,-4.8078233E-1,-1.3779609E-2,-2.8735384E-1,2.0879358E-1,-6.741399E-1,6.12784E-1,-1.62468E-2,-4.0080976E-2,2.3438863E-2,-1.4056291E-2,-1.7941026E-2,1.4210446E-2,9.237659E-3,-3.8273432E-3,5.296473E-4,-2.5731727E-2,-2.3697782E-2,7.989565E-3,8.364186E-3,-4.3029238E-2,1.9359455E-2,-1.9922744E-2],"categories":[],"categories_nodes":[],"categories_segments":[],"categories_sizes":[],"default_left":[0,0,0,0,0,0,0,0,0,0,0,0,0,0,0,0,0,0,0,0,0,0,0,0,0,0,0,0,0,0,0],"id":10,"left_children":[1,3,5,7,9,11,13,15,17,19,21,23,25,27,29,-1,-1,-1,-1,-1,-1,-1,-1,-1,-1,-1,-1,-1,-1,-1,-1],"loss_changes":[4.482147E1,1.9851748E1,1.592005E1,5.4014473E0,6.6655946E0,7.693219E0,6.261364E0,6.6412582E0,3.873649E0,4.2559986E0,8.141365E0,7.0001764E0,8.359222E0,3.3842502E0,5.2045975E0,0E0,0E0,0E0,0E0,0E0,0E0,0E0,0E0,0E0,0E0,0E0,0E0,0E0,0E0,0E0,0E0],"parents":[2147483647,0,0,1,1,2,2,3,3,4,4,5,5,6,6,7,7,8,8,9,9,10,10,11,11,12,12,13,13,14,14],"right_children":[2,4,6,8,10,12,14,16,18,20,22,24,26,28,30,-1,-1,-1,-1,-1,-1,-1,-1,-1,-1,-1,-1,-1,-1,-1,-1],"split_conditions":[9.8423865E-3,-2E-1,4E-1,-3.4052355E-4,-5.689992E-2,0E0,7.4E0,1.32E1,5.381316E-1,1.4149432E-1,-1.9038908E-2,5.371858E-1,5.24962E-1,1.1307078E-1,3.186267E-2,-1.62468E-2,-4.0080976E-2,2.3438863E-2,-1.4056291E-2,-1.7941026E-2,1.4210446E-2,9.237659E-3,-3.8273432E-3,5.296473E-4,-2.5731727E-2,-2.3697782E-2,7.989565E-3,8.364186E-3,-4.3029238E-2,1.9359455E-2,-1.9922744E-2],"split_indices":[6,9,9,6,6,10,5,5,1,3,7,1,0,2,7,0,0,0,0,0,0,0,0,0,0,0,0,0,0,0,0],"split_type":[0,0,0,0,0,0,0,0,0,0,0,0,0,0,0,0,0,0,0,0,0,0,0,0,0,0,0,0,0,0,0],"sum_hessian":[6.64378E2,3.6728894E2,2.9708905E2,1.1247758E2,2.5481136E2,1.7998976E2,1.1709928E2,1.0447088E2,8.0067E0,3.4498386E1,2.2031297E2,3.915126E1,1.4083852E2,3.119767E0,1.13979515E2,9.279188E1,1.1679002E1,4.115393E0,3.8913064E0,3.1056643E1,3.441744E0,5.712321E1,1.6318976E2,2.6141169E1,1.301009E1,6.9769516E0,1.3386156E2,1.665335E0,1.4544319E0,1.1163011E2,2.349401E0],"tree_param":{"num_deleted":"0","num_feature":"11","num_nodes":"31","size_leaf_vector":"1"}},{"base_weights":[-7.315562E-4,-3.7503794E-1,1.6856934E-1,-1.0315437E0,-3.162469E-1,2.905077E-3,5.489219E-1,-1.1247393E0,2.264051E-3,7.915823E-1,-3.6659405E-1,-2.598118E-1,1.15694515E-1,9.5421237E-1,4.3549258E-1,-3.961169E-2,-1.4575034E-2,3.9202906E-2,-4.3678945E-3,-2.3939695E-2,-7.6667806E-3,3.517019E-4,-1.4100672E-2,8.823453E-4,1.1586063E-2,3.0790478E-2,-1.1902934E-2,-9.0647925E-4,1.5635392E-2],"categories":[],"categories_nodes":[],"categories_segments":[],"categories_sizes":[],"default_left":[0,0,0,0,0,0,0,0,0,0,0,0,0,0,0,0,0,0,0,0,0,0,0,0,0,0,0,0,0],"id":11,"left_children":[1,3,5,7,9,11,13,15,-1,17,19,21,23,25,27,-1,-1,-1,-1,-1,-1,-1,-1,-1,-1,-1,-1,-1,-1],"loss_changes":[4.2198895E1,7.6783276E0,2.8890198E1,1.797842E0,1.098727E1,9.524313E0,5.9796906E0,1.2806759E0,0E0,4.3684044E0,8.615999E0,5.516435E0,5.236936E0,3.2899837E0,4.4265575E0,0E0,0E0,0E0,0E0,0E0,0E0,0E0,0E0,0E0,0E0,0E0,0E0,0E0,0E0],"parents":[2147483647,0,0,1,1,2,2,3,3,4,4,5,5,6,6,7,7,9,9,10,10,11,11,12,12,13,13,14,14],"right_children":[2,4,6,8,10,12,14,16,-1,18,20,22,24,26,28,-1,-1,-1,-1,-1,-1,-1,-1,-1,-1,-1,-1,-1,-1],"split_conditions":[-2.1375367E-2,9.366039E-2,4E-1,6.1812586E-1,9.68048E-2,1.06874935E-1,1.0140538E-1,-3.7231736E-2,2.264051E-3,2.2E0,-4E-1,5.3599566E-1,1E0,1.8821659E-3,8.6E0,-3.961169E-2,-1.4575034E-2,3.9202906E-2,-4.3678945E-3,-2.3939695E-2,-7.6667806E-3,3.517019E-4,-1.4100672E-2,8.823453E-4,1.1586063E-2,3.0790478E-2,-1.1902934E-2,-9.0647925E-4,1.5635392E-2],"split_indices":[6,3,9,1,3,3,2,6,0,8,9,1,10,7,4,0,0,0,0,0,0,0,0,0,0,0,0,0,0],"split_type":[0,0,0,0,0,0,0,0,0,0,0,0,0,0,0,0,0,0,0,0,0,0,0,0,0,0,0,0,0],"sum_hessian":[6.639109E2,2.0638976E2,4.5752112E2,1.5603473E1,1.9078629E2,3.1940878E2,1.3811232E2,1.4377099E1,1.2263736E0,7.6536794E0,1.831326E2,9.55481E1,2.2386069E2,2.858036E1,1.0953196E2,1.0189997E1,4.1871023E0,4.6842937E0,2.9693856E0,3.6220524E1,1.4691208E2,4.2104595E1,5.344351E1,1.7056485E2,5.329584E1,2.7359747E1,1.2206146E0,1.7121922E1,9.2410034E1],"tree_param":{"num_deleted":"0","num_feature":"11","num_nodes":"29","size_leaf_vector":"1"}},{"base_weights":[-7.185587E-4,-2.2151732E-1,2.734749E-1,-5.521534E-1,-7.369909E-2,9.6139915E-2,5.451872E-1,-4.632079E-1,-1.111307E0,3.839308E-1,-1.285109E-1,-2.7786332E-1,2.0161211E-1,-6.7161137E-1,5.844105E-1,-3.027374E-2,-9.381677E-3,-4.2209532E-2,5.155431E-3,2.7006464E-2,-4.341534E-3,-9.01089E-3,3.7401347E-4,-1.231412E-2,2.6673904E-2,-2.3074761E-2,7.7350596E-3,1.3031585E-2,-3.8008798E-2,1.849672E-2,-1.9777535E-2],"categories":[],"categories_nodes":[],"categories_segments":[],"categories_sizes":[],"default_left":[0,0,0,0,0,0,0,0,0,0,0,0,0,0,0,0,0,0,0,0,0,0,0,0,0,0,0,0,0,0,0],"id":12,"left_children":[1,3,5,7,9,11,13,15,17,19,21,23,25,27,29,-1,-1,-1,-1,-1,-1,-1,-1,-1,-1,-1,-1,-1,-1,-1,-1],"loss_changes":[4.0284676E1,1.7973755E1,1.4249363E1,5.141075E0,6.4674087E0,7.1885347E0,5.976654E0,7.885624E0,5.8919926E0,7.6684027E0,5.557844E0,6.5851593E0,7.92782E0,3.2625642E0,4.9594955E0,0E0,0E0,0E0,0E0,0E0,0E0,0E0,0E0,0E0,0E0,0E0,0E0,0E0,0E0,0E0,0E0],"parents":[2147483647,0,0,1,1,2,2,3,3,4,4,5,5,6,6,7,7,8,8,9,9,10,10,11,11,12,12,13,13,14,14],"right_children":[2,4,6,8,10,12,14,16,18,20,22,24,26,28,30,-1,-1,-1,-1,-1,-1,-1,-1,-1,-1,-1,-1,-1,-1,-1,-1],"split_conditions":[9.8423865E-3,-2E-1,4E-1,1.32E1,5.2793944E-1,0E0,7.4E0,0E0,-8.171943E-3,1.16E1,5.369007E-1,7.285454E-2,5.24962E-1,1.1238569E-1,3.186267E-2,-3.027374E-2,-9.381677E-3,-4.2209532E-2,5.155431E-3,2.7006464E-2,-4.341534E-3,-9.01089E-3,3.7401347E-4,-1.231412E-2,2.6673904E-2,-2.3074761E-2,7.7350596E-3,1.3031585E-2,-3.8008798E-2,1.849672E-2,-1.9777535E-2],"split_indices":[6,9,9,5,1,10,5,10,6,5,0,6,0,2,7,0,0,0,0,0,0,0,0,0,0,0,0,0,0,0,0],"split_type":[0,0,0,0,0,0,0,0,0,0,0,0,0,0,0,0,0,0,0,0,0,0,0,0,0,0,0,0,0,0,0],"sum_hessian":[6.6340454E2,3.6758932E2,2.9581522E2,1.12721466E2,2.5486787E2,1.7981285E2,1.1600234E2,9.882899E1,1.3892481E1,2.6618938E1,2.2824893E2,3.9194637E1,1.4061823E2,3.1190639E0,1.1288328E2,2.0122967E1,7.870602E1,1.121232E1,2.6801603E0,1.31113615E1,1.3507578E1,1.02351715E2,1.2589722E2,3.5777454E1,3.4171839E0,7.0040064E0,1.3361421E2,1.1860565E0,1.9330075E0,1.1053047E2,2.3528135E0],"tree_param":{"num_deleted":"0","num_feature":"11","num_nodes":"31","size_leaf_vector":"1"}},{"base_weights":[-8.176782E-4,-2.0318228E-1,2.8296784E-1,-5.13948E-1,-9.362769E-2,4.1340736E-1,-1.7242257E-1,2.9607689E-2,-5.423848E-1,-1.4644371E-1,4.9566826E-1,-5.5852437E-1,4.6062863E-1,-6.831566E-1,-2.7660528E-2,-3.0212298E-2,-1.285068E-2,-7.6962034E-3,4.356396E-3,3.2919656E-2,5.145397E-3,-2.4496771E-2,1.8331787E-2,2.7104307E-2,9.409669E-3,1.0171253E-2,-2.794472E-2,1.2883468E-2,-7.364097E-3],"categories":[],"categories_nodes":[],"categories_segments":[],"categories_sizes":[],"default_left":[0,0,0,0,0,0,0,0,0,0,0,0,0,0,0,0,0,0,0,0,0,0,0,0,0,0,0,0,0],"id":13,"left_children":[1,3,5,7,9,11,13,-1,15,17,19,21,23,25,27,-1,-1,-1,-1,-1,-1,-1,-1,-1,-1,-1,-1,-1,-1],"loss_changes":[3.818322E1,1.3165712E1,1.6511475E1,4.8433456E0,9.04199E0,1.0144928E1,4.5894585E0,0E0,4.851923E0,8.5544815E0,4.479219E0,3.6478727E0,1.3124664E1,3.7993398E0,5.0444193E0,0E0,0E0,0E0,0E0,0E0,0E0,0E0,0E0,0E0,0E0,0E0,0E0,0E0,0E0],"parents":[2147483647,0,0,1,1,2,2,3,3,4,4,5,5,6,6,8,8,9,9,10,10,11,11,12,12,13,13,14,14],"right_children":[2,4,6,8,10,12,14,-1,16,18,20,22,24,26,28,-1,-1,-1,-1,-1,-1,-1,-1,-1,-1,-1,-1,-1,-1],"split_conditions":[2E-1,-4.4235148E-2,5.598688E-1,-4.58479E-2,1.3983098E-1,9.527042E-2,1.0518309E-1,2.9607689E-2,0E0,5.6495565E-1,1.4357375E-1,1E0,1.0275568E-1,8E0,1.192104E-1,-3.0212298E-2,-1.285068E-2,-7.6962034E-3,4.356396E-3,3.2919656E-2,5.145397E-3,-2.4496771E-2,1.8331787E-2,2.7104307E-2,9.409669E-3,1.0171253E-2,-2.794472E-2,1.2883468E-2,-7.364097E-3],"split_indices":[9,6,1,7,3,3,3,0,10,1,3,10,2,5,3,0,0,0,0,0,0,0,0,0,0,0,0,0,0],"split_type":[0,0,0,0,0,0,0,0,0,0,0,0,0,0,0,0,0,0,0,0,0,0,0,0,0,0,0,0,0],"sum_hessian":[6.628858E2,3.871191E2,2.757667E2,9.993872E1,2.871804E2,2.144368E2,6.1329895E1,1.2315682E0,9.870715E1,2.6424844E2,2.293194E1,9.433987E0,2.050028E2,1.2722954E1,4.860694E1,1.790572E1,8.080143E1,1.9192125E2,7.232719E1,7.1940746E0,1.5737865E1,7.9761243E0,1.457862E0,4.9800465E1,1.5520235E2,2.4153929E0,1.0307561E1,1.5372824E1,3.3234116E1],"tree_param":{"num_deleted":"0","num_feature":"11","num_nodes":"29","size_leaf_vector":"1"}},{"base_weights":[-7.181691E-4,-2.1091804E-1,2.6145825E-1,-5.265638E-1,-6.960641E-2,9.2508525E-2,5.22189E-1,-3.1214845E-1,-7.388332E-1,3.7405455E-1,-1.225849E-1,-2.7047437E-1,1.9510978E-1,-6.6080457E-1,5.607711E-1,1.8210586E-2,-1.1274932E-2,-3.157226E-2,-1.1021483E-2,2.6443837E-2,-4.2777043E-3,-6.3182986E-3,4.121229E-3,6.5015914E-4,-2.4446689E-2,-2.2363177E-2,7.496529E-3,7.9665175E-3,-4.1688304E-2,1.7769022E-2,-1.9261865E-2],"categories":[],"categories_nodes":[],"categories_segments":[],"categories_sizes":[],"default_left":[0,0,0,0,0,0,0,0,0,0,0,0,0,0,0,0,0,0,0,0,0,0,0,0,0,0,0,0,0,0,0],"id":14,"left_children":[1,3,5,7,9,11,13,15,17,19,21,23,25,27,29,-1,-1,-1,-1,-1,-1,-1,-1,-1,-1,-1,-1,-1,-1,-1,-1],"loss_changes":[3.6617775E1,1.6412634E1,1.2976215E1,4.9530067E0,6.0604205E0,6.7798963E0,5.667036E0,3.646047E0,6.19442E0,7.3462257E0,5.2770505E0,6.415363E0,7.471221E0,3.1533556E0,4.662739E0,0E0,0E0,0E0,0E0,0E0,0E0,0E0,0E0,0E0,0E0,0E0,0E0,0E0,0E0,0E0,0E0],"parents":[2147483647,0,0,1,1,2,2,3,3,4,4,5,5,6,6,7,7,8,8,9,9,10,10,11,11,12,12,13,13,14,14],"right_children":[2,4,6,8,10,12,14,16,18,20,22,24,26,28,30,-1,-1,-1,-1,-1,-1,-1,-1,-1,-1,-1,-1,-1,-1,-1,-1],"split_conditions":[9.8423865E-3,-2E-1,4E-1,1.06E1,5.2793944E-1,0E0,7.4E0,5.385212E-1,5.2605504E-1,1.16E1,1E0,5.371858E-1,5.24962E-1,1.1307078E-1,3.186267E-2,1.8210586E-2,-1.1274932E-2,-3.157226E-2,-1.1021483E-2,2.6443837E-2,-4.2777043E-3,-6.3182986E-3,4.121229E-3,6.5015914E-4,-2.4446689E-2,-2.2363177E-2,7.496529E-3,7.9665175E-3,-4.1688304E-2,1.7769022E-2,-1.9261865E-2],"split_indices":[6,9,9,5,1,10,5,1,0,5,10,1,0,2,7,0,0,0,0,0,0,0,0,0,0,0,0,0,0,0,0],"split_type":[0,0,0,0,0,0,0,0,0,0,0,0,0,0,0,0,0,0,0,0,0,0,0,0,0,0,0,0,0,0,0],"sum_hessian":[6.6245483E2,3.6778156E2,2.9467328E2,1.128914E2,2.5489015E2,1.796303E2,1.15042984E2,5.739087E1,5.5500534E1,2.6543642E1,2.2834651E2,3.9224747E1,1.4040555E2,3.1241422E0,1.1191884E2,3.1657538E0,5.4225117E1,2.9100708E1,2.6399826E1,1.3035298E1,1.3508345E1,1.7072649E2,5.7620033E1,2.6151443E1,1.3073303E1,7.032869E0,1.3337267E2,1.6555172E0,1.468625E0,1.0955468E2,2.3641613E0],"tree_param":{"num_deleted":"0","num_feature":"11","num_nodes":"31","size_leaf_vector":"1"}},{"base_weights":[-8.180433E-4,-2.045444E-1,2.5399032E-1,-5.1063657E-1,-6.742065E-2,8.9595735E-2,5.08736E-1,-4.2517337E-1,-1.0502995E0,3.6457542E-1,-1.1885324E-1,4.5208704E-1,-1.191509E-2,-6.4829904E-1,5.4673344E-1,-2.846387E-2,-8.431799E-3,-4.0089596E-2,5.4746433E-3,2.585351E-2,-4.1552074E-3,-6.2094172E-3,4.139558E-3,-3.7169238E-3,1.984406E-2,-1.4177256E-2,3.5452072E-3,1.2691821E-2,-3.6593568E-2,1.7332915E-2,-1.8796945E-2],"categories":[],"categories_nodes":[],"categories_segments":[],"categories_sizes":[],"default_left":[0,0,0,0,0,0,0,0,0,0,0,0,0,0,0,0,0,0,0,0,0,0,0,0,0,0,0,0,0,0,0],"id":15,"left_children":[1,3,5,7,9,11,13,15,17,19,21,23,25,27,29,-1,-1,-1,-1,-1,-1,-1,-1,-1,-1,-1,-1,-1,-1,-1,-1],"loss_changes":[3.44639E1,1.5450434E1,1.2307495E1,4.8107376E0,5.7299867E0,6.6469216E0,5.4314327E0,7.285824E0,5.498909E0,6.9920373E0,5.222376E0,4.84717E0,8.564224E0,3.0442886E0,4.4524536E0,0E0,0E0,0E0,0E0,0E0,0E0,0E0,0E0,0E0,0E0,0E0,0E0,0E0,0E0,0E0,0E0],"parents":[2147483647,0,0,1,1,2,2,3,3,4,4,5,5,6,6,7,7,8,8,9,9,10,10,11,11,12,12,13,13,14,14],"right_children":[2,4,6,8,10,12,14,16,18,20,22,24,26,28,30,-1,-1,-1,-1,-1,-1,-1,-1,-1,-1,-1,-1,-1,-1,-1,-1],"split_conditions":[9.8423865E-3,-2E-1,4E-1,1.32E1,5.2793944E-1,-3.6E0,7.4E0,0E0,-8.171943E-3,1.16E1,5.578246E-1,7.4E0,0E0,1.1238569E-1,3.186267E-2,-2.846387E-2,-8.431799E-3,-4.0089596E-2,5.4746433E-3,2.585351E-2,-4.1552074E-3,-6.2094172E-3,4.139558E-3,-3.7169238E-3,1.984406E-2,-1.4177256E-2,3.5452072E-3,1.2691821E-2,-3.6593568E-2,1.7332915E-2,-1.8796945E-2],"split_indices":[6,9,9,5,1,8,5,10,6,5,0,4,10,2,7,0,0,0,0,0,0,0,0,0,0,0,0,0,0,0,0],"split_type":[0,0,0,0,0,0,0,0,0,0,0,0,0,0,0,0,0,0,0,0,0,0,0,0,0,0,0,0,0,0,0],"sum_hessian":[6.619006E2,3.6792865E2,2.9397192E2,1.12988365E2,2.549403E2,1.7949223E2,1.1447968E2,9.908475E1,1.3903613E1,2.6475674E1,2.2846463E2,3.851238E1,1.4097984E2,3.129313E0,1.1135037E2,2.0179777E1,7.8904976E1,1.1217133E1,2.6864815E0,1.2956978E1,1.3518697E1,1.7024402E2,5.8220608E1,1.0376394E1,2.8135984E1,3.0465393E1,1.1051445E2,1.1789211E0,1.9503919E0,1.0897584E2,2.3745303E0],"tree_param":{"num_deleted":"0","num_feature":"11","num_nodes":"31","size_leaf_vector":"1"}},{"base_weights":[-8.8912377E-4,-1.8801048E-1,2.634387E-1,-3.5584992E-1,-9.207887E-3,3.8807362E-1,-1.6809241E-1,3.241063E-1,-4.2928654E-1,-2.5949404E-1,1.7277871E-1,-5.5246204E-1,4.3424526E-1,-6.612028E-1,-2.7935514E-2,2.388964E-2,-5.83989E-4,-1.5363448E-2,6.958022E-4,-2.426115E-2,-2.6681437E-3,-2.5778965E-4,1.1356872E-2,-4.135359E-2,-3.868125E-3,2.6233274E-2,8.670957E-3,9.93672E-3,-2.7036183E-2,1.2469525E-2,-7.1511897E-3],"categories":[],"categories_nodes":[],"categories_segments":[],"categories_sizes":[],"default_left":[0,0,0,0,0,0,0,0,0,0,0,0,0,0,0,0,0,0,0,0,0,0,0,0,0,0,0,0,0,0,0],"id":16,"left_children":[1,3,5,7,9,11,13,15,17,19,21,23,25,27,29,-1,-1,-1,-1,-1,-1,-1,-1,-1,-1,-1,-1,-1,-1,-1,-1],"loss_changes":[3.280856E1,1.1651922E1,1.4852552E1,1.01409855E1,8.656858E0,9.516964E0,4.2880063E0,3.2755902E0,6.8032417E0,7.421697E0,4.1115646E0,3.4732635E0,1.2799755E1,3.5727777E0,4.725749E0,0E0,0E0,0E0,0E0,0E0,0E0,0E0,0E0,0E0,0E0,0E0,0E0,0E0,0E0,0E0,0E0],"parents":[2147483647,0,0,1,1,2,2,3,3,4,4,5,5,6,6,7,7,8,8,9,9,10,10,11,11,12,12,13,13,14,14],"right_children":[2,4,6,8,10,12,14,16,18,20,22,24,26,28,30,-1,-1,-1,-1,-1,-1,-1,-1,-1,-1,-1,-1,-1,-1,-1,-1],"split_conditions":[2E-1,5.4117054E-1,5.598688E-1,5.067956E-1,1.0982163E-1,9.527042E-2,1.0518309E-1,5.1117325E-1,1.352759E-1,0E0,5.659265E-1,1.5295313E-2,1.0275568E-1,8E0,1.192104E-1,2.388964E-2,-5.83989E-4,-1.5363448E-2,6.958022E-4,-2.426115E-2,-2.6681437E-3,-2.5778965E-4,1.1356872E-2,-4.135359E-2,-3.868125E-3,2.6233274E-2,8.670957E-3,9.93672E-3,-2.7036183E-2,1.2469525E-2,-7.1511897E-3],"split_indices":[9,0,1,1,3,3,3,0,3,10,1,7,2,5,3,0,0,0,0,0,0,0,0,0,0,0,0,0,0,0,0],"split_type":[0,0,0,0,0,0,0,0,0,0,0,0,0,0,0,0,0,0,0,0,0,0,0,0,0,0,0,0,0,0,0],"sum_hessian":[6.6131525E2,3.8737546E2,2.7393976E2,1.9930269E2,1.8807277E2,2.1262894E2,6.1310833E1,1.9094213E1,1.8020848E2,7.899923E1,1.0907353E2,9.43657E0,2.0319237E2,1.2746737E1,4.8564095E1,7.48663E0,1.1607584E1,1.5221338E2,2.7995106E1,1.7833046E1,6.1166187E1,5.84849E1,5.058863E1,2.4342961E0,7.002274E0,4.915698E1,1.5403539E2,2.4082813E0,1.0338454E1,1.5312121E1,3.3251976E1],"tree_param":{"num_deleted":"0","num_feature":"11","num_nodes":"31","size_leaf_vector":"1"}},{"base_weights":[-8.917642E-4,-3.2182422E-1,1.4592756E-1,-9.467011E-1,-2.6607317E-1,1.7003606E-3,4.843778E-1,-1.0378827E0,3.1905654E-3,8.101952E-1,-3.1509867E-1,-2.4134374E-1,1.0647154E-1,8.8441324E-1,3.74896E-1,-3.929007E-2,-1.6412828E-2,3.923028E-2,-3.096829E-3,-2.1002933E-2,-6.479064E-3,-1.6859118E-2,-2.3536661E-3,2.3757093E-2,2.157221E-3,2.8675353E-2,-1.1673249E-2,-2.6885238E-3,1.3837994E-2],"categories":[],"categories_nodes":[],"categories_segments":[],"categories_sizes":[],"default_left":[0,0,0,0,0,0,0,0,0,0,0,0,0,0,0,0,0,0,0,0,0,0,0,0,0,0,0,0,0],"id":17,"left_children":[1,3,5,7,9,11,13,15,-1,17,19,21,23,25,27,-1,-1,-1,-1,-1,-1,-1,-1,-1,-1,-1,-1,-1,-1],"loss_changes":[3.1229988E1,6.9956093E0,2.2197449E1,1.7090645E0,1.0406543E1,8.170984E0,5.619528E0,1.3397999E0,0E0,4.0709696E0,6.898844E0,5.004148E0,5.254984E0,2.96105E0,4.3911304E0,0E0,0E0,0E0,0E0,0E0,0E0,0E0,0E0,0E0,0E0,0E0,0E0,0E0,0E0],"parents":[2147483647,0,0,1,1,2,2,3,3,4,4,5,5,6,6,7,7,9,9,10,10,11,11,12,12,13,13,14,14],"right_children":[2,4,6,8,10,12,14,16,-1,18,20,22,24,26,28,-1,-1,-1,-1,-1,-1,-1,-1,-1,-1,-1,-1,-1,-1],"split_conditions":[-2.1375367E-2,9.366039E-2,4E-1,6.1812586E-1,9.68048E-2,1.06874935E-1,1.0140538E-1,2.3946302E-2,3.1905654E-3,2.2E0,-4E-1,1.0184432E-2,1.07997745E-1,1.8821659E-3,8.6E0,-3.929007E-2,-1.6412828E-2,3.923028E-2,-3.096829E-3,-2.1002933E-2,-6.479064E-3,-1.6859118E-2,-2.3536661E-3,2.3757093E-2,2.157221E-3,2.8675353E-2,-1.1673249E-2,-2.6885238E-3,1.3837994E-2],"split_indices":[6,3,9,1,3,3,2,7,0,8,9,7,3,7,4,0,0,0,0,0,0,0,0,0,0,0,0,0,0],"split_type":[0,0,0,0,0,0,0,0,0,0,0,0,0,0,0,0,0,0,0,0,0,0,0,0,0,0,0,0,0],"sum_hessian":[6.607918E2,2.0703717E2,4.537546E2,1.5649649E1,1.9138753E2,3.1887445E2,1.3488016E2,1.441582E1,1.2338282E0,7.6617327E0,1.8372578E2,9.5660774E1,2.2321368E2,2.7461275E1,1.07418884E2,8.204096E0,6.2117243E0,4.6807933E0,2.9809394E0,3.637821E1,1.4734758E2,3.1401148E1,6.425963E1,9.663745E0,2.1354993E2,2.6238977E1,1.2222984E0,1.6835804E1,9.058308E1],"tree_param":{"num_deleted":"0","num_feature":"11","num_nodes":"29","size_leaf_vector":"1"}},{"base_weights":[-8.658146E-4,-1.901337E-1,2.373178E-1,-4.7728777E-1,-6.1364066E-2,8.523844E-2,4.756939E-1,-3.94288E-1,-1.0041394E0,3.5302532E-1,-1.10513195E-1,4.3873903E-1,-1.3514908E-2,-6.4573133E-1,5.131431E-1,-2.6984455E-2,-7.664843E-3,-3.842861E-2,5.5104312E-3,2.527681E-2,-4.173615E-3,-5.8767893E-3,4.2545963E-3,-3.6031788E-3,1.928635E-2,-1.3682173E-2,3.3557639E-3,7.6601324E-3,-4.0404037E-2,1.6312053E-2,-1.8645655E-2],"categories":[],"categories_nodes":[],"categories_segments":[],"categories_sizes":[],"default_left":[0,0,0,0,0,0,0,0,0,0,0,0,0,0,0,0,0,0,0,0,0,0,0,0,0,0,0,0,0,0,0],"id":18,"left_children":[1,3,5,7,9,11,13,15,17,19,21,23,25,27,29,-1,-1,-1,-1,-1,-1,-1,-1,-1,-1,-1,-1,-1,-1,-1,-1],"loss_changes":[2.9853146E1,1.3615027E1,1.0589296E1,4.593237E0,5.2509723E0,6.297697E0,5.118479E0,6.7968245E0,5.1283894E0,6.7117395E0,4.972846E0,4.5703316E0,7.9213853E0,2.95056E0,4.1861553E0,0E0,0E0,0E0,0E0,0E0,0E0,0E0,0E0,0E0,0E0,0E0,0E0,0E0,0E0,0E0,0E0],"parents":[2147483647,0,0,1,1,2,2,3,3,4,4,5,5,6,6,7,7,8,8,9,9,10,10,11,11,12,12,13,13,14,14],"right_children":[2,4,6,8,10,12,14,16,18,20,22,24,26,28,30,-1,-1,-1,-1,-1,-1,-1,-1,-1,-1,-1,-1,-1,-1,-1,-1],"split_conditions":[9.8423865E-3,-2E-1,4E-1,1.32E1,5.2793944E-1,-3.6E0,7.4E0,0E0,-8.171943E-3,1.16E1,1E0,7.4E0,0E0,1.1307078E-1,3.186267E-2,-2.6984455E-2,-7.664843E-3,-3.842861E-2,5.5104312E-3,2.527681E-2,-4.173615E-3,-5.8767893E-3,4.2545963E-3,-3.6031788E-3,1.928635E-2,-1.3682173E-2,3.3557639E-3,7.6601324E-3,-4.0404037E-2,1.6312053E-2,-1.8645655E-2],"split_indices":[6,9,9,5,1,8,5,10,6,5,10,4,10,2,7,0,0,0,0,0,0,0,0,0,0,0,0,0,0,0,0],"split_type":[0,0,0,0,0,0,0,0,0,0,0,0,0,0,0,0,0,0,0,0,0,0,0,0,0,0,0,0,0,0,0],"sum_hessian":[6.602176E2,3.6799744E2,2.9222015E2,1.1309377E2,2.5490366E2,1.7923149E2,1.1298865E2,9.921233E1,1.3881441E1,2.6371954E1,2.2853171E2,3.8384903E1,1.4084659E2,3.126357E0,1.0986229E2,2.02012E1,7.901113E1,1.1194277E1,2.6871643E0,1.2864092E1,1.3507862E1,1.7092197E2,5.760974E1,1.0380164E1,2.800474E1,3.0510315E1,1.1033627E2,1.6462537E0,1.4801034E0,1.0748515E2,2.3771381E0],"tree_param":{"num_deleted":"0","num_feature":"11","num_nodes":"31","size_leaf_vector":"1"}},{"base_weights":[-9.4666675E-4,-1.7402908E-1,2.4529684E-1,-3.3221203E-1,-5.3645265E-3,3.6428392E-1,-1.6338503E-1,3.1202155E-1,-4.0153587E-1,-2.4565212E-1,1.6963024E-1,-6.6368204E-1,4.0400663E-1,-1.0525794E0,-8.875463E-2,1.3456656E-2,-2.1788742E-2,-1.4448929E-2,1.0794299E-3,-2.3027992E-2,-2.4961538E-3,-3.4377683E-4,1.1255947E-2,-3.0561253E-2,1.7842438E-2,2.4382113E-2,8.112786E-3,-3.699415E-2,-9.075482E-3,-1.750425E-2,1.6503502E-3],"categories":[],"categories_nodes":[],"categories_segments":[],"categories_sizes":[],"default_left":[0,0,0,0,0,0,0,0,0,0,0,0,0,0,0,0,0,0,0,0,0,0,0,0,0,0,0,0,0,0,0],"id":19,"left_children":[1,3,5,7,9,11,13,15,17,19,21,23,25,27,29,-1,-1,-1,-1,-1,-1,-1,-1,-1,-1,-1,-1,-1,-1,-1,-1],"loss_changes":[2.8197144E1,1.0363483E1,1.3338858E1,9.078228E0,7.9906106E0,8.91717E0,4.038803E0,3.166525E0,6.37508E0,6.724952E0,4.0981474E0,4.2956743E0,1.0948486E1,2.674737E-1,4.1956635E0,0E0,0E0,0E0,0E0,0E0,0E0,0E0,0E0,0E0,0E0,0E0,0E0,0E0,0E0,0E0,0E0],"parents":[2147483647,0,0,1,1,2,2,3,3,4,4,5,5,6,6,7,7,8,8,9,9,10,10,11,11,12,12,13,13,14,14],"right_children":[2,4,6,8,10,12,14,16,18,20,22,24,26,28,30,-1,-1,-1,-1,-1,-1,-1,-1,-1,-1,-1,-1,-1,-1,-1,-1],"split_conditions":[2E-1,5.4117054E-1,5.598688E-1,5.067956E-1,1.0982163E-1,9.388656E-2,5.225351E-1,2.83834E-2,1.352759E-1,0E0,5.659265E-1,1E0,1.0275568E-1,1.2979677E-1,1.0518309E-1,1.3456656E-2,-2.1788742E-2,-1.4448929E-2,1.0794299E-3,-2.3027992E-2,-2.4961538E-3,-3.4377683E-4,1.1255947E-2,-3.0561253E-2,1.7842438E-2,2.4382113E-2,8.112786E-3,-3.699415E-2,-9.075482E-3,-1.750425E-2,1.6503502E-3],"split_indices":[9,0,1,1,3,3,0,7,3,10,1,10,2,3,3,0,0,0,0,0,0,0,0,0,0,0,0,0,0,0,0],"split_type":[0,0,0,0,0,0,0,0,0,0,0,0,0,0,0,0,0,0,0,0,0,0,0,0,0,0,0,0,0,0,0],"sum_hessian":[6.5958606E2,3.8750525E2,2.720808E2,1.9946565E2,1.8803961E2,2.1081189E2,6.1268917E1,1.9038445E1,1.8042722E2,7.906738E1,1.0897222E2,7.2587247E0,2.0355316E2,3.7294903E0,5.753943E1,1.7327898E1,1.7105472E0,1.5242273E2,2.8004477E1,1.7883114E1,6.118427E1,5.843754E1,5.0534683E1,5.810085E0,1.4486401E0,4.888627E1,1.546669E2,2.4868078E0,1.2426826E0,1.2267322E1,4.5272106E1],"tree_param":{"num_deleted":"0","num_feature":"11","num_nodes":"31","size_leaf_vector":"1"}},{"base_weights":[-1.0245183E-3,-1.8067744E-1,2.2599198E-1,-4.5510393E-1,-5.7567813E-2,8.059966E-2,4.554563E-1,-2.550985E-1,-6.5404636E-1,3.4382448E-1,-1.05023615E-1,4.260004E-1,-1.565727E-2,-6.39528E-1,4.9242035E-1,1.87686E-2,-9.505635E-3,-2.8496291E-2,-9.200394E-3,2.4750838E-2,-4.1086227E-3,3.8540943E-3,-5.782465E-3,-3.5116253E-3,1.8760307E-2,-1.3260105E-2,3.1637223E-3,1.2209682E-2,-3.5705157E-2,1.5672963E-2,-1.817975E-2],"categories":[],"categories_nodes":[],"categories_segments":[],"categories_sizes":[],"default_left":[0,0,0,0,0,0,0,0,0,0,0,0,0,0,0,0,0,0,0,0,0,0,0,0,0,0,0,0,0,0,0],"id":20,"left_children":[1,3,5,7,9,11,13,15,17,19,21,23,25,27,29,-1,-1,-1,-1,-1,-1,-1,-1,-1,-1,-1,-1,-1,-1,-1,-1],"loss_changes":[2.6958647E1,1.2440073E1,9.705525E0,4.3741627E0,4.9099784E0,5.9900875E0,4.890438E0,3.3827562E0,5.5224686E0,6.4257536E0,4.727337E0,4.3230863E0,7.3640146E0,2.8623457E0,3.940094E0,0E0,0E0,0E0,0E0,0E0,0E0,0E0,0E0,0E0,0E0,0E0,0E0,0E0,0E0,0E0,0E0],"parents":[2147483647,0,0,1,1,2,2,3,3,4,4,5,5,6,6,7,7,8,8,9,9,10,10,11,11,12,12,13,13,14,14],"right_children":[2,4,6,8,10,12,14,16,18,20,22,24,26,28,30,-1,-1,-1,-1,-1,-1,-1,-1,-1,-1,-1,-1,-1,-1,-1,-1],"split_conditions":[9.8423865E-3,-2E-1,4E-1,1.06E1,5.2793944E-1,-3.6E0,7.4E0,5.385212E-1,5.2605504E-1,1.16E1,-1.9038908E-2,7.4E0,0E0,1.1238569E-1,3.186267E-2,1.87686E-2,-9.505635E-3,-2.8496291E-2,-9.200394E-3,2.4750838E-2,-4.1086227E-3,3.8540943E-3,-5.782465E-3,-3.5116253E-3,1.8760307E-2,-1.3260105E-2,3.1637223E-3,1.2209682E-2,-3.5705157E-2,1.5672963E-2,-1.817975E-2],"split_indices":[6,9,9,5,1,8,5,1,0,5,7,4,10,2,7,0,0,0,0,0,0,0,0,0,0,0,0,0,0,0,0],"split_type":[0,0,0,0,0,0,0,0,0,0,0,0,0,0,0,0,0,0,0,0,0,0,0,0,0,0,0,0,0,0,0],"sum_hessian":[6.590063E2,3.6799332E2,2.9101294E2,1.1312563E2,2.5486769E2,1.7896748E2,1.12045456E2,5.755019E1,5.5575443E1,2.628636E1,2.2858133E2,3.8258404E1,1.4070909E2,3.1265483E0,1.0891891E2,3.172719E0,5.4377472E1,2.9077482E1,2.6497961E1,1.2779521E1,1.350684E1,6.2299015E1,1.6628232E2,1.0383706E1,2.7874699E1,3.0542908E1,1.10166176E2,1.1678654E0,1.9586828E0,1.0653252E2,2.3863957E0],"tree_param":{"num_deleted":"0","num_feature":"11","num_nodes":"31","size_leaf_vector":"1"}},{"base_weights":[-1.0295797E-3,-2.9067364E-1,1.3234109E-1,-8.881844E-1,-2.3749639E-1,1.2597109E-3,4.4454834E-1,-9.770703E-1,3.644448E-3,8.124923E-1,-2.8536156E-1,-2.2649205E-1,9.9733524E-2,8.402736E-1,3.379969E-1,-3.7320767E-2,-1.5024465E-2,3.890208E-2,-2.410374E-3,-1.9222999E-2,-5.8190827E-3,-1.6127083E-2,-2.0500459E-3,2.3247723E-2,1.9738644E-3,2.7358849E-2,-1.1763904E-2,-3.628094E-3,1.2721211E-2],"categories":[],"categories_nodes":[],"categories_segments":[],"categories_sizes":[],"default_left":[0,0,0,0,0,0,0,0,0,0,0,0,0,0,0,0,0,0,0,0,0,0,0,0,0,0,0,0,0],"id":21,"left_children":[1,3,5,7,9,11,13,15,-1,17,19,21,23,25,27,-1,-1,-1,-1,-1,-1,-1,-1,-1,-1,-1,-1,-1,-1],"loss_changes":[2.5509323E1,6.404339E0,1.8503717E1,1.6129436E0,9.908912E0,7.187198E0,5.353489E0,1.3366013E0,0E0,3.8461018E0,5.8812685E0,4.7225847E0,5.0754642E0,2.8039703E0,4.276947E0,0E0,0E0,0E0,0E0,0E0,0E0,0E0,0E0,0E0,0E0,0E0,0E0,0E0,0E0],"parents":[2147483647,0,0,1,1,2,2,3,3,4,4,5,5,6,6,7,7,9,9,10,10,11,11,12,12,13,13,14,14],"right_children":[2,4,6,8,10,12,14,16,-1,18,20,22,24,26,28,-1,-1,-1,-1,-1,-1,-1,-1,-1,-1,-1,-1,-1,-1],"split_conditions":[-2.1375367E-2,9.366039E-2,4E-1,6.1812586E-1,9.68048E-2,1.06874935E-1,1.0140538E-1,2.3946302E-2,3.644448E-3,2.2E0,-4E-1,1.0184432E-2,1.07997745E-1,1.8821659E-3,8.6E0,-3.7320767E-2,-1.5024465E-2,3.890208E-2,-2.410374E-3,-1.9222999E-2,-5.8190827E-3,-1.6127083E-2,-2.0500459E-3,2.3247723E-2,1.9738644E-3,2.7358849E-2,-1.1763904E-2,-3.628094E-3,1.2721211E-2],"split_indices":[6,3,9,1,3,3,2,7,0,8,9,7,3,7,4,0,0,0,0,0,0,0,0,0,0,0,0,0,0],"split_type":[0,0,0,0,0,0,0,0,0,0,0,0,0,0,0,0,0,0,0,0,0,0,0,0,0,0,0,0,0],"sum_hessian":[6.5835376E2,2.0719794E2,4.5115585E2,1.5649918E1,1.9154802E2,3.1845526E2,1.3270059E2,1.4413325E1,1.2365925E0,7.6548014E0,1.8389322E2,9.5735855E1,2.2271939E2,2.6689901E1,1.060107E2,8.203124E0,6.2102013E0,4.6697297E0,2.9850717E0,3.6385685E1,1.4750754E2,3.1459534E1,6.427632E1,9.614157E0,2.1310524E2,2.5468435E1,1.221466E0,1.6673435E1,8.933726E1],"tree_param":{"num_deleted":"0","num_feature":"11","num_nodes":"29","size_leaf_vector":"1"}},{"base_weights":[-9.961188E-4,-1.7142744E-1,2.152389E-1,-6.157877E-1,-1.0187338E-1,7.82878E-2,4.3320748E-1,2.6446053E-1,-7.5935245E-1,-5.505269E-1,-6.2022146E-2,-6.0272074E-1,1.2590958E-1,-6.3329905E-1,4.696486E-1,-1.25477025E-2,1.4875892E-2,-2.5236739E-2,1.8559413E-2,-2.985081E-2,5.8638025E-4,1.1076797E-2,-3.1901347E-3,-2.289698E-2,1.36187365E-2,-4.370965E-3,7.4247625E-3,1.1927638E-2,-3.5137393E-2,1.4817407E-2,-2.5420591E-2],"categories":[],"categories_nodes":[],"categories_segments":[],"categories_sizes":[],"default_left":[0,0,0,0,0,0,0,0,0,0,0,0,0,0,0,0,0,0,0,0,0,0,0,0,0,0,0,0,0,0,0],"id":22,"left_children":[1,3,5,7,9,11,13,15,17,19,21,23,25,27,29,-1,-1,-1,-1,-1,-1,-1,-1,-1,-1,-1,-1,-1,-1,-1,-1],"loss_changes":[2.431336E1,1.1340107E1,8.646591E0,6.4859276E0,5.6909275E0,5.907193E0,4.6497574E0,1.4263549E0,5.3738155E0,6.606444E0,5.6810493E0,2.3690095E0,5.613048E0,2.7537034E0,3.8973904E0,0E0,0E0,0E0,0E0,0E0,0E0,0E0,0E0,0E0,0E0,0E0,0E0,0E0,0E0,0E0,0E0],"parents":[2147483647,0,0,1,1,2,2,3,3,4,4,5,5,6,6,7,7,8,8,9,9,10,10,11,11,12,12,13,13,14,14],"right_children":[2,4,6,8,10,12,14,16,18,20,22,24,26,28,30,-1,-1,-1,-1,-1,-1,-1,-1,-1,-1,-1,-1,-1,-1,-1,-1],"split_conditions":[9.8423865E-3,-4E-1,4E-1,1.0322562E-1,9.388656E-2,5.2605504E-1,7.4E0,-1.4E0,2E0,2.3946302E-2,5.275176E-1,4.208748E-2,1.06636114E-1,1.1238569E-1,1.5998685E-1,-1.25477025E-2,1.4875892E-2,-2.5236739E-2,1.8559413E-2,-2.985081E-2,5.8638025E-4,1.1076797E-2,-3.1901347E-3,-2.289698E-2,1.36187365E-2,-4.370965E-3,7.4247625E-3,1.1927638E-2,-3.5137393E-2,1.4817407E-2,-2.5420591E-2],"split_indices":[6,9,9,2,3,0,5,8,10,7,1,6,3,2,3,0,0,0,0,0,0,0,0,0,0,0,0,0,0,0,0],"split_type":[0,0,0,0,0,0,0,0,0,0,0,0,0,0,0,0,0,0,0,0,0,0,0,0,0,0,0,0,0,0,0],"sum_hessian":[6.577338E2,3.6793967E2,2.8979413E2,4.8734715E1,3.1920496E2,1.7880742E2,1.1098671E2,6.7157707E0,4.2018944E1,2.4994713E1,2.9421024E2,1.0924645E1,1.6788278E2,3.1258261E0,1.07860886E2,1.4956378E0,5.220133E0,4.0030132E1,1.988812E0,1.3625293E1,1.1369421E1,2.67329E1,2.6747736E2,9.725087E0,1.1995575E0,5.1851383E1,1.16031395E2,1.1613013E0,1.964525E0,1.0652323E2,1.3376571E0],"tree_param":{"num_deleted":"0","num_feature":"11","num_nodes":"31","size_leaf_vector":"1"}},{"base_weights":[-1.0576544E-3,-1.5717264E-1,2.230153E-1,-3.036898E-1,-8.7773E-4,4.5111376E-1,3.1946495E-2,3.0306804E-1,-3.6879343E-1,-2.2810963E-1,1.6494058E-1,-6.397391E-1,4.9642897E-1,-1.0789574E-1,5.054844E-1,2.299958E-2,-9.454914E-4,-1.3375692E-2,1.5568187E-3,-2.1828713E-2,-2.1778343E-3,-5.469553E-4,1.1185531E-2,-3.3342097E-2,3.7018273E-3,-1.3674605E-2,1.6293466E-2,7.6241675E-3,-7.7926912E-3,2.516223E-2,-6.093456E-3],"categories":[],"categories_nodes":[],"categories_segments":[],"categories_sizes":[],"default_left":[0,0,0,0,0,0,0,0,0,0,0,0,0,0,0,0,0,0,0,0,0,0,0,0,0,0,0,0,0,0,0],"id":23,"left_children":[1,3,5,7,9,11,13,15,17,19,21,23,25,27,29,-1,-1,-1,-1,-1,-1,-1,-1,-1,-1,-1,-1,-1,-1,-1,-1],"loss_changes":[2.305709E1,8.895644E0,1.1781513E1,8.032097E0,7.1577115E0,6.4124527E0,9.879025E0,3.1228828E0,5.908104E0,6.172597E0,4.1893578E0,2.0644743E0,5.5354385E0,6.4083724E0,8.199293E0,0E0,0E0,0E0,0E0,0E0,0E0,0E0,0E0,0E0,0E0,0E0,0E0,0E0,0E0,0E0,0E0],"parents":[2147483647,0,0,1,1,2,2,3,3,4,4,5,5,6,6,7,7,8,8,9,9,10,10,11,11,12,12,13,13,14,14],"right_children":[2,4,6,8,10,12,14,16,18,20,22,24,26,28,30,-1,-1,-1,-1,-1,-1,-1,-1,-1,-1,-1,-1,-1,-1,-1,-1],"split_conditions":[2E-1,5.4117054E-1,5.326557E-1,5.067956E-1,1.0982163E-1,9.388656E-2,1E0,5.1117325E-1,1.352759E-1,0E0,5.659265E-1,3.234756E-2,5.1117325E-1,-1.9038908E-2,5.672786E-1,2.299958E-2,-9.454914E-4,-1.3375692E-2,1.5568187E-3,-2.1828713E-2,-2.1778343E-3,-5.469553E-4,1.1185531E-2,-3.3342097E-2,3.7018273E-3,-1.3674605E-2,1.6293466E-2,7.6241675E-3,-7.7926912E-3,2.516223E-2,-6.093456E-3],"split_indices":[9,0,1,1,3,3,10,0,3,10,1,7,0,7,1,0,0,0,0,0,0,0,0,0,0,0,0,0,0,0,0],"split_type":[0,0,0,0,0,0,0,0,0,0,0,0,0,0,0,0,0,0,0,0,0,0,0,0,0,0,0,0,0,0,0],"sum_hessian":[6.571271E2,3.874697E2,2.6965738E2,1.9950375E2,1.8796594E2,1.222974E2,1.4735997E2,1.8977804E1,1.8052596E2,7.913977E1,1.08826164E2,4.3545585E0,1.1794284E2,1.1436003E2,3.299994E1,7.4139805E0,1.1563824E1,1.525259E2,2.800006E1,1.7915724E1,6.1224045E1,5.834E1,5.0486168E1,2.4091718E0,1.9453869E0,5.1026454E0,1.12840195E2,3.3595387E1,8.076465E1,2.2319395E1,1.0680543E1],"tree_param":{"num_deleted":"0","num_feature":"11","num_nodes":"31","size_leaf_vector":"1"}},{"base_weights":[-1.0295871E-3,-1.6235037E-1,2.0449723E-1,-4.1574824E-1,-4.872314E-2,7.4556075E-2,4.1283977E-1,-3.3622783E-1,-9.2651373E-1,-3.7771073E-1,4.7219996E-3,4.1008177E-1,-1.8656533E-2,8.543689E-1,3.12926E-1,-3.4000329E-3,-1.8638426E-2,-3.5842616E-2,6.0736267E-3,-5.4136966E-3,-2.8392954E-2,8.63212E-3,-2.8370684E-3,-3.5459318E-3,1.8152466E-2,-1.2779704E-2,2.9236125E-3,3.0859573E-2,-3.3041928E-2,1.37251895E-2,8.9111517E-4],"categories":[],"categories_nodes":[],"categories_segments":[],"categories_sizes":[],"default_left":[0,0,0,0,0,0,0,0,0,0,0,0,0,0,0,0,0,0,0,0,0,0,0,0,0,0,0,0,0,0,0],"id":24,"left_children":[1,3,5,7,9,11,13,15,17,19,21,23,25,27,29,-1,-1,-1,-1,-1,-1,-1,-1,-1,-1,-1,-1,-1,-1,-1,-1],"loss_changes":[2.1833704E1,1.0602388E1,7.8089514E0,4.322193E0,4.500299E0,5.62376E0,4.6300488E0,6.301383E0,4.723645E0,3.8416643E0,6.2397633E0,4.097767E0,6.733198E0,7.9187126E0,3.7580366E0,0E0,0E0,0E0,0E0,0E0,0E0,0E0,0E0,0E0,0E0,0E0,0E0,0E0,0E0,0E0,0E0],"parents":[2147483647,0,0,1,1,2,2,3,3,4,4,5,5,6,6,7,7,8,8,9,9,10,10,11,11,12,12,13,13,14,14],"right_children":[2,4,6,8,10,12,14,16,18,20,22,24,26,28,30,-1,-1,-1,-1,-1,-1,-1,-1,-1,-1,-1,-1,-1,-1,-1,-1],"split_conditions":[9.8423865E-3,-2E-1,4E-1,1.32E1,-5.689992E-2,-3.6E0,-2.7411232E-2,1.18E1,-8.171943E-3,6.0268077E-3,-1.9038908E-2,7.4E0,0E0,1.5998685E-1,5.326557E-1,-3.4000329E-3,-1.8638426E-2,-3.5842616E-2,6.0736267E-3,-5.4136966E-3,-2.8392954E-2,8.63212E-3,-2.8370684E-3,-3.5459318E-3,1.8152466E-2,-1.2779704E-2,2.9236125E-3,3.0859573E-2,-3.3041928E-2,1.37251895E-2,8.9111517E-4],"split_indices":[6,9,9,5,6,8,7,4,6,7,7,4,10,3,1,0,0,0,0,0,0,0,0,0,0,0,0,0,0,0,0],"split_type":[0,0,0,0,0,0,0,0,0,0,0,0,0,0,0,0,0,0,0,0,0,0,0,0,0,0,0,0,0,0,0],"sum_hessian":[6.5651807E2,3.6793277E2,2.8858533E2,1.13085075E2,2.5484769E2,1.7857054E2,1.100148E2,9.928569E1,1.379938E1,3.476717E1,2.200805E2,3.80842E1,1.4048633E2,1.8907879E1,9.110692E1,5.6502174E1,4.2783516E1,1.1103051E1,2.6963296E0,2.679199E1,7.975181E0,5.6665443E1,1.6341507E2,1.0373907E1,2.7710295E1,3.0570663E1,1.0991567E2,1.7796066E1,1.1118131E0,5.9908993E1,3.1197931E1],"tree_param":{"num_deleted":"0","num_feature":"11","num_nodes":"31","size_leaf_vector":"1"}},{"base_weights":[-1.0844484E-3,-2.617965E-1,1.1965302E-1,-8.2793945E-1,-2.1157987E-1,7.2711596E-4,4.071489E-1,-1.1514245E0,-4.3811962E-1,8.1399894E-1,-2.583705E-1,-2.1407075E-1,8.9581974E-2,7.999972E-1,3.0305403E-1,-4.24457E-2,-1.5054447E-2,1.3919081E-2,-2.8483428E-2,3.8569633E-2,-1.7899331E-3,-1.746226E-2,-5.2598086E-3,-1.669701E-2,-1.3045655E-3,4.3893694E-3,-9.18383E-3,2.6158439E-2,-1.1810249E-2,-4.4395216E-3,1.165157E-2],"categories":[],"categories_nodes":[],"categories_segments":[],"categories_sizes":[],"default_left":[0,0,0,0,0,0,0,0,0,0,0,0,0,0,0,0,0,0,0,0,0,0,0,0,0,0,0,0,0,0,0],"id":25,"left_children":[1,3,5,7,9,11,13,15,17,19,21,23,25,27,29,-1,-1,-1,-1,-1,-1,-1,-1,-1,-1,-1,-1,-1,-1,-1,-1],"loss_changes":[2.0706715E1,5.7443104E0,1.5372259E1,1.591403E0,9.452393E0,6.108508E0,5.137602E0,7.3926926E-1,4.6618395E0,3.638771E0,4.8696747E0,5.4475946E0,5.127061E0,2.6577587E0,4.12232E0,0E0,0E0,0E0,0E0,0E0,0E0,0E0,0E0,0E0,0E0,0E0,0E0,0E0,0E0,0E0,0E0],"parents":[2147483647,0,0,1,1,2,2,3,3,4,4,5,5,6,6,7,7,8,8,9,9,10,10,11,11,12,12,13,13,14,14],"right_children":[2,4,6,8,10,12,14,16,18,20,22,24,26,28,30,-1,-1,-1,-1,-1,-1,-1,-1,-1,-1,-1,-1,-1,-1,-1,-1],"split_conditions":[-2.1375367E-2,9.366039E-2,4E-1,1.16E1,9.68048E-2,1.0638537E-1,1.0140538E-1,2.6177581E-2,1.02E1,2.2E0,-4E-1,1.0184432E-2,1.5295313E-2,1.8821659E-3,8.6E0,-4.24457E-2,-1.5054447E-2,1.3919081E-2,-2.8483428E-2,3.8569633E-2,-1.7899331E-3,-1.746226E-2,-5.2598086E-3,-1.669701E-2,-1.3045655E-3,4.3893694E-3,-9.18383E-3,2.6158439E-2,-1.1810249E-2,-4.4395216E-3,1.165157E-2],"split_indices":[6,3,9,4,3,3,2,7,5,8,9,7,7,7,4,0,0,0,0,0,0,0,0,0,0,0,0,0,0,0,0],"split_type":[0,0,0,0,0,0,0,0,0,0,0,0,0,0,0,0,0,0,0,0,0,0,0,0,0,0,0,0,0,0,0],"sum_hessian":[6.558263E2,2.0721417E2,4.4861215E2,1.5620548E1,1.9159363E2,3.180498E2,1.3056235E2,7.4688888E0,8.15166E0,7.6443563E0,1.8394926E2,9.2655365E1,2.2539444E2,2.5948574E1,1.0461377E2,4.475825E0,2.9930642E0,2.98251E0,5.1691494E0,4.6580806E0,2.986276E0,3.632901E1,1.4762025E2,3.0053034E1,6.260233E1,1.97684E2,2.771043E1,2.4727598E1,1.2209765E0,1.6526312E1,8.8087456E1],"tree_param":{"num_deleted":"0","num_feature":"11","num_nodes":"31","size_leaf_vector":"1"}},{"base_weights":[-1.132765E-3,-1.5453929E-1,1.9500345E-1,-3.9618042E-1,-4.6230182E-2,-4.803536E-1,2.3311517E-1,-3.186802E-1,-8.9649135E-1,3.261657E-1,-8.999893E-2,1.8230933E-1,-7.381064E-1,-4.4094462E-2,3.2253185E-1,-2.4074847E-2,-5.609602E-3,-3.4722064E-2,5.9148227E-3,2.4051988E-2,-4.3543126E-3,-5.147562E-3,4.5390124E-3,-1.4416115E-2,1.4791211E-2,9.955787E-3,-2.8658554E-2,5.047285E-3,-1.0347584E-2,2.364858E-2,7.0954366E-3],"categories":[],"categories_nodes":[],"categories_segments":[],"categories_sizes":[],"default_left":[0,0,0,0,0,0,0,0,0,0,0,0,0,0,0,0,0,0,0,0,0,0,0,0,0,0,0,0,0,0,0],"id":26,"left_children":[1,3,5,7,9,11,13,15,17,19,21,23,25,27,29,-1,-1,-1,-1,-1,-1,-1,-1,-1,-1,-1,-1,-1,-1,-1,-1],"loss_changes":[1.9773165E1,9.632479E0,7.5355654E0,4.134342E0,4.197929E0,2.8218598E0,6.798085E0,6.2377787E0,4.4336786E0,6.1937037E0,4.546781E0,1.3095737E0,2.9952254E0,4.377911E0,8.10881E0,0E0,0E0,0E0,0E0,0E0,0E0,0E0,0E0,0E0,0E0,0E0,0E0,0E0,0E0,0E0,0E0],"parents":[2147483647,0,0,1,1,2,2,3,3,4,4,5,5,6,6,7,7,8,8,9,9,10,10,11,11,12,12,13,13,14,14],"right_children":[2,4,6,8,10,12,14,16,18,20,22,24,26,28,30,-1,-1,-1,-1,-1,-1,-1,-1,-1,-1,-1,-1,-1,-1,-1,-1],"split_conditions":[9.8423865E-3,-2E-1,5.2605504E-1,1.32E1,5.2793944E-1,1.1E1,1.0638537E-1,0E0,-8.171943E-3,1.16E1,1E0,9.2E0,-4E0,5.3557104E-1,4.9877864E-1,-2.4074847E-2,-5.609602E-3,-3.4722064E-2,5.9148227E-3,2.4051988E-2,-4.3543126E-3,-5.147562E-3,4.5390124E-3,-1.4416115E-2,1.4791211E-2,9.955787E-3,-2.8658554E-2,5.047285E-3,-1.0347584E-2,2.364858E-2,7.0954366E-3],"split_indices":[6,9,0,5,1,5,3,10,6,5,10,5,8,1,1,0,0,0,0,0,0,0,0,0,0,0,0,0,0,0,0],"split_type":[0,0,0,0,0,0,0,0,0,0,0,0,0,0,0,0,0,0,0,0,0,0,0,0,0,0,0,0,0,0,0],"sum_hessian":[6.5516364E2,3.677459E2,2.8741772E2,1.12994225E2,2.5475168E2,1.4733288E1,2.7268445E2,9.925602E1,1.3738204E1,2.6114103E1,2.2863757E2,4.20787E0,1.0525418E1,6.662877E1,2.0605566E2,2.014688E1,7.9109146E1,1.1044939E1,2.6932647E0,1.2649376E1,1.3464726E1,1.7108157E2,5.7556004E1,1.1685867E0,3.0392833E0,1.686847E0,8.838572E0,3.931735E1,2.7311419E1,3.0849874E1,1.752058E2],"tree_param":{"num_deleted":"0","num_feature":"11","num_nodes":"31","size_leaf_vector":"1"}},{"base_weights":[-1.1404785E-3,-1.4253835E-1,2.0332773E-1,-4.235962E-1,-7.0033304E-2,3.105162E-1,-1.5778951E-1,-6.511156E-1,9.538333E-2,-3.3456817E-1,5.9935182E-2,7.0034623E-1,2.0557383E-1,-1.002554E0,-8.6550176E-2,3.2404615E-3,-2.2087289E-2,-2.38679E-2,1.0649881E-2,6.641865E-4,-1.6591756E-2,5.8143246E-3,-3.5902243E-3,-3.1172326E-2,2.486487E-2,2.11511E-3,1.657066E-2,-3.5135325E-2,-8.79718E-3,-4.9534775E-3,2.062395E-2],"categories":[],"categories_nodes":[],"categories_segments":[],"categories_sizes":[],"default_left":[0,0,0,0,0,0,0,0,0,0,0,0,0,0,0,0,0,0,0,0,0,0,0,0,0,0,0,0,0,0,0],"id":27,"left_children":[1,3,5,7,9,11,13,15,17,19,21,23,25,27,29,-1,-1,-1,-1,-1,-1,-1,-1,-1,-1,-1,-1,-1,-1,-1,-1],"loss_changes":[1.898263E1,7.880109E0,1.0439166E1,9.437473E0,1.0669652E1,8.337624E0,3.6505675E0,3.6549778E0,6.081801E0,7.97733E0,5.0378904E0,1.0595957E1,7.6786838E0,2.2294188E-1,3.6628635E0,0E0,0E0,0E0,0E0,0E0,0E0,0E0,0E0,0E0,0E0,0E0,0E0,0E0,0E0,0E0,0E0],"parents":[2147483647,0,0,1,1,2,2,3,3,4,4,5,5,6,6,7,7,8,8,9,9,10,10,11,11,12,12,13,13,14,14],"right_children":[2,4,6,8,10,12,14,16,18,20,22,24,26,28,30,-1,-1,-1,-1,-1,-1,-1,-1,-1,-1,-1,-1,-1,-1,-1,-1],"split_conditions":[2E-1,0E0,5.598688E-1,1.257276E-1,5.2573085E-1,1.0140538E-1,5.225351E-1,9.044733E-2,-5.3866655E-2,1E1,6.7690355E-3,9.527042E-2,6.375553E-2,1.2979677E-1,1.38E1,3.2404615E-3,-2.2087289E-2,-2.38679E-2,1.0649881E-2,6.641865E-4,-1.6591756E-2,5.8143246E-3,-3.5902243E-3,-3.1172326E-2,2.486487E-2,2.11511E-3,1.657066E-2,-3.5135325E-2,-8.79718E-3,-4.9534775E-3,2.062395E-2],"split_indices":[9,10,1,3,0,2,0,3,6,5,7,3,6,3,4,0,0,0,0,0,0,0,0,0,0,0,0,0,0,0,0],"split_type":[0,0,0,0,0,0,0,0,0,0,0,0,0,0,0,0,0,0,0,0,0,0,0,0,0,0,0,0,0,0,0],"sum_hessian":[6.5457764E2,3.8715054E2,2.674271E2,7.839985E1,3.087507E2,2.063249E2,6.110218E1,5.4327984E1,2.4071863E1,1.011988E2,2.0755191E2,4.25586E1,1.637663E2,3.735316E0,5.7366863E1,5.4508343E0,4.8877148E1,4.9655957E0,1.9106268E1,3.8781963E1,6.2416836E1,1.1887032E2,8.8681595E1,2.4398713E0,4.011873E1,1.1872618E2,4.5040115E1,2.4918065E0,1.2435095E0,5.2794662E1,4.572201E0],"tree_param":{"num_deleted":"0","num_feature":"11","num_nodes":"31","size_leaf_vector":"1"}},{"base_weights":[-1.1892936E-3,-1.3839187E-1,1.976515E-1,-1.6167921E-1,6.800433E-1,3.022385E-1,-1.5343636E-1,-3.0018607E-1,-2.1163126E-2,1.0212199E-1,3.5480503E-2,6.846855E-1,1.9990413E-1,-9.8144585E-1,-8.364208E-2,7.4883457E-3,-1.0644441E-2,-6.4182854E-3,3.7602545E-3,-2.9076694E-2,1.9296756E-2,-3.0437982E-2,2.434803E-2,2.0533276E-3,1.6170224E-2,-3.4375045E-2,-8.648297E-3,-1.6071178E-2,1.4567544E-3],"categories":[],"categories_nodes":[],"categories_segments":[],"categories_sizes":[],"default_left":[0,0,0,0,0,0,0,0,0,0,0,0,0,0,0,0,0,0,0,0,0,0,0,0,0,0,0,0,0],"id":28,"left_children":[1,3,5,7,9,11,13,15,17,19,-1,21,23,25,27,-1,-1,-1,-1,-1,-1,-1,-1,-1,-1,-1,-1,-1,-1],"loss_changes":[1.78944E1,7.506993E0,9.880005E0,7.353942E0,3.0541296E0,7.951887E0,3.5084462E0,5.8064365E0,5.3592415E0,4.2052116E0,0E0,1.0143568E1,7.294487E0,2.094369E-1,3.5157967E0,0E0,0E0,0E0,0E0,0E0,0E0,0E0,0E0,0E0,0E0,0E0,0E0,0E0,0E0],"parents":[2147483647,0,0,1,1,2,2,3,3,4,4,5,5,6,6,7,7,8,8,9,9,11,11,12,12,13,13,14,14],"right_children":[2,4,6,8,10,12,14,16,18,20,-1,22,24,26,28,-1,-1,-1,-1,-1,-1,-1,-1,-1,-1,-1,-1,-1,-1],"split_conditions":[2E-1,1.489715E-1,5.598688E-1,5.404137E-1,-1.7506132E-2,1.0140538E-1,5.225351E-1,5.067956E-1,1.0982163E-1,9.8E0,3.5480503E-2,9.527042E-2,6.375553E-2,1.2979677E-1,1.0518309E-1,7.4883457E-3,-1.0644441E-2,-6.4182854E-3,3.7602545E-3,-2.9076694E-2,1.9296756E-2,-3.0437982E-2,2.434803E-2,2.0533276E-3,1.6170224E-2,-3.4375045E-2,-8.648297E-3,-1.6071178E-2,1.4567544E-3],"split_indices":[9,3,1,0,6,2,0,1,3,4,0,3,6,3,3,0,0,0,0,0,0,0,0,0,0,0,0,0,0],"split_type":[0,0,0,0,0,0,0,0,0,0,0,0,0,0,0,0,0,0,0,0,0,0,0,0,0,0,0,0,0],"sum_hessian":[6.5391516E2,3.8710913E2,2.66806E2,3.771795E2,9.929625E0,2.056756E2,6.1130405E1,1.8937553E2,1.8780397E2,5.178595E0,4.75103E0,4.2215584E1,1.6346002E2,3.7367864E0,5.739362E1,1.6793348E1,1.7258218E2,8.0896E1,1.06907974E2,1.4723166E0,3.7062786E0,2.4477754E0,3.9767807E1,1.1866076E2,4.4799267E1,2.4926114E0,1.244175E0,1.229574E1,4.5097878E1],"tree_param":{"num_deleted":"0","num_feature":"11","num_nodes":"29","size_leaf_vector":"1"}},{"base_weights":[-1.1815894E-3,-2.3658995E-1,1.08355165E-1,-7.848842E-1,-1.8816838E-1,-1.6794318E-3,3.775688E-1,-1.1014597E0,-4.0557E-1,8.1029165E-1,-2.337377E-1,-1.9736676E-1,7.959772E-2,7.6013064E-1,2.783678E-1,-4.077881E-2,-1.4187047E-2,1.4001222E-2,-2.7166866E-2,3.8105585E-2,-1.3031384E-3,3.287444E-2,-7.5137345E-3,-1.6034206E-2,-8.8934856E-4,3.7087302E-3,-1.1519006E-2,-9.934716E-3,2.5157781E-2,-5.059176E-3,1.0903895E-2],"categories":[],"categories_nodes":[],"categories_segments":[],"categories_sizes":[],"default_left":[0,0,0,0,0,0,0,0,0,0,0,0,0,0,0,0,0,0,0,0,0,0,0,0,0,0,0,0,0,0,0],"id":29,"left_children":[1,3,5,7,9,11,13,15,17,19,21,23,25,27,29,-1,-1,-1,-1,-1,-1,-1,-1,-1,-1,-1,-1,-1,-1,-1,-1],"loss_changes":[1.6896374E1,5.3765297E0,1.3247623E1,1.5429411E0,8.948212E0,5.080429E0,4.712528E0,7.2641563E-1,4.4003778E0,3.4420629E0,4.384362E0,5.283952E0,4.653871E0,2.5159044E0,4.040534E0,0E0,0E0,0E0,0E0,0E0,0E0,0E0,0E0,0E0,0E0,0E0,0E0,0E0,0E0,0E0,0E0],"parents":[2147483647,0,0,1,1,2,2,3,3,4,4,5,5,6,6,7,7,8,8,9,9,10,10,11,11,12,12,13,13,14,14],"right_children":[2,4,6,8,10,12,14,16,18,20,22,24,26,28,30,-1,-1,-1,-1,-1,-1,-1,-1,-1,-1,-1,-1,-1,-1,-1,-1],"split_conditions":[-2.1375367E-2,9.366039E-2,4E-1,1.16E1,9.68048E-2,1.0638537E-1,1.0140538E-1,2.6177581E-2,1.02E1,2.2E0,7.2E0,1.0184432E-2,1.9387985E-2,7.8E0,8.6E0,-4.077881E-2,-1.4187047E-2,1.4001222E-2,-2.7166866E-2,3.8105585E-2,-1.3031384E-3,3.287444E-2,-7.5137345E-3,-1.6034206E-2,-8.8934856E-4,3.7087302E-3,-1.1519006E-2,-9.934716E-3,2.5157781E-2,-5.059176E-3,1.0903895E-2],"split_indices":[6,3,9,4,3,3,2,7,5,8,4,7,7,5,4,0,0,0,0,0,0,0,0,0,0,0,0,0,0,0,0],"split_type":[0,0,0,0,0,0,0,0,0,0,0,0,0,0,0,0,0,0,0,0,0,0,0,0,0,0,0,0,0,0,0],"sum_hessian":[6.53263E2,2.0707426E2,4.4618872E2,1.5569217E1,1.9150504E2,3.1743753E2,1.2875119E2,7.4487076E0,8.120509E0,7.6262546E0,1.8387878E2,9.27351E1,2.2470242E2,2.5139587E1,1.036116E2,4.4576335E0,2.991074E0,2.982997E0,5.137512E0,4.6393046E0,2.9869497E0,1.4821526E0,1.8239664E2,3.0083372E1,6.265173E1,2.0588226E2,1.8820162E1,1.4702375E0,2.366935E1,1.6412865E1,8.719874E1],"tree_param":{"num_deleted":"0","num_feature":"11","num_nodes":"31","size_leaf_vector":"1"}},{"base_weights":[-1.152101E-3,-1.3939904E-1,1.767719E-1,-5.330629E-1,-7.802353E-2,-4.7495472E-1,2.1383968E-1,3.005095E-1,-6.705118E-1,-4.7780725E-1,-4.2564277E-2,-2.1824065E-1,-3.7223395E-2,5.922755E-1,1.5513615E-1,-1.11978715E-2,1.5672095E-2,-2.2512447E-2,1.9361451E-2,-2.6996668E-2,1.7554681E-3,1.0751486E-2,-2.5079052E-3,-1.6693797E-2,2.0755718E-2,-4.313639E-3,2.2951346E-2,-4.0984354E-3,6.9676847E-3],"categories":[],"categories_nodes":[],"categories_segments":[],"categories_sizes":[],"default_left":[0,0,0,0,0,0,0,0,0,0,0,0,0,0,0,0,0,0,0,0,0,0,0,0,0,0,0,0,0],"id":30,"left_children":[1,3,5,7,9,11,13,15,17,19,21,23,-1,25,27,-1,-1,-1,-1,-1,-1,-1,-1,-1,-1,-1,-1,-1,-1],"loss_changes":[1.6102417E1,8.859203E0,7.0167036E0,5.8748198E0,4.514198E0,2.8187299E0,5.9403133E0,1.346139E0,4.986269E0,5.9297957E0,4.881805E0,4.381326E0,0E0,4.7019634E0,5.3511734E0,0E0,0E0,0E0,0E0,0E0,0E0,0E0,0E0,0E0,0E0,0E0,0E0,0E0,0E0],"parents":[2147483647,0,0,1,1,2,2,3,3,4,4,5,5,6,6,7,7,8,8,9,9,10,10,11,11,13,13,14,14],"right_children":[2,4,6,8,10,12,14,16,18,20,22,24,-1,26,28,-1,-1,-1,-1,-1,-1,-1,-1,-1,-1,-1,-1,-1,-1],"split_conditions":[9.8423865E-3,-4E-1,5.2605504E-1,1.0322562E-1,9.388656E-2,1.363018E-1,4.9748674E-1,-1.4E0,2E0,2.3946302E-2,5.275176E-1,1.2667684E-1,-3.7223395E-2,1.06636114E-1,0E0,-1.11978715E-2,1.5672095E-2,-2.2512447E-2,1.9361451E-2,-2.6996668E-2,1.7554681E-3,1.0751486E-2,-2.5079052E-3,-1.6693797E-2,2.0755718E-2,-4.313639E-3,2.2951346E-2,-4.0984354E-3,6.9676847E-3],"split_indices":[6,9,0,2,3,3,1,8,10,7,1,3,0,3,10,0,0,0,0,0,0,0,0,0,0,0,0,0,0],"split_type":[0,0,0,0,0,0,0,0,0,0,0,0,0,0,0,0,0,0,0,0,0,0,0,0,0,0,0,0,0],"sum_hessian":[6.526359E2,3.6739026E2,2.8524567E2,4.851685E1,3.188734E2,1.4714894E1,2.7053076E2,6.6996765E0,4.1817173E1,2.4962294E1,2.939111E2,1.1983013E1,2.7318804E0,3.510903E1,2.3542174E2,1.4907874E0,5.2088895E0,3.9828457E1,1.9887155E0,1.3589546E1,1.1372748E1,2.656813E1,2.67343E2,9.019626E0,2.963388E0,6.7061257E0,2.8402906E1,4.905847E1,1.8636327E2],"tree_param":{"num_deleted":"0","num_feature":"11","num_nodes":"29","size_leaf_vector":"1"}},{"base_weights":[-1.1532146E-3,-1.28821E-1,1.8485188E-1,-3.9871868E-1,-5.9219655E-2,3.8740373E-1,1.870508E-2,-6.152965E-1,9.612682E-2,-3.0578965E-1,6.1942045E-2,-6.237972E-1,4.3086517E-1,-1.1483293E-1,4.7498262E-1,3.6812588E-3,-2.0950388E-2,-2.274125E-2,1.0345432E-2,1.1853022E-3,-1.5531871E-2,5.665983E-3,-3.2394654E-3,-3.212519E-2,3.2394927E-3,-1.4089473E-2,1.4293514E-2,6.613435E-3,-7.615458E-3,2.3791531E-2,-5.6310003E-3],"categories":[],"categories_nodes":[],"categories_segments":[],"categories_sizes":[],"default_left":[0,0,0,0,0,0,0,0,0,0,0,0,0,0,0,0,0,0,0,0,0,0,0,0,0,0,0,0,0,0,0],"id":31,"left_children":[1,3,5,7,9,11,13,15,17,19,21,23,25,27,29,-1,-1,-1,-1,-1,-1,-1,-1,-1,-1,-1,-1,-1,-1,-1,-1],"loss_changes":[1.5532728E1,7.262574E0,8.952141E0,8.562539E0,9.265938E0,5.538988E0,9.030022E0,3.4765587E0,5.5767255E0,7.496193E0,4.5144672E0,1.8658953E0,4.9678745E0,5.404894E0,7.2196193E0,0E0,0E0,0E0,0E0,0E0,0E0,0E0,0E0,0E0,0E0,0E0,0E0,0E0,0E0,0E0,0E0],"parents":[2147483647,0,0,1,1,2,2,3,3,4,4,5,5,6,6,7,7,8,8,9,9,10,10,11,11,12,12,13,13,14,14],"right_children":[2,4,6,8,10,12,14,16,18,20,22,24,26,28,30,-1,-1,-1,-1,-1,-1,-1,-1,-1,-1,-1,-1,-1,-1,-1,-1],"split_conditions":[2E-1,0E0,5.326557E-1,1.257276E-1,5.2573085E-1,9.388656E-2,1E0,9.044733E-2,-5.3866655E-2,1E1,6.7690355E-3,3.234756E-2,5.1117325E-1,-1.9038908E-2,5.672786E-1,3.6812588E-3,-2.0950388E-2,-2.274125E-2,1.0345432E-2,1.1853022E-3,-1.5531871E-2,5.665983E-3,-3.2394654E-3,-3.212519E-2,3.2394927E-3,-1.4089473E-2,1.4293514E-2,6.613435E-3,-7.615458E-3,2.3791531E-2,-5.6310003E-3],"split_indices":[9,10,1,3,0,3,10,3,6,5,7,7,0,7,1,0,0,0,0,0,0,0,0,0,0,0,0,0,0,0,0],"split_type":[0,0,0,0,0,0,0,0,0,0,0,0,0,0,0,0,0,0,0,0,0,0,0,0,0,0,0,0,0,0,0],"sum_hessian":[6.520933E2,3.8686758E2,2.6522577E2,7.834304E1,3.0852454E2,1.1891868E2,1.4630708E2,5.432385E1,2.4019194E1,1.0115182E2,2.0737273E2,4.3502464E0,1.1456843E2,1.1376112E2,3.254596E1,5.446561E0,4.887729E1,4.954944E0,1.9064249E1,3.878135E1,6.237047E1,1.1864211E2,8.873061E1,2.4128866E0,1.93736E0,5.071954E0,1.09496475E2,3.3171547E1,8.058958E1,2.1858017E1,1.0687942E1],"tree_param":{"num_deleted":"0","num_feature":"11","num_nodes":"31","size_leaf_vector":"1"}},{"base_weights":[-1.1900226E-3,-1.2509023E-1,1.7969532E-1,-1.4750509E-1,6.65172E-1,2.7770874E-1,-1.4613122E-1,-5.8169875E-2,-3.451442E-1,1.0575364E-1,3.464907E-2,6.5415305E-1,1.7820968E-1,-9.5012444E-1,-7.840634E-2,-1.0912967E-3,-2.7979307E-2,-1.4725644E-2,2.8949322E-3,-2.8368669E-2,1.9129798E-2,-2.9339429E-2,2.3367474E-2,1.6037488E-3,1.5103315E-2,-3.3220287E-2,-8.47233E-3,3.2572076E-2,-3.8353417E-3],"categories":[],"categories_nodes":[],"categories_segments":[],"categories_sizes":[],"default_left":[0,0,0,0,0,0,0,0,0,0,0,0,0,0,0,0,0,0,0,0,0,0,0,0,0,0,0,0,0],"id":32,"left_children":[1,3,5,7,9,11,13,15,17,19,-1,21,23,25,27,-1,-1,-1,-1,-1,-1,-1,-1,-1,-1,-1,-1,-1,-1],"loss_changes":[1.4643923E1,6.9670906E0,8.52332E0,6.652217E0,2.8581834E0,7.5446997E0,3.3058128E0,4.9489703E0,7.6047544E0,4.058176E0,0E0,9.392864E0,6.592848E0,1.8414831E-1,3.4968917E0,0E0,0E0,0E0,0E0,0E0,0E0,0E0,0E0,0E0,0E0,0E0,0E0,0E0,0E0],"parents":[2147483647,0,0,1,1,2,2,3,3,4,4,5,5,6,6,7,7,8,8,9,9,11,11,12,12,13,13,14,14],"right_children":[2,4,6,8,10,12,14,16,18,20,-1,22,24,26,28,-1,-1,-1,-1,-1,-1,-1,-1,-1,-1,-1,-1,-1,-1],"split_conditions":[2E-1,1.489715E-1,5.598688E-1,1.2E1,-1.7506132E-2,1.0140538E-1,5.225351E-1,1.4546773E-1,1E0,9.8E0,3.464907E-2,9.527042E-2,6.375553E-2,1.2979677E-1,5.268579E-1,-1.0912967E-3,-2.7979307E-2,-1.4725644E-2,2.8949322E-3,-2.8368669E-2,1.9129798E-2,-2.9339429E-2,2.3367474E-2,1.6037488E-3,1.5103315E-2,-3.3220287E-2,-8.47233E-3,3.2572076E-2,-3.8353417E-3],"split_indices":[9,3,1,4,6,2,0,3,10,4,0,3,6,3,0,0,0,0,0,0,0,0,0,0,0,0,0,0,0],"split_type":[0,0,0,0,0,0,0,0,0,0,0,0,0,0,0,0,0,0,0,0,0,0,0,0,0,0,0,0,0],"sum_hessian":[6.5140137E2,3.8677936E2,2.64622E2,3.769023E2,9.877045E0,2.0354144E2,6.1080578E1,2.604639E2,1.16438416E2,5.1784387E0,4.698606E0,4.1386284E1,1.6215515E2,3.7331738E0,5.7347404E1,2.551468E2,5.3170795E0,8.746855E1,2.8969866E1,1.4784024E0,3.7000363E0,2.4533305E0,3.8932957E1,1.1804176E2,4.411339E1,2.4887636E0,1.2444104E0,1.482279E0,5.5865124E1],"tree_param":{"num_deleted":"0","num_feature":"11","num_nodes":"29","size_leaf_vector":"1"}},{"base_weights":[-1.1708706E-3,-2.1466023E-1,9.858873E-2,-7.4043286E-1,-1.6847931E-1,-3.0807906E-3,3.502384E-1,-1.057745E0,-3.6459216E-1,8.0438906E-1,-2.1285602E-1,2.1873914E-1,-6.619225E-2,7.256831E-1,2.546363E-1,-3.910583E-2,-1.3741498E-2,1.4271635E-2,-2.560397E-2,3.759637E-2,-9.048886E-4,3.251239E-2,-6.876576E-3,4.2905505E-3,3.7485782E-2,1.9723445E-2,-3.0437876E-3,-1.011669E-2,2.413489E-2,-5.5353176E-3,1.0165697E-2],"categories":[],"categories_nodes":[],"categories_segments":[],"categories_sizes":[],"default_left":[0,0,0,0,0,0,0,0,0,0,0,0,0,0,0,0,0,0,0,0,0,0,0,0,0,0,0,0,0,0,0],"id":33,"left_children":[1,3,5,7,9,11,13,15,17,19,21,23,25,27,29,-1,-1,-1,-1,-1,-1,-1,-1,-1,-1,-1,-1,-1,-1,-1,-1],"loss_changes":[1.3904233E1,4.9234695E0,1.1385153E1,1.5812511E0,8.478438E0,4.464937E0,4.4111853E0,6.4348984E-1,4.134505E0,3.2603397E0,4.1695538E0,5.3354425E0,6.4024367E0,2.4030237E0,3.894112E0,0E0,0E0,0E0,0E0,0E0,0E0,0E0,0E0,0E0,0E0,0E0,0E0,0E0,0E0,0E0,0E0],"parents":[2147483647,0,0,1,1,2,2,3,3,4,4,5,5,6,6,7,7,8,8,9,9,10,10,11,11,12,12,13,13,14,14],"right_children":[2,4,6,8,10,12,14,16,18,20,22,24,26,28,30,-1,-1,-1,-1,-1,-1,-1,-1,-1,-1,-1,-1,-1,-1,-1,-1],"split_conditions":[-2.1375367E-2,9.366039E-2,4E-1,1.16E1,9.68048E-2,-3E0,1.0140538E-1,2.6177581E-2,1.02E1,2.2E0,7.2E0,1.4823477E-1,-1.845762E-2,7.8E0,8.6E0,-3.910583E-2,-1.3741498E-2,1.4271635E-2,-2.560397E-2,3.759637E-2,-9.048886E-4,3.251239E-2,-6.876576E-3,4.2905505E-3,3.7485782E-2,1.9723445E-2,-3.0437876E-3,-1.011669E-2,2.413489E-2,-5.5353176E-3,1.0165697E-2],"split_indices":[6,3,9,4,3,8,2,7,5,8,4,3,6,5,4,0,0,0,0,0,0,0,0,0,0,0,0,0,0,0,0],"split_type":[0,0,0,0,0,0,0,0,0,0,0,0,0,0,0,0,0,0,0,0,0,0,0,0,0,0,0,0,0,0,0],"sum_hessian":[6.5086035E2,2.0691104E2,4.439493E2,1.5492674E1,1.9141837E2,3.1690402E2,1.270453E2,7.4166512E0,8.076022E0,7.603384E0,1.8381499E2,6.964711E1,2.4725691E2,2.4447079E1,1.0259822E2,4.4281425E0,2.9885085E0,2.9802475E0,5.095775E0,4.618102E0,2.9852817E0,1.4778895E0,1.823371E2,6.594182E1,3.7052867E0,1.0670483E1,2.3658643E2,1.4612551E0,2.2985825E1,1.6318493E1,8.627973E1],"tree_param":{"num_deleted":"0","num_feature":"11","num_nodes":"31","size_leaf_vector":"1"}},{"base_weights":[-1.0114441E-3,-3.091539E-1,6.517789E-2,-1.0117661E0,-2.5897914E-1,-1.5899628E-2,3.0529195E-1,-4.1657407E-2,-2.6340866E-1,4.9581286E-1,-3.365583E-1,-6.0410187E-2,2.965146E-1,3.4098473E-1,-6.541958E-1,9.619569E-3,-2.0467013E-2,2.5560556E-2,-1.4642087E-2,1.3556109E-2,-1.2012101E-2,-8.857465E-3,1.1752391E-4,3.6246525E-3,2.2336863E-2,1.0858591E-2,-3.365476E-2,-3.1142239E-2,1.1473466E-2],"categories":[],"categories_nodes":[],"categories_segments":[],"categories_sizes":[],"default_left":[0,0,0,0,0,0,0,0,0,0,0,0,0,0,0,0,0,0,0,0,0,0,0,0,0,0,0,0,0],"id":34,"left_children":[1,3,5,7,9,11,13,-1,15,17,19,21,23,25,27,-1,-1,-1,-1,-1,-1,-1,-1,-1,-1,-1,-1,-1,-1],"loss_changes":[1.3303788E1,3.8039618E0,1.0458284E1,1.7049994E0,6.5490584E0,5.6131077E0,4.8666773E0,0E0,1.1222265E0,4.1177087E0,5.185961E0,5.334088E0,3.873262E0,4.4360228E0,2.4686158E0,0E0,0E0,0E0,0E0,0E0,0E0,0E0,0E0,0E0,0E0,0E0,0E0,0E0,0E0],"parents":[2147483647,0,0,1,1,2,2,3,3,4,4,5,5,6,6,8,8,9,9,10,10,11,11,12,12,13,13,14,14],"right_children":[2,4,6,8,10,12,14,-1,16,18,20,22,24,26,28,-1,-1,-1,-1,-1,-1,-1,-1,-1,-1,-1,-1,-1,-1],"split_conditions":[-4.4235148E-2,9.0890154E-2,4E-1,1.2E0,9.933554E-2,1.369931E-1,1.5E1,-4.1657407E-2,-5.981007E-2,1.3E1,5.448969E-1,0E0,1.264851E-1,1.5998685E-1,5.47757E-1,9.619569E-3,-2.0467013E-2,2.5560556E-2,-1.4642087E-2,1.3556109E-2,-1.2012101E-2,-8.857465E-3,1.1752391E-4,3.6246525E-3,2.2336863E-2,1.0858591E-2,-3.365476E-2,-3.1142239E-2,1.1473466E-2],"split_indices":[6,3,9,8,3,3,4,0,6,4,1,10,2,3,1,0,0,0,0,0,0,0,0,0,0,0,0,0,0],"split_type":[0,0,0,0,0,0,0,0,0,0,0,0,0,0,0,0,0,0,0,0,0,0,0,0,0,0,0,0,0],"sum_hessian":[6.502946E2,1.14336006E2,5.359586E2,6.343352E0,1.0799265E2,4.0136612E2,1.345925E2,3.649996E0,2.6933556E0,9.562737E0,9.842992E1,3.520195E2,4.93466E1,1.3038675E2,4.2057457E0,1.2226889E0,1.4706665E0,7.1192884E0,2.4434493E0,6.918247E0,9.151167E1,7.492042E1,2.770991E2,3.6358864E1,1.2987738E1,1.292861E2,1.1006565E0,3.0681884E0,1.1375575E0],"tree_param":{"num_deleted":"0","num_feature":"11","num_nodes":"29","size_leaf_vector":"1"}},{"base_weights":[-1.0761833E-3,-1.2344093E-1,1.5757051E-1,-4.9510327E-1,-6.570451E-2,-4.6626168E-1,1.9335474E-1,3.0487508E-1,-6.2768865E-1,-4.2638403E-1,-3.1153938E-2,-2.1134476E-1,-3.6723487E-2,2.8453174E-1,-3.9442673E-2,-1.0773567E-2,1.5658561E-2,-2.1159079E-2,1.9150436E-2,-2.3671277E-2,1.7563184E-3,1.0608623E-2,-2.1228783E-3,-1.6092379E-2,2.017263E-2,5.774433E-3,2.1167574E-2,9.704143E-3,-8.287362E-3],"categories":[],"categories_nodes":[],"categories_segments":[],"categories_sizes":[],"default_left":[0,0,0,0,0,0,0,0,0,0,0,0,0,0,0,0,0,0,0,0,0,0,0,0,0,0,0,0,0],"id":35,"left_children":[1,3,5,7,9,11,13,15,17,19,21,23,-1,25,27,-1,-1,-1,-1,-1,-1,-1,-1,-1,-1,-1,-1,-1,-1],"loss_changes":[1.2652043E1,7.862846E0,6.425488E0,5.4224567E0,3.9697003E0,2.772288E0,5.723274E0,1.2951381E0,4.6395855E0,4.946073E0,4.4867544E0,4.0807004E0,0E0,7.363721E0,6.6735277E0,0E0,0E0,0E0,0E0,0E0,0E0,0E0,0E0,0E0,0E0,0E0,0E0,0E0,0E0],"parents":[2147483647,0,0,1,1,2,2,3,3,4,4,5,5,6,6,7,7,8,8,9,9,10,10,11,11,13,13,14,14],"right_children":[2,4,6,8,10,12,14,16,18,20,22,24,-1,26,28,-1,-1,-1,-1,-1,-1,-1,-1,-1,-1,-1,-1,-1,-1],"split_conditions":[9.8423865E-3,-4E-1,5.2605504E-1,1.0322562E-1,9.452929E-2,1.363018E-1,5.8811325E-1,-1.4E0,2E0,2.3946302E-2,5.275176E-1,1.2667684E-1,-3.6723487E-2,5.8412306E-2,-5.3327326E-3,-1.0773567E-2,1.5658561E-2,-2.1159079E-2,1.9150436E-2,-2.3671277E-2,1.7563184E-3,1.0608623E-2,-2.1228783E-3,-1.6092379E-2,2.017263E-2,5.774433E-3,2.1167574E-2,9.704143E-3,-8.287362E-3],"split_indices":[6,9,0,2,3,3,0,8,10,7,1,3,0,6,7,0,0,0,0,0,0,0,0,0,0,0,0,0,0],"split_type":[0,0,0,0,0,0,0,0,0,0,0,0,0,0,0,0,0,0,0,0,0,0,0,0,0,0,0,0,0],"sum_hessian":[6.497364E2,3.6693787E2,2.8279852E2,4.831945E1,3.186184E2,1.4689217E1,2.681093E2,6.684973E0,4.163448E1,2.6861862E1,2.9175656E2,1.1948884E1,2.7403324E0,1.924949E2,7.561442E1,1.4858189E0,5.199154E0,3.9646843E1,1.9876345E0,1.5009622E1,1.1852241E1,2.6490383E1,2.6526617E2,9.023051E0,2.9258335E0,1.5915718E2,3.333772E1,2.9712408E1,4.590201E1],"tree_param":{"num_deleted":"0","num_feature":"11","num_nodes":"29","size_leaf_vector":"1"}},{"base_weights":[-1.0606667E-3,-1.13562465E-1,1.6428122E-1,-3.689852E-1,-4.7733374E-2,3.5268036E-1,1.1620498E-2,-5.765565E-1,1.05257556E-1,-2.7778178E-1,6.518012E-2,-6.110535E-1,3.9493376E-1,-1.18450336E-1,4.5864862E-1,4.167556E-3,-1.972028E-2,2.3242226E-2,-5.94784E-3,1.715638E-3,-1.4517486E-2,5.9651537E-3,-3.0181769E-3,-3.1215783E-2,2.9332049E-3,-1.411774E-2,1.3189288E-2,2.130032E-2,-5.1834835E-3,2.2954455E-2,-5.1433505E-3],"categories":[],"categories_nodes":[],"categories_segments":[],"categories_sizes":[],"default_left":[0,0,0,0,0,0,0,0,0,0,0,0,0,0,0,0,0,0,0,0,0,0,0,0,0,0,0,0,0,0,0],"id":36,"left_children":[1,3,5,7,9,11,13,15,17,19,21,23,25,27,29,-1,-1,-1,-1,-1,-1,-1,-1,-1,-1,-1,-1,-1,-1,-1,-1],"loss_changes":[1.2113201E1,6.4982224E0,7.579686E0,7.8629313E0,8.051289E0,5.0460663E0,8.583662E0,3.286768E0,5.2286177E0,7.0711746E0,4.634586E0,1.729923E0,4.604534E0,5.2731056E0,6.555889E0,0E0,0E0,0E0,0E0,0E0,0E0,0E0,0E0,0E0,0E0,0E0,0E0,0E0,0E0,0E0,0E0],"parents":[2147483647,0,0,1,1,2,2,3,3,4,4,5,5,6,6,7,7,8,8,9,9,10,10,11,11,12,12,13,13,14,14],"right_children":[2,4,6,8,10,12,14,16,18,20,22,24,26,28,30,-1,-1,-1,-1,-1,-1,-1,-1,-1,-1,-1,-1,-1,-1,-1,-1],"split_conditions":[2E-1,0E0,5.326557E-1,1.257276E-1,5.2573085E-1,9.388656E-2,1E0,9.044733E-2,5.385212E-1,1E1,0E0,3.234756E-2,5.1117325E-1,-4.2E0,5.672786E-1,4.167556E-3,-1.972028E-2,2.3242226E-2,-5.94784E-3,1.715638E-3,-1.4517486E-2,5.9651537E-3,-3.0181769E-3,-3.1215783E-2,2.9332049E-3,-1.411774E-2,1.3189288E-2,2.130032E-2,-5.1834835E-3,2.2954455E-2,-5.1433505E-3],"split_indices":[9,10,1,3,0,3,10,3,1,5,9,7,0,8,1,0,0,0,0,0,0,0,0,0,0,0,0,0,0,0,0],"split_type":[0,0,0,0,0,0,0,0,0,0,0,0,0,0,0,0,0,0,0,0,0,0,0,0,0,0,0,0,0,0,0],"sum_hessian":[6.4920026E2,3.865187E2,2.6268158E2,7.825953E1,3.0825916E2,1.1699161E2,1.4568997E2,5.428416E1,2.397537E1,1.01007576E2,2.0725159E2,4.348458E0,1.1264315E2,1.1342265E2,3.2267326E1,5.4344935E0,4.8849667E1,6.9945946E0,1.6980776E1,3.8754253E1,6.2253326E1,1.1463353E2,9.261806E1,2.416416E0,1.9320419E0,5.064962E0,1.0757819E2,6.2379847E0,1.0718467E2,2.1563656E1,1.0703668E1],"tree_param":{"num_deleted":"0","num_feature":"11","num_nodes":"31","size_leaf_vector":"1"}},{"base_weights":[-1.0248519E-3,-2.898263E-1,6.1098624E-2,-9.766035E-1,-2.4113448E-1,-1.4584907E-2,2.869311E-1,-4.054921E-2,-2.4175252E-1,4.9538296E-1,-3.1683803E-1,-5.7334498E-2,2.8620666E-1,3.218671E-1,-6.389097E-1,9.778204E-3,-1.9667666E-2,2.5270296E-2,-1.405637E-2,1.3381572E-2,-1.1362199E-2,-3.7513357E-3,4.4337213E-3,3.4304725E-3,2.1790732E-2,1.0279406E-2,-3.305332E-2,-3.0445797E-2,1.1397448E-2],"categories":[],"categories_nodes":[],"categories_segments":[],"categories_sizes":[],"default_left":[0,0,0,0,0,0,0,0,0,0,0,0,0,0,0,0,0,0,0,0,0,0,0,0,0,0,0,0,0],"id":37,"left_children":[1,3,5,7,9,11,13,-1,15,17,19,21,23,25,27,-1,-1,-1,-1,-1,-1,-1,-1,-1,-1,-1,-1,-1,-1],"loss_changes":[1.1671742E1,3.6156693E0,9.1551E0,1.6841626E0,6.2271156E0,5.1850915E0,4.5540886E0,0E0,1.0790284E0,3.9187927E0,4.859782E0,4.9181643E0,3.7131715E0,4.2296724E0,2.3863044E0,0E0,0E0,0E0,0E0,0E0,0E0,0E0,0E0,0E0,0E0,0E0,0E0,0E0,0E0],"parents":[2147483647,0,0,1,1,2,2,3,3,4,4,5,5,6,6,8,8,9,9,10,10,11,11,12,12,13,13,14,14],"right_children":[2,4,6,8,10,12,14,-1,16,18,20,22,24,26,28,-1,-1,-1,-1,-1,-1,-1,-1,-1,-1,-1,-1,-1,-1],"split_conditions":[-4.4235148E-2,9.0890154E-2,4E-1,1.2E0,9.933554E-2,1.369931E-1,1.5E1,-4.054921E-2,-5.981007E-2,1.3E1,5.448969E-1,1E0,1.264851E-1,1.5998685E-1,5.47757E-1,9.778204E-3,-1.9667666E-2,2.5270296E-2,-1.405637E-2,1.3381572E-2,-1.1362199E-2,-3.7513357E-3,4.4337213E-3,3.4304725E-3,2.1790732E-2,1.0279406E-2,-3.305332E-2,-3.0445797E-2,1.1397448E-2],"split_indices":[6,3,9,8,3,3,4,0,6,4,1,10,2,3,1,0,0,0,0,0,0,0,0,0,0,0,0,0,0],"split_type":[0,0,0,0,0,0,0,0,0,0,0,0,0,0,0,0,0,0,0,0,0,0,0,0,0,0,0,0,0],"sum_hessian":[6.485628E2,1.14164795E2,5.34398E2,6.2966375E0,1.0786816E2,4.009594E2,1.3343863E2,3.6132483E0,2.6833894E0,9.53721E0,9.833095E1,3.5177347E2,4.9185932E1,1.2921513E2,4.223502E0,1.2209322E0,1.4624572E0,7.1056943E0,2.4315162E0,6.914135E0,9.141681E1,2.647667E2,8.700677E1,3.628011E1,1.2905824E1,1.2810461E2,1.1105196E0,3.087934E0,1.135568E0],"tree_param":{"num_deleted":"0","num_feature":"11","num_nodes":"29","size_leaf_vector":"1"}},{"base_weights":[-1.0710504E-3,1.8872151E-1,-9.064226E-2,-3.326452E-3,3.382277E-1,-1.7718747E-1,1.7644581E-1,-7.300003E-2,8.223198E-1,-5.983931E-1,3.796586E-1,-3.0876678E-1,1.4272249E-2,3.2490137E-1,-2.7095318E-1,3.5404522E-2,-3.790161E-3,-1.3822466E-4,3.323912E-2,-3.0579554E-2,2.910632E-3,-1.3805864E-2,1.2704924E-2,-1.3771442E-3,-1.3767124E-2,-3.1484482E-3,1.3443212E-2,1.7819015E-3,2.081975E-2,7.3398915E-3,-2.2140324E-2],"categories":[],"categories_nodes":[],"categories_segments":[],"categories_sizes":[],"default_left":[0,0,0,0,0,0,0,0,0,0,0,0,0,0,0,0,0,0,0,0,0,0,0,0,0,0,0,0,0,0,0],"id":38,"left_children":[1,3,5,7,9,11,13,15,17,19,21,23,25,27,29,-1,-1,-1,-1,-1,-1,-1,-1,-1,-1,-1,-1,-1,-1,-1,-1],"loss_changes":[1.1050451E1,5.985288E0,1.023904E1,5.3650246E0,4.7750664E0,8.419309E0,7.2995024E0,5.894884E0,1.719543E0,1.6657449E0,4.349661E0,7.7937717E0,7.133539E0,7.9923286E0,6.8264456E0,0E0,0E0,0E0,0E0,0E0,0E0,0E0,0E0,0E0,0E0,0E0,0E0,0E0,0E0,0E0,0E0],"parents":[2147483647,0,0,1,1,2,2,3,3,4,4,5,5,6,6,7,7,8,8,9,9,10,10,11,11,12,12,13,13,14,14],"right_children":[2,4,6,8,10,12,14,16,18,20,22,24,26,28,30,-1,-1,-1,-1,-1,-1,-1,-1,-1,-1,-1,-1,-1,-1,-1,-1],"split_conditions":[5.326557E-1,2E-1,1E0,1.402976E-1,9.388656E-2,5.578246E-1,1.2489248E-2,4.8090333E-1,4.9748674E-1,3.234756E-2,5.1117325E-1,-9.906849E-3,1.2973294E-1,-1.2641703E-2,-2E-1,3.5404522E-2,-3.790161E-3,-1.3822466E-4,3.323912E-2,-3.0579554E-2,2.910632E-3,-1.3805864E-2,1.2704924E-2,-1.3771442E-3,-1.3767124E-2,-3.1484482E-3,1.3443212E-2,1.7819015E-3,2.081975E-2,7.3398915E-3,-2.2140324E-2],"split_indices":[1,9,10,3,3,0,7,1,1,7,0,7,2,6,8,0,0,0,0,0,0,0,0,0,0,0,0,0,0,0,0],"split_type":[0,0,0,0,0,0,0,0,0,0,0,0,0,0,0,0,0,0,0,0,0,0,0,0,0,0,0,0,0,0,0],"sum_hessian":[6.480223E2,2.0741768E2,4.4060458E2,9.121952E1,1.16198166E2,3.3302896E2,1.07575615E2,8.496149E1,6.258036E0,4.3527713E0,1.1184539E2,1.9701746E2,1.360115E2,8.097903E1,2.6596594E1,2.60616E0,8.235532E1,1.8593355E0,4.3987007E0,2.4213731E0,1.9313982E0,5.077348E0,1.0676804E2,7.20963E1,1.2492116E2,1.07286575E2,2.8724934E1,4.7773872E1,3.320515E1,1.286748E1,1.3729113E1],"tree_param":{"num_deleted":"0","num_feature":"11","num_nodes":"31","size_leaf_vector":"1"}},{"base_weights":[-9.6847716E-4,-2.7440754E-1,5.7915393E-2,-9.485711E-1,-2.2692727E-1,-1.3833168E-2,2.7325296E-1,-3.9603822E-2,-2.2773586E-1,4.91639E-1,-3.0083606E-1,-5.4481126E-2,2.7312678E-1,3.0748823E-1,-6.2399024E-1,9.874888E-3,-1.9152446E-2,2.4899311E-2,-1.3551467E-2,1.3184916E-2,-1.082975E-2,-8.171209E-3,1.5754299E-4,3.184197E-3,2.1098895E-2,9.8425895E-3,-3.2517444E-2,-2.9722868E-2,1.125145E-2],"categories":[],"categories_nodes":[],"categories_segments":[],"categories_sizes":[],"default_left":[0,0,0,0,0,0,0,0,0,0,0,0,0,0,0,0,0,0,0,0,0,0,0,0,0,0,0,0,0],"id":39,"left_children":[1,3,5,7,9,11,13,-1,15,17,19,21,23,25,27,-1,-1,-1,-1,-1,-1,-1,-1,-1,-1,-1,-1,-1,-1],"loss_changes":[1.0455257E1,3.4676418E0,8.258877E0,1.6426444E0,5.9261446E0,4.7007146E0,4.295149E0,0E0,1.0509467E0,3.7347646E0,4.579852E0,4.5920897E0,3.517714E0,4.062586E0,2.2915223E0,0E0,0E0,0E0,0E0,0E0,0E0,0E0,0E0,0E0,0E0,0E0,0E0,0E0,0E0],"parents":[2147483647,0,0,1,1,2,2,3,3,4,4,5,5,6,6,8,8,9,9,10,10,11,11,12,12,13,13,14,14],"right_children":[2,4,6,8,10,12,14,-1,16,18,20,22,24,26,28,-1,-1,-1,-1,-1,-1,-1,-1,-1,-1,-1,-1,-1,-1],"split_conditions":[-4.4235148E-2,9.0890154E-2,4E-1,1.2E0,9.933554E-2,1.369931E-1,1.5E1,-3.9603822E-2,-5.981007E-2,1.3E1,5.448969E-1,0E0,1.264851E-1,1.5998685E-1,5.47757E-1,9.874888E-3,-1.9152446E-2,2.4899311E-2,-1.3551467E-2,1.3184916E-2,-1.082975E-2,-8.171209E-3,1.5754299E-4,3.184197E-3,2.1098895E-2,9.8425895E-3,-3.2517444E-2,-2.9722868E-2,1.125145E-2],"split_indices":[6,3,9,8,3,3,4,0,6,4,1,10,2,3,1,0,0,0,0,0,0,0,0,0,0,0,0,0,0],"split_type":[0,0,0,0,0,0,0,0,0,0,0,0,0,0,0,0,0,0,0,0,0,0,0,0,0,0,0,0,0],"sum_hessian":[6.4736145E2,1.1405661E2,5.333049E2,6.255642E0,1.0780097E2,4.007232E2,1.3258165E2,3.579298E0,2.676344E0,9.526747E0,9.827422E1,3.517131E2,4.9010113E1,1.2834192E2,4.239729E0,1.2201959E0,1.4561481E0,7.100359E0,2.4263878E0,6.911283E0,9.136294E1,7.4907074E1,2.7680603E2,3.6203194E1,1.2806919E1,1.2722274E2,1.1191778E0,3.1072602E0,1.1324688E0],"tree_param":{"num_deleted":"0","num_feature":"11","num_nodes":"29","size_leaf_vector":"1"}},{"base_weights":[-1.0280381E-3,1.8096589E-1,-8.667159E-2,-2.150472E-3,3.2441726E-1,-1.7052563E-1,1.725192E-1,-6.941931E-2,8.0112755E-1,-5.8634174E-1,3.6504743E-1,-2.9631543E-1,1.2609057E-2,3.1716287E-1,-2.6226127E-1,3.486955E-2,-3.646146E-3,-3.2974302E-4,3.2545492E-2,-2.9942121E-2,2.8510361E-3,1.1663229E-2,-3.096821E-2,-1.2495884E-3,-1.325421E-2,-3.0786712E-3,1.3001241E-2,1.8082414E-3,2.0289317E-2,7.116274E-3,-2.1419747E-2],"categories":[],"categories_nodes":[],"categories_segments":[],"categories_sizes":[],"default_left":[0,0,0,0,0,0,0,0,0,0,0,0,0,0,0,0,0,0,0,0,0,0,0,0,0,0,0,0,0,0,0],"id":40,"left_children":[1,3,5,7,9,11,13,15,17,19,21,23,25,27,29,-1,-1,-1,-1,-1,-1,-1,-1,-1,-1,-1,-1,-1,-1,-1,-1],"loss_changes":[1.0112595E1,5.4544377E0,9.618048E0,5.037329E0,4.522217E0,7.6941986E0,6.896405E0,5.661522E0,1.6717701E0,1.5973536E0,4.116826E0,7.3157005E0,6.6818204E0,7.501214E0,6.3949094E0,0E0,0E0,0E0,0E0,0E0,0E0,0E0,0E0,0E0,0E0,0E0,0E0,0E0,0E0,0E0,0E0],"parents":[2147483647,0,0,1,1,2,2,3,3,4,4,5,5,6,6,7,7,8,8,9,9,10,10,11,11,12,12,13,13,14,14],"right_children":[2,4,6,8,10,12,14,16,18,20,22,24,26,28,30,-1,-1,-1,-1,-1,-1,-1,-1,-1,-1,-1,-1,-1,-1,-1,-1],"split_conditions":[5.326557E-1,2E-1,1E0,1.402976E-1,9.388656E-2,5.578246E-1,1.2489248E-2,4.8090333E-1,4.9748674E-1,3.234756E-2,1.5998685E-1,-9.906849E-3,1.2973294E-1,-1.2641703E-2,-2E-1,3.486955E-2,-3.646146E-3,-3.2974302E-4,3.2545492E-2,-2.9942121E-2,2.8510361E-3,1.1663229E-2,-3.096821E-2,-1.2495884E-3,-1.325421E-2,-3.0786712E-3,1.3001241E-2,1.8082414E-3,2.0289317E-2,7.116274E-3,-2.1419747E-2],"split_indices":[1,9,10,3,3,0,7,1,1,7,3,7,2,6,8,0,0,0,0,0,0,0,0,0,0,0,0,0,0,0,0],"split_type":[0,0,0,0,0,0,0,0,0,0,0,0,0,0,0,0,0,0,0,0,0,0,0,0,0,0,0,0,0,0,0],"sum_hessian":[6.4679395E2,2.0661684E2,4.4017712E2,9.1193245E1,1.154236E2,3.328385E2,1.0733862E2,8.498955E1,6.203692E0,4.355705E0,1.11067894E2,1.9694485E2,1.3589363E2,8.07463E1,2.6592325E1,2.5854616E0,8.240409E1,1.8550642E0,4.348628E0,2.4253652E0,1.9303395E0,1.0992314E2,1.1447512E0,7.207465E1,1.2487021E2,1.0727207E2,2.8621565E1,4.775578E1,3.2990524E1,1.2854364E1,1.3737961E1],"tree_param":{"num_deleted":"0","num_feature":"11","num_nodes":"31","size_leaf_vector":"1"}},{"base_weights":[-9.5633324E-4,1.760485E-1,-8.409382E-2,-1.3858542E-3,3.1557542E-1,-1.6541846E-1,1.6773605E-1,-6.694972E-2,7.8608423E-1,-5.0954795E-1,3.598391E-1,-2.8747877E-1,1.2307856E-2,3.0699039E-1,-2.601207E-1,3.4333225E-2,-3.5360886E-3,-3.2329763E-4,3.1999007E-2,-3.3299543E-2,5.517041E-3,-1.5563952E-2,1.1959949E-2,-1.2124759E-3,-1.2859147E-2,-2.98544E-3,1.2654193E-2,1.7466762E-3,1.9810323E-2,5.978509E-3,-2.0183774E-2],"categories":[],"categories_nodes":[],"categories_segments":[],"categories_sizes":[],"default_left":[0,0,0,0,0,0,0,0,0,0,0,0,0,0,0,0,0,0,0,0,0,0,0,0,0,0,0,0,0,0,0],"id":41,"left_children":[1,3,5,7,9,11,13,15,17,19,21,23,25,27,29,-1,-1,-1,-1,-1,-1,-1,-1,-1,-1,-1,-1,-1,-1,-1,-1],"loss_changes":[9.537702E0,5.1284246E0,9.059198E0,4.811654E0,4.418475E0,7.2457523E0,6.523184E0,5.4405265E0,1.6128736E0,2.8346562E0,3.9811764E0,6.8865414E0,6.310166E0,7.173825E0,5.271055E0,0E0,0E0,0E0,0E0,0E0,0E0,0E0,0E0,0E0,0E0,0E0,0E0,0E0,0E0,0E0,0E0],"parents":[2147483647,0,0,1,1,2,2,3,3,4,4,5,5,6,6,7,7,8,8,9,9,10,10,11,11,12,12,13,13,14,14],"right_children":[2,4,6,8,10,12,14,16,18,20,22,24,26,28,30,-1,-1,-1,-1,-1,-1,-1,-1,-1,-1,-1,-1,-1,-1,-1,-1],"split_conditions":[5.326557E-1,2E-1,1E0,1.402976E-1,5.1117325E-1,5.578246E-1,1.2801086E-2,4.8090333E-1,4.9748674E-1,5.0778335E-1,9.388656E-2,-9.906849E-3,1.2973294E-1,-1.2641703E-2,-2E-1,3.4333225E-2,-3.5360886E-3,-3.2329763E-4,3.1999007E-2,-3.3299543E-2,5.517041E-3,-1.5563952E-2,1.1959949E-2,-1.2124759E-3,-1.2859147E-2,-2.98544E-3,1.2654193E-2,1.7466762E-3,1.9810323E-2,5.978509E-3,-2.0183774E-2],"split_indices":[1,9,10,3,0,0,7,1,1,1,3,7,2,6,8,0,0,0,0,0,0,0,0,0,0,0,0,0,0,0,0],"split_type":[0,0,0,0,0,0,0,0,0,0,0,0,0,0,0,0,0,0,0,0,0,0,0,0,0,0,0,0,0,0,0],"sum_hessian":[6.461233E2,2.0613391E2,4.399894E2,9.1176346E1,1.1495757E2,3.328452E2,1.07144196E2,8.501322E1,6.163122E0,5.317727E0,1.0963985E2,1.9695876E2,1.3588644E2,8.104803E1,2.609617E1,2.5630338E0,8.245019E1,1.8552197E0,4.3079023E0,2.528073E0,2.789654E0,4.116662E0,1.05523186E2,7.208283E1,1.2487592E2,1.0733364E2,2.855281E1,4.82464E1,3.2801624E1,1.2593558E1,1.3502612E1],"tree_param":{"num_deleted":"0","num_feature":"11","num_nodes":"31","size_leaf_vector":"1"}},{"base_weights":[-8.651806E-4,1.713359E-1,-8.159602E-2,-6.5433583E-4,3.0708352E-1,-1.6047055E-1,1.6308622E-1,-6.456194E-2,7.7148604E-1,-4.9724904E-1,3.5054922E-1,-2.789207E-1,1.20139215E-2,2.9878443E-1,-2.528253E-1,3.3816755E-2,-3.4294315E-3,-3.1697855E-4,3.1470604E-2,-3.2393202E-2,5.3998674E-3,1.1230778E-2,-3.0576026E-2,4.8268717E-3,-1.0644168E-2,-1.8727328E-3,1.853456E-2,1.6956242E-3,1.934347E-2,5.8164448E-3,-1.960546E-2],"categories":[],"categories_nodes":[],"categories_segments":[],"categories_sizes":[],"default_left":[0,0,0,0,0,0,0,0,0,0,0,0,0,0,0,0,0,0,0,0,0,0,0,0,0,0,0,0,0,0,0],"id":42,"left_children":[1,3,5,7,9,11,13,15,17,19,21,23,25,27,29,-1,-1,-1,-1,-1,-1,-1,-1,-1,-1,-1,-1,-1,-1,-1,-1],"loss_changes":[9.00076E0,4.8249974E0,8.533008E0,4.597295E0,4.212219E0,6.8239555E0,6.167966E0,5.2301946E0,1.5568042E0,2.6935587E0,3.9743805E0,6.664157E0,6.211042E0,6.8245115E0,4.976883E0,0E0,0E0,0E0,0E0,0E0,0E0,0E0,0E0,0E0,0E0,0E0,0E0,0E0,0E0,0E0,0E0],"parents":[2147483647,0,0,1,1,2,2,3,3,4,4,5,5,6,6,7,7,8,8,9,9,10,10,11,11,12,12,13,13,14,14],"right_children":[2,4,6,8,10,12,14,16,18,20,22,24,26,28,30,-1,-1,-1,-1,-1,-1,-1,-1,-1,-1,-1,-1,-1,-1,-1,-1],"split_conditions":[5.326557E-1,2E-1,1E0,1.402976E-1,5.1117325E-1,5.578246E-1,1.2801086E-2,4.8090333E-1,4.9748674E-1,5.0778335E-1,1.5998685E-1,9.876028E-2,1.3944991E-1,-1.2641703E-2,-2E-1,3.3816755E-2,-3.4294315E-3,-3.1697855E-4,3.1470604E-2,-3.2393202E-2,5.3998674E-3,1.1230778E-2,-3.0576026E-2,4.8268717E-3,-1.0644168E-2,-1.8727328E-3,1.853456E-2,1.6956242E-3,1.934347E-2,5.8164448E-3,-1.960546E-2],"split_indices":[1,9,10,3,0,0,7,1,1,1,3,2,3,6,8,0,0,0,0,0,0,0,0,0,0,0,0,0,0,0,0],"split_type":[0,0,0,0,0,0,0,0,0,0,0,0,0,0,0,0,0,0,0,0,0,0,0,0,0,0,0,0,0,0,0],"sum_hessian":[6.454408E2,2.0565364E2,4.3978717E2,9.115578E1,1.1449786E2,3.3283905E2,1.06948135E2,8.503416E1,6.121621E0,5.3349338E0,1.09162926E2,1.969622E2,1.3587683E2,8.08508E1,2.6097338E1,2.5397377E0,8.249442E1,1.8553723E0,4.2662487E0,2.548504E0,2.7864296E0,1.0801207E2,1.1508539E0,2.8817932E1,1.6814429E2,1.21806755E2,1.4070068E1,4.823828E1,3.2612522E1,1.2584129E1,1.3513207E1],"tree_param":{"num_deleted":"0","num_feature":"11","num_nodes":"31","size_leaf_vector":"1"}},{"base_weights":[-7.776492E-4,1.6666098E-1,-7.913739E-2,4.548345E-5,2.9862475E-1,-1.5562409E-1,1.585703E-1,4.4022197E-1,-1.10132955E-1,-5.702019E-1,3.3801764E-1,-2.7054894E-1,1.17828E-2,2.9079992E-1,-2.4575979E-1,-1.761677E-2,2.2210274E-2,-1.5585771E-2,3.4961426E-3,-2.9189391E-2,2.879824E-3,1.4534406E-2,2.7564063E-3,-1.0084104E-3,-1.2181347E-2,-2.9011972E-3,1.2307665E-2,1.6460585E-3,1.8888246E-2,5.658759E-3,-1.9047435E-2],"categories":[],"categories_nodes":[],"categories_segments":[],"categories_sizes":[],"default_left":[0,0,0,0,0,0,0,0,0,0,0,0,0,0,0,0,0,0,0,0,0,0,0,0,0,0,0,0,0,0,0],"id":43,"left_children":[1,3,5,7,9,11,13,15,17,19,21,23,25,27,29,-1,-1,-1,-1,-1,-1,-1,-1,-1,-1,-1,-1,-1,-1,-1,-1],"loss_changes":[8.486056E0,4.533601E0,8.03512E0,4.5166893E0,4.1307793E0,6.42587E0,5.8322372E0,6.1839223E0,6.972785E0,1.5324E0,3.9461584E0,6.342448E0,5.955577E0,6.492497E0,4.700109E0,0E0,0E0,0E0,0E0,0E0,0E0,0E0,0E0,0E0,0E0,0E0,0E0,0E0,0E0,0E0,0E0],"parents":[2147483647,0,0,1,1,2,2,3,3,4,4,5,5,6,6,7,7,8,8,9,9,10,10,11,11,12,12,13,13,14,14],"right_children":[2,4,6,8,10,12,14,16,18,20,22,24,26,28,30,-1,-1,-1,-1,-1,-1,-1,-1,-1,-1,-1,-1,-1,-1,-1,-1],"split_conditions":[5.326557E-1,2E-1,1E0,-3.6E0,9.388656E-2,5.578246E-1,1.2801086E-2,7.4E0,-1.2E0,3.234756E-2,1.2882063E-1,-9.906849E-3,1.2973294E-1,-1.2641703E-2,-2E-1,-1.761677E-2,2.2210274E-2,-1.5585771E-2,3.4961426E-3,-2.9189391E-2,2.879824E-3,1.4534406E-2,2.7564063E-3,-1.0084104E-3,-1.2181347E-2,-2.9011972E-3,1.2307665E-2,1.6460585E-3,1.8888246E-2,5.658759E-3,-1.9047435E-2],"split_indices":[1,9,10,8,3,0,7,4,8,7,3,7,2,6,8,0,0,0,0,0,0,0,0,0,0,0,0,0,0,0,0],"split_type":[0,0,0,0,0,0,0,0,0,0,0,0,0,0,0,0,0,0,0,0,0,0,0,0,0,0,0,0,0,0,0],"sum_hessian":[6.4477576E2,2.0519324E2,4.3958255E2,9.113185E1,1.1406138E2,3.3283292E2,1.0674963E2,1.7644472E1,7.348738E1,4.362818E0,1.0969856E2,1.9698593E2,1.3584698E2,8.065388E1,2.6095757E1,3.7725842E0,1.3871887E1,2.5727934E1,4.775945E1,2.4319658E0,1.9308518E0,6.816754E1,4.1531017E1,7.212045E1,1.2486548E2,1.0737111E2,2.8475874E1,4.823033E1,3.2423546E1,1.257476E1,1.3520995E1],"tree_param":{"num_deleted":"0","num_feature":"11","num_nodes":"31","size_leaf_vector":"1"}},{"base_weights":[-7.654176E-4,-2.4087527E-1,5.1090498E-2,-8.996845E-1,-1.9511579E-1,-1.2741232E-2,2.4504262E-1,-3.8228016E-2,-1.9072773E-1,5.105842E-1,-2.680622E-1,-2.9318416E-2,6.974899E-1,2.7869612E-1,-6.2114364E-1,1.0649255E-2,-1.8219054E-2,2.5152322E-2,-1.2522639E-2,1.3274559E-2,-9.783556E-3,3.7862462E-4,-1.003747E-2,3.5483327E-2,1.1532821E-2,1.0566555E-2,-4.3269494E-3,-2.9622441E-2,1.1246795E-2],"categories":[],"categories_nodes":[],"categories_segments":[],"categories_sizes":[],"default_left":[0,0,0,0,0,0,0,0,0,0,0,0,0,0,0,0,0,0,0,0,0,0,0,0,0,0,0,0,0],"id":44,"left_children":[1,3,5,7,9,11,13,-1,15,17,19,21,23,25,27,-1,-1,-1,-1,-1,-1,-1,-1,-1,-1,-1,-1,-1,-1],"loss_changes":[8.044624E0,3.2838707E0,6.5814657E0,1.6626067E0,5.7262006E0,4.7385383E0,4.009926E0,0E0,1.0468483E0,3.5492315E0,4.2307186E0,5.0298986E0,9.400358E-1,4.0119495E0,2.279026E0,0E0,0E0,0E0,0E0,0E0,0E0,0E0,0E0,0E0,0E0,0E0,0E0,0E0,0E0],"parents":[2147483647,0,0,1,1,2,2,3,3,4,4,5,5,6,6,8,8,9,9,10,10,11,11,12,12,13,13,14,14],"right_children":[2,4,6,8,10,12,14,-1,16,18,20,22,24,26,28,-1,-1,-1,-1,-1,-1,-1,-1,-1,-1,-1,-1,-1,-1],"split_conditions":[-4.4235148E-2,9.0890154E-2,4E-1,1.2E0,9.933554E-2,5.4E0,1.5E1,-3.8228016E-2,-5.981007E-2,1.3E1,5.448969E-1,1.3E1,5.2344334E-1,1.3207087E-1,5.47757E-1,1.0649255E-2,-1.8219054E-2,2.5152322E-2,-1.2522639E-2,1.3274559E-2,-9.783556E-3,3.7862462E-4,-1.003747E-2,3.5483327E-2,1.1532821E-2,1.0566555E-2,-4.3269494E-3,-2.9622441E-2,1.1246795E-2],"split_indices":[6,3,9,8,3,8,4,0,6,4,1,4,0,2,1,0,0,0,0,0,0,0,0,0,0,0,0,0,0],"split_type":[0,0,0,0,0,0,0,0,0,0,0,0,0,0,0,0,0,0,0,0,0,0,0,0,0,0,0,0,0],"sum_hessian":[6.441082E2,1.1375237E2,5.3035583E2,6.17587E0,1.0757651E2,3.9973352E2,1.306223E2,3.5191286E0,2.6567416E0,9.516108E0,9.8060394E1,3.915532E2,8.1803465E0,1.2638998E2,4.232316E0,1.2141293E0,1.4426123E0,7.1033344E0,2.4127734E0,6.906803E0,9.1153595E1,3.450997E2,4.6453495E1,2.1184251E0,6.061921E0,1.0781453E2,1.8575453E1,3.1007416E0,1.1315745E0],"tree_param":{"num_deleted":"0","num_feature":"11","num_nodes":"29","size_leaf_vector":"1"}},{"base_weights":[-7.4583164E-4,1.5991688E-1,-7.575847E-2,8.841343E-4,2.865904E-1,-1.501051E-1,1.5565608E-1,-6.1270766E-2,7.5681156E-1,-4.8856667E-1,3.2903925E-1,-2.5986862E-1,9.815869E-3,2.8432053E-1,-2.3692082E-1,3.3219364E-2,-3.2894195E-3,-3.0058975E-4,3.0932728E-2,-3.170519E-2,5.297899E-3,1.0578023E-2,-3.0012978E-2,4.855952E-3,-9.979288E-3,-1.8723838E-3,1.8027114E-2,1.6829198E-3,1.8418947E-2,8.774177E-3,-1.610196E-2],"categories":[],"categories_nodes":[],"categories_segments":[],"categories_sizes":[],"default_left":[0,0,0,0,0,0,0,0,0,0,0,0,0,0,0,0,0,0,0,0,0,0,0,0,0,0,0,0,0,0,0],"id":45,"left_children":[1,3,5,7,9,11,13,15,17,19,21,23,25,27,29,-1,-1,-1,-1,-1,-1,-1,-1,-1,-1,-1,-1,-1,-1,-1,-1],"loss_changes":[7.7809668E0,4.1395516E0,7.595709E0,4.37434E0,3.9244862E0,5.8587155E0,5.497717E0,4.985498E0,1.4980574E0,2.5835152E0,3.7684364E0,6.126734E0,5.875781E0,6.091424E0,4.455581E0,0E0,0E0,0E0,0E0,0E0,0E0,0E0,0E0,0E0,0E0,0E0,0E0,0E0,0E0,0E0,0E0],"parents":[2147483647,0,0,1,1,2,2,3,3,4,4,5,5,6,6,7,7,8,8,9,9,10,10,11,11,12,12,13,13,14,14],"right_children":[2,4,6,8,10,12,14,16,18,20,22,24,26,28,30,-1,-1,-1,-1,-1,-1,-1,-1,-1,-1,-1,-1,-1,-1,-1,-1],"split_conditions":[5.326557E-1,2E-1,1E0,1.402976E-1,5.1117325E-1,5.578246E-1,1.2801086E-2,4.8090333E-1,4.9748674E-1,5.0778335E-1,1.5998685E-1,9.876028E-2,1.3944991E-1,-1.2641703E-2,-8E-1,3.3219364E-2,-3.2894195E-3,-3.0058975E-4,3.0932728E-2,-3.170519E-2,5.297899E-3,1.0578023E-2,-3.0012978E-2,4.855952E-3,-9.979288E-3,-1.8723838E-3,1.8027114E-2,1.6829198E-3,1.8418947E-2,8.774177E-3,-1.610196E-2],"split_indices":[1,9,10,3,0,0,7,1,1,1,3,2,3,6,8,0,0,0,0,0,0,0,0,0,0,0,0,0,0,0,0],"split_type":[0,0,0,0,0,0,0,0,0,0,0,0,0,0,0,0,0,0,0,0,0,0,0,0,0,0,0,0,0,0,0],"sum_hessian":[6.4362524E2,2.0449794E2,4.3912732E2,9.111466E1,1.1338328E2,3.326183E2,1.0650903E2,8.504123E1,6.07343E0,5.3410487E0,1.0804223E2,1.9686964E2,1.3574864E2,8.042578E1,2.608325E1,2.5104089E0,8.253082E1,1.8538631E0,4.2195673E0,2.5627532E0,2.7782955E0,1.0688278E2,1.1594466E0,2.8792177E1,1.6807747E2,1.2176397E2,1.3984675E1,4.821511E1,3.2210667E1,9.439636E0,1.6643614E1],"tree_param":{"num_deleted":"0","num_feature":"11","num_nodes":"31","size_leaf_vector":"1"}},{"base_weights":[-6.54247E-4,1.5554756E-1,-7.3462695E-2,1.5279321E-3,2.7863473E-1,-1.4557792E-1,1.513984E-1,-5.9068784E-2,7.430497E-1,-5.6749237E-1,3.1745887E-1,-2.5209284E-1,9.646533E-3,2.767235E-1,-2.3008244E-1,3.2742444E-2,-3.190362E-3,-2.9471802E-4,3.043798E-2,-2.882784E-2,2.6371598E-3,1.3830709E-2,2.3296175E-3,-5.8309194E-3,-2.3659348E-2,1.0642637E-2,-3.4301216E-3,1.6337241E-3,1.7986188E-2,8.544778E-3,-1.5637308E-2],"categories":[],