{"learner":{"attributes":{"scikit_learn":"{\"_estimator_type\": \"classifier\"}"},"feature_names":["PTS_LAST_5_HOME","PTS_LAST_5_AWAY","WIN_LAST_5_HOME","WIN_LAST_5_AWAY","DAYS_REST_HOME","DAYS_REST_AWAY","DIFF_PTS","DIFF_REST"],"feature_types":["float","float","float","float","float","float","float","float"],"gradient_booster":{"model":{"cats":{"enc":[],"feature_segments":[],"sorted_idx":[]},"gbtree_model_param":{"num_parallel_tree":"1","num_trees":"100"},"iteration_indptr":[0,1,2,3,4,5,6,7,8,9,10,11,12,13,14,15,16,17,18,19,20,21,22,23,24,25,26,27,28,29,30,31,32,33,34,35,36,37,38,39,40,41,42,43,44,45,46,47,48,49,50,51,52,53,54,55,56,57,58,59,60,61,62,63,64,65,66,67,68,69,70,71,72,73,74,75,76,77,78,79,80,81,82,83,84,85,86,87,88,89,90,91,92,93,94,95,96,97,98,99,100],"tree_info":[0,0,0,0,0,0,0,0,0,0,0,0,0,0,0,0,0,0,0,0,0,0,0,0,0,0,0,0,0,0,0,0,0,0,0,0,0,0,0,0,0,0,0,0,0,0,0,0,0,0,0,0,0,0,0,0,0,0,0,0,0,0,0,0,0,0,0,0,0,0,0,0,0,0,0,0,0,0,0,0,0,0,0,0,0,0,0,0,0,0,0,0,0,0,0,0,0,0,0,0],"trees":[{"base_weights":[4.1470777E-8,5.69332E-1,-1.6955446E-1,2.8991187E-1,8.483898E-1,-4.1591576E-1,9.7133726E-2,-6.634195E-2,1.6646633E-2,-2.5243655E-2,4.5946244E-2,-3.985715E-2,-1.2665269E-2,2.410496E-2,4.8100366E-4],"categories":[],"categories_nodes":[],"categories_segments":[],"categories_sizes":[],"default_left":[0,0,0,0,0,0,0,0,0,0,0,0,0,0,0],"id":0,"left_children":[1,3,5,7,9,11,13,-1,-1,-1,-1,-1,-1,-1,-1],"loss_changes":[6.405731E1,1.1627499E1,3.3634106E1,5.8395925E0,7.686573E0,1.6286064E1,8.294331E0,0E0,0E0,0E0,0E0,0E0,0E0,0E0,0E0],"parents":[2147483647,0,0,1,1,2,2,3,3,4,4,5,5,6,6],"right_children":[2,4,6,8,10,12,14,-1,-1,-1,-1,-1,-1,-1,-1],"split_conditions":[4E-1,1.156E2,1.154E2,-1.56E1,-1E0,4E-1,2E0,-6.634195E-2,1.6646633E-2,-2.5243655E-2,4.5946244E-2,-3.985715E-2,-1.2665269E-2,2.410496E-2,4.8100366E-4],"split_indices":[3,0,0,6,6,2,5,0,0,0,0,0,0,0,0],"split_type":[0,0,0,0,0,0,0,0,0,0,0,0,0,0,0],"sum_hessian":[6.615808E2,1.5127388E2,5.1030695E2,7.660664E1,7.466724E1,2.649717E2,2.453352E2,1.2121305E0,7.5394516E1,3.3939652E0,7.127327E1,7.80612E1,1.8691052E2,4.4606403E1,2.007288E2],"tree_param":{"num_deleted":"0","num_feature":"8","num_nodes":"15","size_leaf_vector":"1"}},{"base_weights":[-3.8653754E-5,5.4363596E-1,-1.6087869E-1,2.7555227E-1,8.1275696E-1,-6.5441364E-1,-3.696391E-2,-6.4144336E-2,1.5872767E-2,-2.418727E-2,4.4058215E-2,-4.4071097E-2,-1.5490392E-2,-1.18099665E-2,5.4574753E-3],"categories":[],"categories_nodes":[],"categories_segments":[],"categories_sizes":[],"default_left":[0,0,0,0,0,0,0,0,0,0,0,0,0,0,0],"id":1,"left_children":[1,3,5,7,9,11,13,-1,-1,-1,-1,-1,-1,-1,-1],"loss_changes":[5.8018616E1,1.0704437E1,3.1288763E1,5.461492E0,7.084938E0,7.7606316E0,1.1970589E1,0E0,0E0,0E0,0E0,0E0,0E0,0E0,0E0],"parents":[2147483647,0,0,1,1,2,2,3,3,4,4,5,5,6,6],"right_children":[2,4,6,8,10,12,14,-1,-1,-1,-1,-1,-1,-1,-1],"split_conditions":[4E-1,1.156E2,-9.2E0,-1.56E1,-1E0,1.234E2,1.154E2,-6.4144336E-2,1.5872767E-2,-2.418727E-2,4.4058215E-2,-4.4071097E-2,-1.5490392E-2,-1.18099665E-2,5.4574753E-3],"split_indices":[3,0,6,6,6,1,0,0,0,0,0,0,0,0,0],"split_type":[0,0,0,0,0,0,0,0,0,0,0,0,0,0,0],"sum_hessian":[6.6148944E2,1.5047409E2,5.1101538E2,7.6396225E1,7.407786E1,1.016955E2,4.093199E2,1.2248958E0,7.517133E1,3.4083834E0,7.066948E1,6.0369476E1,4.132603E1,1.7291803E2,2.3640186E2],"tree_param":{"num_deleted":"0","num_feature":"8","num_nodes":"15","size_leaf_vector":"1"}},{"base_weights":[-1.3581585E-4,5.192517E-1,-1.5275714E-1,2.6189405E-1,7.790887E-1,-6.1911505E-1,-3.511607E-2,-6.2093854E-2,1.5134724E-2,-2.318274E-2,4.2273805E-2,-4.162217E-2,-1.4697099E-2,-1.8437149E-2,2.5935965E-3],"categories":[],"categories_nodes":[],"categories_segments":[],"categories_sizes":[],"default_left":[0,0,0,0,0,0,0,0,0,0,0,0,0,0,0],"id":2,"left_children":[1,3,5,7,9,11,13,-1,-1,-1,-1,-1,-1,-1,-1],"loss_changes":[5.257636E1,9.869038E0,2.8102322E1,5.1115327E0,6.5343056E0,6.914379E0,1.1930194E1,0E0,0E0,0E0,0E0,0E0,0E0,0E0,0E0],"parents":[2147483647,0,0,1,1,2,2,3,3,4,4,5,5,6,6],"right_children":[2,4,6,8,10,12,14,-1,-1,-1,-1,-1,-1,-1,-1],"split_conditions":[4E-1,1.156E2,-9.2E0,-1.56E1,-1E0,1.234E2,0E0,-6.2093854E-2,1.5134724E-2,-2.318274E-2,4.2273805E-2,-4.162217E-2,-1.4697099E-2,-1.8437149E-2,2.5935965E-3],"split_indices":[3,0,6,6,6,1,7,0,0,0,0,0,0,0,0],"split_type":[0,0,0,0,0,0,0,0,0,0,0,0,0,0,0],"sum_hessian":[6.6125934E2,1.496344E2,5.1162494E2,7.618462E1,7.3449776E1,1.022033E2,4.0942163E2,1.2348324E0,7.494979E1,3.4212592E0,7.002852E1,6.077328E1,4.1430023E1,8.4003235E1,3.254184E2],"tree_param":{"num_deleted":"0","num_feature":"8","num_nodes":"15","size_leaf_vector":"1"}},{"base_weights":[-2.405141E-4,4.9607593E-1,-1.4508817E-1,2.4889825E-1,7.4718773E-1,-3.603584E-1,9.0140514E-2,-6.0176786E-2,1.4430656E-2,-1.7766342E-2,4.089147E-2,-3.542986E-2,-1.0556205E-2,2.2694273E-2,3.9458196E-4],"categories":[],"categories_nodes":[],"categories_segments":[],"categories_sizes":[],"default_left":[0,0,0,0,0,0,0,0,0,0,0,0,0,0,0],"id":3,"left_children":[1,3,5,7,9,11,13,-1,-1,-1,-1,-1,-1,-1,-1],"loss_changes":[4.7657974E1,9.109779E0,2.6017805E1,4.787396E0,6.0377197E0,1.3785824E1,7.356546E0,0E0,0E0,0E0,0E0,0E0,0E0,0E0,0E0],"parents":[2147483647,0,0,1,1,2,2,3,3,4,4,5,5,6,6],"right_children":[2,4,6,8,10,12,14,-1,-1,-1,-1,-1,-1,-1,-1],"split_conditions":[4E-1,1.156E2,1.154E2,-1.56E1,-4E-1,4E-1,2E0,-6.0176786E-2,1.4430656E-2,-1.7766342E-2,4.089147E-2,-3.542986E-2,-1.0556205E-2,2.2694273E-2,3.9458196E-4],"split_indices":[3,0,0,6,6,2,5,0,0,0,0,0,0,0,0],"split_type":[0,0,0,0,0,0,0,0,0,0,0,0,0,0,0],"sum_hessian":[6.609254E2,1.487642E2,5.121612E2,7.5972824E1,7.2791374E1,2.6714798E2,2.4501323E2,1.2421217E0,7.4730705E1,4.140466E0,6.865091E1,7.901587E1,1.8813211E2,4.4351345E1,2.0066188E2],"tree_param":{"num_deleted":"0","num_feature":"8","num_nodes":"15","size_leaf_vector":"1"}},{"base_weights":[-2.5816838E-4,4.7404292E-1,-1.3773894E-1,2.3653004E-1,7.1692634E-1,-5.66473E-1,-2.9002817E-2,1.5711157E-2,-2.5009442E-2,-2.1498106E-2,3.898699E-2,-5.985718E-2,-2.2732329E-2,-1.7128527E-2,2.653219E-3],"categories":[],"categories_nodes":[],"categories_segments":[],"categories_sizes":[],"default_left":[0,0,0,0,0,0,0,0,0,0,0,0,0,0,0],"id":4,"left_children":[1,3,5,7,9,11,13,-1,-1,-1,-1,-1,-1,-1,-1],"loss_changes":[4.319866E1,8.418682E0,2.3927326E1,4.5508556E0,5.6022873E0,6.780117E0,1.0588321E1,0E0,0E0,0E0,0E0,0E0,0E0,0E0,0E0],"parents":[2147483647,0,0,1,1,2,2,3,3,4,4,5,5,6,6],"right_children":[2,4,6,8,10,12,14,-1,-1,-1,-1,-1,-1,-1,-1],"split_conditions":[4E-1,1.156E2,-9.2E0,1.15E2,-1E0,2E0,0E0,1.5711157E-2,-2.5009442E-2,-2.1498106E-2,3.898699E-2,-5.985718E-2,-2.2732329E-2,-1.7128527E-2,2.653219E-3],"split_indices":[3,0,6,0,6,4,7,0,0,0,0,0,0,0,0],"split_type":[0,0,0,0,0,0,0,0,0,0,0,0,0,0,0],"sum_hessian":[6.6048083E2,1.4787437E2,5.1260645E2,7.576171E1,7.2112656E1,1.0285428E2,4.097522E2,6.9052986E1,6.708725E0,3.4409242E0,6.867174E1,1.4029029E1,8.882525E1,8.433712E1,3.2541507E2],"tree_param":{"num_deleted":"0","num_feature":"8","num_nodes":"15","size_leaf_vector":"1"}},{"base_weights":[-3.442649E-4,4.5320046E-1,-1.3092323E-1,2.2516397E-1,6.880719E-1,-3.3065048E-1,8.820621E-2,-5.8843922E-2,1.3198857E-2,3.8094245E-2,-1.2580261E-2,-3.2772165E-2,-9.553871E-3,5.4735173E-3,-6.2422015E-2],"categories":[],"categories_nodes":[],"categories_segments":[],"categories_sizes":[],"default_left":[0,0,0,0,0,0,0,0,0,0,0,0,0,0,0],"id":5,"left_children":[1,3,5,7,9,11,13,-1,-1,-1,-1,-1,-1,-1,-1],"loss_changes":[3.9205883E1,7.771204E0,2.2525387E1,4.4775996E0,5.214432E0,1.2074617E1,7.125495E0,0E0,0E0,0E0,0E0,0E0,0E0,0E0,0E0],"parents":[2147483647,0,0,1,1,2,2,3,3,4,4,5,5,6,6],"right_children":[2,4,6,8,10,12,14,-1,-1,-1,-1,-1,-1,-1,-1],"split_conditions":[4E-1,1.156E2,1.154E2,-1.56E1,1.194E2,4E-1,1.322E2,-5.8843922E-2,1.3198857E-2,3.8094245E-2,-1.2580261E-2,-3.2772165E-2,-9.553871E-3,5.4735173E-3,-6.2422015E-2],"split_indices":[3,0,0,6,1,2,1,0,0,0,0,0,0,0,0],"split_type":[0,0,0,0,0,0,0,0,0,0,0,0,0,0,0],"sum_hessian":[6.599981E2,1.4698813E2,5.1300995E2,7.557302E1,7.141511E1,2.6812048E2,2.4488947E2,1.2459015E0,7.432712E1,6.6389336E1,5.0257726E0,7.947726E1,1.8864323E2,2.4195834E2,2.9311118E0],"tree_param":{"num_deleted":"0","num_feature":"8","num_nodes":"15","size_leaf_vector":"1"}},{"base_weights":[-4.7464864E-4,-2.285315E-1,2.3939338E-1,-5.8640915E-1,-1.0142169E-1,5.128138E-1,1.00008994E-1,5.0862756E-2,-3.1240776E-2,-2.5965372E-2,4.839093E-4,8.983778E-3,3.5898034E-2,6.4138204E-2,3.9459723E-3],"categories":[],"categories_nodes":[],"categories_segments":[],"categories_sizes":[],"default_left":[0,0,0,0,0,0,0,0,0,0,0,0,0,0,0],"id":6,"left_children":[1,3,5,7,9,11,13,-1,-1,-1,-1,-1,-1,-1,-1],"loss_changes":[3.6181225E1,1.53637905E1,1.2233883E1,6.095749E0,1.16766615E1,7.293108E0,5.2555456E0,0E0,0E0,0E0,0E0,0E0,0E0,0E0,0E0],"parents":[2147483647,0,0,1,1,2,2,3,3,4,4,5,5,6,6],"right_children":[2,4,6,8,10,12,14,-1,-1,-1,-1,-1,-1,-1,-1],"split_conditions":[6E-1,4E-1,4E-1,1.052E2,0E0,1.156E2,1.068E2,5.0862756E-2,-3.1240776E-2,-2.5965372E-2,4.839093E-4,8.983778E-3,3.5898034E-2,6.4138204E-2,3.9459723E-3],"split_indices":[6,2,3,1,7,0,0,0,0,0,0,0,0,0,0],"split_type":[0,0,0,0,0,0,0,0,0,0,0,0,0,0,0],"sum_hessian":[6.594054E2,3.3804916E2,3.2135626E2,8.7651886E1,2.5039728E2,1.07601974E2,2.1375427E2,1.4539826E0,8.619791E1,5.1817856E1,1.9857942E2,4.172329E1,6.587868E1,2.6966152E0,2.1105766E2],"tree_param":{"num_deleted":"0","num_feature":"8","num_nodes":"15","size_leaf_vector":"1"}},{"base_weights":[-2.5674084E-4,4.1957825E-1,-1.19705945E-1,2.1394284E-1,6.347588E-1,-3.0433425E-1,8.358802E-2,1.4477076E-2,-2.4815807E-2,-2.0050377E-2,3.4683097E-2,1.1426749E-2,-1.8889448E-2,5.1976945E-3,-5.929635E-2],"categories":[],"categories_nodes":[],"categories_segments":[],"categories_sizes":[],"default_left":[0,0,0,0,0,0,0,0,0,0,0,0,0,0,0],"id":7,"left_children":[1,3,5,7,9,11,13,-1,-1,-1,-1,-1,-1,-1,-1],"loss_changes":[3.3142696E1,6.341484E0,1.9336594E1,4.243842E0,4.6112785E0,1.0648481E1,6.474675E0,0E0,0E0,0E0,0E0,0E0,0E0,0E0,0E0],"parents":[2147483647,0,0,1,1,2,2,3,3,4,4,5,5,6,6],"right_children":[2,4,6,8,10,12,14,-1,-1,-1,-1,-1,-1,-1,-1],"split_conditions":[4E-1,1.156E2,1.154E2,1.15E2,-1E0,1.088E2,1.322E2,1.4477076E-2,-2.4815807E-2,-2.0050377E-2,3.4683097E-2,1.1426749E-2,-1.8889448E-2,5.1976945E-3,-5.929635E-2],"split_indices":[3,0,0,0,6,1,1,0,0,0,0,0,0,0,0],"split_type":[0,0,0,0,0,0,0,0,0,0,0,0,0,0,0],"sum_hessian":[6.5888354E2,1.4538342E2,5.135001E2,7.536027E1,7.002315E1,2.6884363E2,2.446565E2,6.864605E1,6.714218E0,3.4553638E0,6.656779E1,3.231398E1,2.3652965E2,2.4169724E2,2.9592502E0],"tree_param":{"num_deleted":"0","num_feature":"8","num_nodes":"15","size_leaf_vector":"1"}},{"base_weights":[-2.993766E-4,4.0118977E-1,-1.137736E-1,2.0362385E-1,6.0954314E-1,-4.830144E-1,-1.9507295E-2,2.8971452E-2,2.7754814E-3,3.396947E-2,-1.2564301E-2,-5.3658962E-2,-1.8932348E-2,-1.5463839E-2,2.831339E-3],"categories":[],"categories_nodes":[],"categories_segments":[],"categories_sizes":[],"default_left":[0,0,0,0,0,0,0,0,0,0,0,0,0,0,0],"id":8,"left_children":[1,3,5,7,9,11,13,-1,-1,-1,-1,-1,-1,-1,-1],"loss_changes":[3.0079329E1,5.864561E0,1.7907318E1,4.2080255E0,4.3980217E0,6.0391464E0,9.0869465E0,0E0,0E0,0E0,0E0,0E0,0E0,0E0,0E0],"parents":[2147483647,0,0,1,1,2,2,3,3,4,4,5,5,6,6],"right_children":[2,4,6,8,10,12,14,-1,-1,-1,-1,-1,-1,-1,-1],"split_conditions":[4E-1,1.156E2,-9.2E0,2E-1,1.194E2,2E0,0E0,2.8971452E-2,2.7754814E-3,3.396947E-2,-1.2564301E-2,-5.3658962E-2,-1.8932348E-2,-1.5463839E-2,2.831339E-3],"split_indices":[3,0,6,3,1,4,7,0,0,0,0,0,0,0,0],"split_type":[0,0,0,0,0,0,0,0,0,0,0,0,0,0,0],"sum_hessian":[6.582309E2,1.4448508E2,5.1374585E2,7.517733E1,6.9307755E1,1.0364496E2,4.1010086E2,2.04297E1,5.4747627E1,6.430123E1,5.0065207E0,1.4179824E1,8.946513E1,8.469309E1,3.2540778E2],"tree_param":{"num_deleted":"0","num_feature":"8","num_nodes":"15","size_leaf_vector":"1"}},{"base_weights":[-3.058164E-4,-2.0003837E-1,2.1204977E-1,-5.321494E-1,-8.191194E-2,4.4995356E-1,9.323452E-2,4.925741E-2,-2.8414557E-2,-2.3306211E-2,1.0331783E-3,7.621404E-3,3.1899925E-2,6.1946232E-2,3.648451E-3],"categories":[],"categories_nodes":[],"categories_segments":[],"categories_sizes":[],"default_left":[0,0,0,0,0,0,0,0,0,0,0,0,0,0,0],"id":9,"left_children":[1,3,5,7,9,11,13,-1,-1,-1,-1,-1,-1,-1,-1],"loss_changes":[2.7974876E1,1.3290355E1,8.99431E0,5.43993E0,9.936845E0,5.845394E0,4.8889923E0,0E0,0E0,0E0,0E0,0E0,0E0,0E0,0E0],"parents":[2147483647,0,0,1,1,2,2,3,3,4,4,5,5,6,6],"right_children":[2,4,6,8,10,12,14,-1,-1,-1,-1,-1,-1,-1,-1],"split_conditions":[6E-1,4E-1,4E-1,1.052E2,0E0,1.156E2,1.068E2,4.925741E-2,-2.8414557E-2,-2.3306211E-2,1.0331783E-3,7.621404E-3,3.1899925E-2,6.1946232E-2,3.648451E-3],"split_indices":[6,2,3,1,7,0,0,0,0,0,0,0,0,0,0],"split_type":[0,0,0,0,0,0,0,0,0,0,0,0,0,0,0],"sum_hessian":[6.575619E2,3.3888202E2,3.186799E2,8.799113E1,2.5089088E2,1.05216965E2,2.1346292E2,1.4362636E0,8.655486E1,5.2120678E1,1.987702E2,4.1448135E1,6.376883E1,2.665001E0,2.1079793E2],"tree_param":{"num_deleted":"0","num_feature":"8","num_nodes":"15","size_leaf_vector":"1"}},{"base_weights":[-1.06861415E-4,3.7216285E-1,-1.04136266E-1,-5.6625444E-2,3.9327723E-1,-2.7525243E-1,7.715075E-2,3.2956403E-2,1.3921893E-2,1.015643E-2,-1.7087057E-2,2.1221785E-2,-3.8337686E-5],"categories":[],"categories_nodes":[],"categories_segments":[],"categories_sizes":[],"default_left":[0,0,0,0,0,0,0,0,0,0,0,0,0],"id":10,"left_children":[1,3,5,-1,7,9,11,-1,-1,-1,-1,-1,-1],"loss_changes":[2.5517406E1,5.0175323E0,1.5996857E1,0E0,4.1720104E0,8.502909E0,6.788088E0,0E0,0E0,0E0,0E0,0E0,0E0],"parents":[2147483647,0,0,1,1,2,2,4,4,5,5,6,6],"right_children":[2,4,6,-1,8,10,12,-1,-1,-1,-1,-1,-1],"split_conditions":[4E-1,-1.56E1,1.152E2,-5.6625444E-2,2E-1,1.088E2,2E0,3.2956403E-2,1.3921893E-2,1.015643E-2,-1.7087057E-2,2.1221785E-2,-3.8337686E-5],"split_indices":[3,6,0,0,3,1,5,0,0,0,0,0,0],"split_type":[0,0,0,0,0,0,0,0,0,0,0,0,0],"sum_hessian":[6.569042E2,1.4291277E2,5.1399146E2,1.2492719E0,1.4166348E2,2.6414633E2,2.4984511E2,4.1304596E1,1.0035889E2,3.1982151E1,2.3216417E2,4.4968666E1,2.0487645E2],"tree_param":{"num_deleted":"0","num_feature":"8","num_nodes":"13","size_leaf_vector":"1"}},{"base_weights":[-7.186089E-5,-1.819977E-1,1.9462945E-1,-4.942042E-1,-7.086841E-2,9.694548E-2,4.7111943E-1,4.7832306E-2,-2.6427284E-2,-2.1742601E-2,1.3257101E-3,3.2919247E-2,2.083651E-3,2.629816E-2,-5.3967446E-2],"categories":[],"categories_nodes":[],"categories_segments":[],"categories_sizes":[],"default_left":[0,0,0,0,0,0,0,0,0,0,0,0,0,0,0],"id":11,"left_children":[1,3,5,7,9,11,13,-1,-1,-1,-1,-1,-1,-1,-1],"loss_changes":[2.3315475E1,1.1771132E1,8.541826E0,4.947941E0,8.94816E0,7.302543E0,7.6040287E0,0E0,0E0,0E0,0E0,0E0,0E0,0E0,0E0],"parents":[2147483647,0,0,1,1,2,2,3,3,4,4,5,5,6,6],"right_children":[2,4,6,8,10,12,14,-1,-1,-1,-1,-1,-1,-1,-1],"split_conditions":[6E-1,4E-1,1.14E1,1.052E2,0E0,2E-1,1.162E2,4.7832306E-2,-2.6427284E-2,-2.1742601E-2,1.3257101E-3,3.2919247E-2,2.083651E-3,2.629816E-2,-5.3967446E-2],"split_indices":[6,2,6,1,7,3,1,0,0,0,0,0,0,0,0],"split_type":[0,0,0,0,0,0,0,0,0,0,0,0,0,0,0],"sum_hessian":[6.562351E2,3.3928125E2,3.1695383E2,8.8159355E1,2.511219E2,2.352061E2,8.174773E1,1.4174743E0,8.674188E1,5.2273956E1,1.9884795E2,2.0102268E1,2.1510382E2,7.95931E1,2.154626E0],"tree_param":{"num_deleted":"0","num_feature":"8","num_nodes":"15","size_leaf_vector":"1"}},{"base_weights":[-3.2966553E-5,3.4686878E-1,-9.608139E-2,-5.463251E-2,3.6732063E-1,-4.1715354E-1,-1.3840006E-2,2.066149E-2,-1.03999255E-2,-3.0422578E-2,-6.4547E-3,-4.673396E-3,1.1759642E-2],"categories":[],"categories_nodes":[],"categories_segments":[],"categories_sizes":[],"default_left":[0,0,0,0,0,0,0,0,0,0,0,0,0],"id":12,"left_children":[1,3,5,-1,7,9,11,-1,-1,-1,-1,-1,-1],"loss_changes":[2.1910349E1,4.599308E0,1.3592913E1,0E0,3.8190975E0,5.706438E0,8.172402E0,0E0,0E0,0E0,0E0,0E0,0E0],"parents":[2147483647,0,0,1,1,2,2,4,4,5,5,6,6],"right_children":[2,4,6,-1,8,10,12,-1,-1,-1,-1,-1,-1],"split_conditions":[4E-1,-1.56E1,-9.2E0,-5.463251E-2,1.186E2,1.234E2,1E0,2.066149E-2,-1.03999255E-2,-3.0422578E-2,-6.4547E-3,-4.673396E-3,1.1759642E-2],"split_indices":[3,6,6,0,1,1,7,0,0,0,0,0,0],"split_type":[0,0,0,0,0,0,0,0,0,0,0,0,0],"sum_hessian":[6.5558575E2,1.4158965E2,5.139961E2,1.2490447E0,1.4034059E2,1.0398074E2,4.1001535E2,1.3023026E2,1.0110342E1,6.1816593E1,4.2164146E1,3.1115018E2,9.8865166E1],"tree_param":{"num_deleted":"0","num_feature":"8","num_nodes":"13","size_leaf_vector":"1"}},{"base_weights":[-1.2755516E-4,1.4917915E-1,-2.0922567E-1,5.7953995E-2,4.9565628E-1,-7.94582E-1,-1.22522324E-1,3.5528418E-2,-1.7446218E-4,-2.9820813E-2,2.7969455E-2,-4.4061646E-2,3.508303E-2,-4.1201185E-3,-3.8839564E-2],"categories":[],"categories_nodes":[],"categories_segments":[],"categories_sizes":[],"default_left":[0,0,0,0,0,0,0,0,0,0,0,0,0,0,0],"id":13,"left_children":[1,3,5,7,9,11,13,-1,-1,-1,-1,-1,-1,-1,-1],"loss_changes":[2.0507648E1,1.2084296E1,1.3790899E1,1.2212261E1,5.8836308E0,5.171835E0,6.2233715E0,0E0,0E0,0E0,0E0,0E0,0E0,0E0,0E0],"parents":[2147483647,0,0,1,1,2,2,3,3,4,4,5,5,6,6],"right_children":[2,4,6,8,10,12,14,-1,-1,-1,-1,-1,-1,-1,-1],"split_conditions":[1.164E2,1.14E1,1.074E2,2E-1,9.72E1,2E0,1.264E2,3.5528418E-2,-1.7446218E-4,-2.9820813E-2,2.7969455E-2,-4.4061646E-2,3.508303E-2,-4.1201185E-3,-3.8839564E-2],"split_indices":[1,6,0,3,1,7,0,0,0,0,0,0,0,0,0],"split_type":[0,0,0,0,0,0,0,0,0,0,0,0,0,0,0],"sum_hessian":[6.5488086E2,3.8223334E2,2.726475E2,3.0349292E2,7.8740425E1,3.4121334E1,2.3852617E2,2.5205896E1,2.7828702E2,3.8809874E0,7.4859436E1,3.2641994E1,1.4793379E0,2.2580565E2,1.2720521E1],"tree_param":{"num_deleted":"0","num_feature":"8","num_nodes":"15","size_leaf_vector":"1"}},{"base_weights":[-1.2463995E-4,3.2100973E-1,-8.8161446E-2,1.4978823E-1,5.0756496E-1,-2.3543495E-1,7.507541E-2,1.1246433E-2,-2.711576E-2,-1.8459065E-2,2.805467E-2,1.0206622E-2,-1.47739025E-2,4.7049965E-3,-5.494913E-2],"categories":[],"categories_nodes":[],"categories_segments":[],"categories_sizes":[],"default_left":[0,0,0,0,0,0,0,0,0,0,0,0,0,0,0],"id":14,"left_children":[1,3,5,7,9,11,13,-1,-1,-1,-1,-1,-1,-1,-1],"loss_changes":[1.8553686E1,4.434264E0,1.2400017E1,4.024699E0,3.3588352E0,7.213153E0,5.576816E0,0E0,0E0,0E0,0E0,0E0,0E0,0E0,0E0],"parents":[2147483647,0,0,1,1,2,2,3,3,4,4,5,5,6,6],"right_children":[2,4,6,8,10,12,14,-1,-1,-1,-1,-1,-1,-1,-1],"split_conditions":[4E-1,1.156E2,1.154E2,1.15E2,-1E0,1.088E2,1.322E2,1.1246433E-2,-2.711576E-2,-1.8459065E-2,2.805467E-2,1.0206622E-2,-1.47739025E-2,4.7049965E-3,-5.494913E-2],"split_indices":[3,0,0,0,6,1,1,0,0,0,0,0,0,0,0],"split_type":[0,0,0,0,0,0,0,0,0,0,0,0,0,0,0],"sum_hessian":[6.5426373E2,1.4020128E2,5.140625E2,7.4045135E1,6.6156136E1,2.7001273E2,2.4404976E2,6.740239E1,6.6427474E0,3.4673414E0,6.2688797E1,3.2161674E1,2.3785104E2,2.410634E2,2.9863563E0],"tree_param":{"num_deleted":"0","num_feature":"8","num_nodes":"15","size_leaf_vector":"1"}},{"base_weights":[-1.9035081E-4,1.3876145E-1,-1.9384255E-1,5.4407533E-2,4.6244243E-1,-7.4241847E-1,-1.12663515E-1,3.368092E-2,-1.5103827E-4,-2.908208E-2,2.6226897E-2,-4.12802E-2,3.4414724E-2,-3.696961E-3,-3.7070867E-2],"categories":[],"categories_nodes":[],"categories_segments":[],"categories_sizes":[],"default_left":[0,0,0,0,0,0,0,0,0,0,0,0,0,0,0],"id":15,"left_children":[1,3,5,7,9,11,13,-1,-1,-1,-1,-1,-1,-1,-1],"loss_changes":[1.7637043E1,1.0394593E1,1.2110625E1,1.080747E1,5.4113636E0,4.747921E0,5.7815886E0,0E0,0E0,0E0,0E0,0E0,0E0,0E0,0E0],"parents":[2147483647,0,0,1,1,2,2,3,3,4,4,5,5,6,6],"right_children":[2,4,6,8,10,12,14,-1,-1,-1,-1,-1,-1,-1,-1],"split_conditions":[1.164E2,1.14E1,1.074E2,2E-1,9.72E1,2E0,1.264E2,3.368092E-2,-1.5103827E-4,-2.908208E-2,2.6226897E-2,-4.12802E-2,3.4414724E-2,-3.696961E-3,-3.7070867E-2],"split_indices":[1,6,0,3,1,7,0,0,0,0,0,0,0,0,0],"split_type":[0,0,0,0,0,0,0,0,0,0,0,0,0,0,0],"sum_hessian":[6.534498E2,3.8062344E2,2.7282635E2,3.0286298E2,7.7760475E1,3.411889E1,2.3870746E2,2.4794184E1,2.780688E2,3.8954167E0,7.386506E1,3.264383E1,1.475058E0,2.259114E2,1.2796055E1],"tree_param":{"num_deleted":"0","num_feature":"8","num_nodes":"15","size_leaf_vector":"1"}},{"base_weights":[-1.8535426E-4,1.6200984E-1,-1.5154968E-1,-1.9815147E-2,3.0097434E-1,-3.285039E-1,5.6570143E-2,3.102018E-2,-4.650598E-3,-8.544438E-3,1.8774973E-2,-3.6988202E-2,-1.2311942E-2,5.714221E-2,-1.9749858E-4],"categories":[],"categories_nodes":[],"categories_segments":[],"categories_sizes":[],"default_left":[0,0,0,0,0,0,0,0,0,0,0,0,0,0,0],"id":16,"left_children":[1,3,5,7,9,11,13,-1,-1,-1,-1,-1,-1,-1,-1],"loss_changes":[1.6075111E1,7.992423E0,1.2491961E1,6.518215E0,6.366461E0,6.015953E0,1.0292712E1,0E0,0E0,0E0,0E0,0E0,0E0,0E0,0E0],"parents":[2147483647,0,0,1,1,2,2,3,3,4,4,5,5,6,6],"right_children":[2,4,6,8,10,12,14,-1,-1,-1,-1,-1,-1,-1,-1],"split_conditions":[6E-1,6E-1,1.156E2,1.034E2,-3.6E0,2E0,1.16E2,3.102018E-2,-4.650598E-3,-8.544438E-3,1.8774973E-2,-3.6988202E-2,-1.2311942E-2,5.714221E-2,-1.9749858E-4],"split_indices":[3,2,0,1,6,4,0,0,0,0,0,0,0,0,0],"split_type":[0,0,0,0,0,0,0,0,0,0,0,0,0,0,0],"sum_hessian":[6.527755E2,3.1507986E2,3.3769568E2,1.3686255E2,1.782173E2,1.8220076E2,1.5549492E2,1.3275145E1,1.235874E2,2.4131742E1,1.5408557E2,2.9038559E1,1.531622E2,7.262198E0,1.4823273E2],"tree_param":{"num_deleted":"0","num_feature":"8","num_nodes":"15","size_leaf_vector":"1"}},{"base_weights":[-8.834914E-5,1.2915856E-1,-1.7946021E-1,4.2180248E-2,4.0540096E-1,-6.940232E-1,-1.0349007E-1,1.4650869E-2,-5.2088974E-3,7.3928456E-3,3.437562E-2,-3.870068E-2,3.371985E-2,-3.3113703E-3,-3.5299797E-2],"categories":[],"categories_nodes":[],"categories_segments":[],"categories_sizes":[],"default_left":[0,0,0,0,0,0,0,0,0,0,0,0,0,0,0],"id":17,"left_children":[1,3,5,7,9,11,13,-1,-1,-1,-1,-1,-1,-1,-1],"loss_changes":[1.5164561E1,9.117493E0,1.0636816E1,1.0686414E1,6.5044603E0,4.3603363E0,5.338612E0,0E0,0E0,0E0,0E0,0E0,0E0,0E0,0E0],"parents":[2147483647,0,0,1,1,2,2,3,3,4,4,5,5,6,6],"right_children":[2,4,6,8,10,12,14,-1,-1,-1,-1,-1,-1,-1,-1],"split_conditions":[1.164E2,1E0,1.074E2,1.096E2,1.152E2,2E0,1.264E2,1.4650869E-2,-5.2088974E-3,7.3928456E-3,3.437562E-2,-3.870068E-2,3.371985E-2,-3.3113703E-3,-3.5299797E-2],"split_indices":[1,7,0,1,0,7,0,0,0,0,0,0,0,0,0],"split_type":[0,0,0,0,0,0,0,0,0,0,0,0,0,0,0],"sum_hessian":[6.521171E2,3.7917874E2,2.7293835E2,2.8925574E2,8.992301E1,3.406602E1,2.3887234E2,1.0621547E2,1.8304025E2,4.780509E1,4.2117924E1,3.2595066E1,1.4709573E0,2.2600473E2,1.2867603E1],"tree_param":{"num_deleted":"0","num_feature":"8","num_nodes":"15","size_leaf_vector":"1"}},{"base_weights":[-5.4942724E-5,2.817834E-1,-7.61047E-2,-8.106166E-2,3.5910675E-1,-2.0559707E-1,6.2002763E-2,3.208625E-2,-1.1760416E-2,-7.858409E-3,2.1068221E-2,-2.8681267E-2,-6.6593625E-3,1.8809907E-2,-3.8588836E-4],"categories":[],"categories_nodes":[],"categories_segments":[],"categories_sizes":[],"default_left":[0,0,0,0,0,0,0,0,0,0,0,0,0,0,0],"id":18,"left_children":[1,3,5,7,9,11,13,-1,-1,-1,-1,-1,-1,-1,-1],"loss_changes":[1.4006498E1,3.925067E0,9.216085E0,2.959641E0,3.7513914E0,7.0075035E0,5.4748354E0,0E0,0E0,0E0,0E0,0E0,0E0,0E0,0E0],"parents":[2147483647,0,0,1,1,2,2,3,3,4,4,5,5,6,6],"right_children":[2,4,6,8,10,12,14,-1,-1,-1,-1,-1,-1,-1,-1],"split_conditions":[4E-1,4E-1,1.152E2,2E0,-3.8E0,2E0,2E0,3.208625E-2,-1.1760416E-2,-7.858409E-3,2.1068221E-2,-2.8681267E-2,-6.6593625E-3,1.8809907E-2,-3.8588836E-4],"split_indices":[3,2,0,4,6,4,5,0,0,0,0,0,0,0,0],"split_type":[0,0,0,0,0,0,0,0,0,0,0,0,0,0,0],"sum_hessian":[6.514785E2,1.3786166E2,5.136168E2,2.4209337E1,1.1365233E2,2.6482388E2,2.4879295E2,3.6994941E0,2.0509842E1,1.2066427E1,1.015859E2,4.2400143E1,2.2242375E2,4.438341E1,2.0440953E2],"tree_param":{"num_deleted":"0","num_feature":"8","num_nodes":"15","size_leaf_vector":"1"}},{"base_weights":[-8.8938605E-6,1.21318184E-1,-1.6778907E-1,4.7229756E-2,4.1035846E-1,-6.521739E-1,-9.648529E-2,3.130424E-2,-2.7062392E-4,-2.9852629E-2,2.3585038E-2,-3.6463268E-2,3.298142E-2,-1.8884195E-2,-1.0210807E-3],"categories":[],"categories_nodes":[],"categories_segments":[],"categories_sizes":[],"default_left":[0,0,0,0,0,0,0,0,0,0,0,0,0,0,0],"id":19,"left_children":[1,3,5,7,9,11,13,-1,-1,-1,-1,-1,-1,-1,-1],"loss_changes":[1.3287442E1,8.092722E0,9.398245E0,9.225943E0,5.049778E0,4.01814E0,5.124687E0,0E0,0E0,0E0,0E0,0E0,0E0,0E0,0E0],"parents":[2147483647,0,0,1,1,2,2,3,3,4,4,5,5,6,6],"right_children":[2,4,6,8,10,12,14,-1,-1,-1,-1,-1,-1,-1,-1],"split_conditions":[1.164E2,1.14E1,1.074E2,2E-1,9.72E1,2E0,0E0,3.130424E-2,-2.7062392E-4,-2.9852629E-2,2.3585038E-2,-3.6463268E-2,3.298142E-2,-1.8884195E-2,-1.0210807E-3],"split_indices":[1,6,0,3,1,7,7,0,0,0,0,0,0,0,0],"split_type":[0,0,0,0,0,0,0,0,0,0,0,0,0,0,0],"sum_hessian":[6.507442E2,3.7781287E2,2.7293134E2,3.0165448E2,7.615837E1,3.3976166E1,2.3895517E2,2.4238148E1,2.7741635E2,3.869946E0,7.228842E1,3.250972E1,1.4664441E0,5.0031E1,1.8892416E2],"tree_param":{"num_deleted":"0","num_feature":"8","num_nodes":"15","size_leaf_vector":"1"}},{"base_weights":[1.0185415E-5,-2.8668138E-1,6.553999E-2,-3.9272538E-1,4.2452642E-1,3.348415E-1,-7.6489737E-3,3.3339053E-2,-2.1916568E-2,6.695214E-3,4.1776206E-2,-7.5509786E-3,1.971032E-2,-4.5303875E-3,1.2208191E-2],"categories":[],"categories_nodes":[],"categories_segments":[],"categories_sizes":[],"default_left":[0,0,0,0,0,0,0,0,0,0,0,0,0,0,0],"id":20,"left_children":[1,3,5,7,9,11,13,-1,-1,-1,-1,-1,-1,-1,-1],"loss_changes":[1.2248333E1,9.314783E0,1.0461959E1,5.4178696E0,1.8254609E0,3.3310337E0,8.759259E0,0E0,0E0,0E0,0E0,0E0,0E0,0E0,0E0],"parents":[2147483647,0,0,1,1,2,2,3,3,4,4,5,5,6,6],"right_children":[2,4,6,8,10,12,14,-1,-1,-1,-1,-1,-1,-1,-1],"split_conditions":[4E-1,5E0,4E-1,1.054E2,1.178E2,-3.8E0,1E0,3.3339053E-2,-2.1916568E-2,6.695214E-3,4.1776206E-2,-7.5509786E-3,1.971032E-2,-4.5303875E-3,1.2208191E-2],"split_indices":[2,6,3,1,0,6,7,0,0,0,0,0,0,0,0],"split_type":[0,0,0,0,0,0,0,0,0,0,0,0,0,0,0],"sum_hessian":[6.499633E2,1.2029599E2,5.296673E2,1.0507646E2,1.5219526E1,1.1242401E2,4.1724332E2,3.7742233E0,1.0130224E2,9.69199E0,5.5275373E0,1.2072765E1,1.0035124E2,3.1432898E2,1.0291432E2],"tree_param":{"num_deleted":"0","num_feature":"8","num_nodes":"15","size_leaf_vector":"1"}},{"base_weights":[1.504367E-4,1.133767E-1,-1.5585864E-1,3.3709563E-2,3.6847985E-1,-6.093093E-1,-8.939653E-2,1.3009208E-2,-4.8409193E-3,4.8570074E-3,2.986799E-2,-3.6055636E-2,1.5561472E-2,-2.665413E-3,-3.357963E-2],"categories":[],"categories_nodes":[],"categories_segments":[],"categories_sizes":[],"default_left":[0,0,0,0,0,0,0,0,0,0,0,0,0,0,0],"id":21,"left_children":[1,3,5,7,9,11,13,-1,-1,-1,-1,-1,-1,-1,-1],"loss_changes":[1.1502671E1,7.656135E0,8.198716E0,8.557564E0,5.512349E0,3.8096848E0,5.007071E0,0E0,0E0,0E0,0E0,0E0,0E0,0E0,0E0],"parents":[2147483647,0,0,1,1,2,2,3,3,4,4,5,5,6,6],"right_children":[2,4,6,8,10,12,14,-1,-1,-1,-1,-1,-1,-1,-1],"split_conditions":[1.164E2,1E0,1.074E2,1.096E2,6E-1,1.254E2,1.264E2,1.3009208E-2,-4.8409193E-3,4.8570074E-3,2.986799E-2,-3.6055636E-2,1.5561472E-2,-2.665413E-3,-3.357963E-2],"split_indices":[1,7,0,1,2,1,0,0,0,0,0,0,0,0,0],"split_type":[0,0,0,0,0,0,0,0,0,0,0,0,0,0,0],"sum_hessian":[6.491806E2,3.763276E2,2.7285297E2,2.8763358E2,8.869404E1,3.383555E1,2.3901741E2,1.0480195E2,1.8283162E2,4.1234497E1,4.745954E1,3.0364311E1,3.4712362E0,2.2609421E2,1.2923215E1],"tree_param":{"num_deleted":"0","num_feature":"8","num_nodes":"15","size_leaf_vector":"1"}},{"base_weights":[1.3493768E-4,1.3427877E-1,-1.2350388E-1,-2.379622E-2,2.564829E-1,-2.780064E-1,5.8317747E-2,2.7809236E-2,-4.435668E-3,-7.344051E-3,1.6082821E-2,-3.2435175E-2,-1.0199162E-2,5.5127632E-2,3.520255E-5],"categories":[],"categories_nodes":[],"categories_segments":[],"categories_sizes":[],"default_left":[0,0,0,0,0,0,0,0,0,0,0,0,0,0,0],"id":22,"left_children":[1,3,5,7,9,11,13,-1,-1,-1,-1,-1,-1,-1,-1],"loss_changes":[1.0789241E1,6.0332923E0,9.525854E0,5.2057295E0,4.6754866E0,4.894208E0,9.404832E0,0E0,0E0,0E0,0E0,0E0,0E0,0E0,0E0],"parents":[2147483647,0,0,1,1,2,2,3,3,4,4,5,5,6,6],"right_children":[2,4,6,8,10,12,14,-1,-1,-1,-1,-1,-1,-1,-1],"split_conditions":[6E-1,6E-1,1.156E2,1.034E2,-3.6E0,2E0,1.16E2,2.7809236E-2,-4.435668E-3,-7.344051E-3,1.6082821E-2,-3.2435175E-2,-1.0199162E-2,5.5127632E-2,3.520255E-5],"split_indices":[3,2,0,1,6,4,0,0,0,0,0,0,0,0,0],"split_type":[0,0,0,0,0,0,0,0,0,0,0,0,0,0,0],"sum_hessian":[6.485271E2,3.1100806E2,3.37519E2,1.3595332E2,1.7505475E2,1.8218161E2,1.5533742E2,1.2923644E1,1.2302968E2,2.4175716E1,1.5087903E2,2.903168E1,1.5314993E2,7.173965E0,1.4816345E2],"tree_param":{"num_deleted":"0","num_feature":"8","num_nodes":"15","size_leaf_vector":"1"}},{"base_weights":[2.1276229E-4,-2.6146185E-1,6.0122773E-2,-3.592737E-1,3.9960414E-1,3.0477133E-1,-5.5377185E-3,3.1838797E-2,-2.0092731E-2,5.7429136E-3,4.0374525E-2,-4.320245E-2,1.632846E-2,-1.3374403E-2,3.2630272E-3],"categories":[],"categories_nodes":[],"categories_segments":[],"categories_sizes":[],"default_left":[0,0,0,0,0,0,0,0,0,0,0,0,0,0,0],"id":23,"left_children":[1,3,5,7,9,11,13,-1,-1,-1,-1,-1,-1,-1,-1],"loss_changes":[1.0187032E1,7.9711533E0,8.4953985E0,4.750826E0,1.7744453E0,3.1331282E0,7.7667565E0,0E0,0E0,0E0,0E0,0E0,0E0,0E0,0E0],"parents":[2147483647,0,0,1,1,2,2,3,3,4,4,5,5,6,6],"right_children":[2,4,6,8,10,12,14,-1,-1,-1,-1,-1,-1,-1,-1],"split_conditions":[4E-1,5E0,4E-1,1.054E2,1.178E2,9.56E1,0E0,3.1838797E-2,-2.0092731E-2,5.7429136E-3,4.0374525E-2,-4.320245E-2,1.632846E-2,-1.3374403E-2,3.2630272E-3],"split_indices":[2,6,3,1,0,1,7,0,0,0,0,0,0,0,0],"split_type":[0,0,0,0,0,0,0,0,0,0,0,0,0,0,0],"sum_hessian":[6.4780774E2,1.2005742E2,5.2775037E2,1.0498088E2,1.5076535E1,1.1089988E2,4.1685046E2,3.7318234E0,1.0124906E2,9.633189E0,5.4433455E0,1.3229475E0,1.0957693E2,8.810134E1,3.287491E2],"tree_param":{"num_deleted":"0","num_feature":"8","num_nodes":"15","size_leaf_vector":"1"}},{"base_weights":[2.4845914E-4,1.0348756E-1,-1.4137538E-1,2.8366435E-2,3.453445E-1,-5.6081903E-1,-8.02446E-2,-3.5396032E-3,1.4262348E-2,5.9942976E-3,2.9967595E-2,-3.172514E-2,3.29464E-2,-2.2674045E-3,-3.2082886E-2],"categories":[],"categories_nodes":[],"categories_segments":[],"categories_sizes":[],"default_left":[0,0,0,0,0,0,0,0,0,0,0,0,0,0,0],"id":24,"left_children":[1,3,5,7,9,11,13,-1,-1,-1,-1,-1,-1,-1,-1],"loss_changes":[9.489332E0,6.810252E0,6.9713435E0,7.343483E0,5.0176525E0,3.531454E0,4.6727858E0,0E0,0E0,0E0,0E0,0E0,0E0,0E0,0E0],"parents":[2147483647,0,0,1,1,2,2,3,3,4,4,5,5,6,6],"right_children":[2,4,6,8,10,12,14,-1,-1,-1,-1,-1,-1,-1,-1],"split_conditions":[1.164E2,1E0,1.074E2,9.2E0,1.152E2,2E0,1.264E2,-3.5396032E-3,1.4262348E-2,5.9942976E-3,2.9967595E-2,-3.172514E-2,3.29464E-2,-2.2674045E-3,-3.2082886E-2],"split_indices":[1,7,0,6,0,7,0,0,0,0,0,0,0,0,0],"split_type":[0,0,0,0,0,0,0,0,0,0,0,0,0,0,0],"sum_hessian":[6.4701495E2,3.7437628E2,2.7263867E2,2.8650476E2,8.787151E1,3.364083E1,2.3899785E2,2.0723454E2,7.9270226E1,4.7331635E1,4.0539883E1,3.2176865E1,1.4639653E0,2.2602902E2,1.2968818E1],"tree_param":{"num_deleted":"0","num_feature":"8","num_nodes":"15","size_leaf_vector":"1"}},{"base_weights":[2.7000264E-4,-1.28908E-1,1.060502E-1,-3.7266497E-2,-3.9346698E-1,2.3359849E-1,-1.6173238E-2,-1.8982572E-2,1.4866448E-3,-2.3812696E-2,3.2794792E-2,9.872887E-3,4.8196077E-2,-1.07338345E-2,4.926355E-3],"categories":[],"categories_nodes":[],"categories_segments":[],"categories_sizes":[],"default_left":[0,0,0,0,0,0,0,0,0,0,0,0,0,0,0],"id":25,"left_children":[1,3,5,7,9,11,13,-1,-1,-1,-1,-1,-1,-1,-1],"loss_changes":[8.858459E0,7.061454E0,5.5601406E0,5.0093474E0,6.82656E0,4.4148407E0,4.1865015E0,0E0,0E0,0E0,0E0,0E0,0E0,0E0,0E0],"parents":[2147483647,0,0,1,1,2,2,3,3,4,4,5,5,6,6],"right_children":[2,4,6,8,10,12,14,-1,-1,-1,-1,-1,-1,-1,-1],"split_conditions":[6E-1,8E-1,6E-1,2E0,2E0,2E0,1.154E2,-1.8982572E-2,1.4866448E-3,-2.3812696E-2,3.2794792E-2,9.872887E-3,4.8196077E-2,-1.07338345E-2,4.926355E-3],"split_indices":[2,3,3,4,7,7,0,0,0,0,0,0,0,0,0],"split_type":[0,0,0,0,0,0,0,0,0,0,0,0,0,0,0],"sum_hessian":[6.4628345E2,2.9086392E2,3.5541953E2,2.1687926E2,7.398469E1,1.7347528E2,1.8194423E2,3.4730507E1,1.8214874E2,6.9080864E1,4.90382E0,1.6650594E2,6.9693384E0,6.631174E1,1.1563249E2],"tree_param":{"num_deleted":"0","num_feature":"8","num_nodes":"15","size_leaf_vector":"1"}},{"base_weights":[3.3495962E-4,-2.3608437E-1,5.4524377E-2,-3.263733E-1,3.7805003E-1,5.1794845E-1,2.45614E-2,3.1009749E-2,-1.834103E-2,5.1749074E-3,3.8848605E-2,-5.0406974E-2,3.17004E-2,-2.43584E-3,1.2526626E-2],"categories":[],"categories_nodes":[],"categories_segments":[],"categories_sizes":[],"default_left":[0,0,0,0,0,0,0,0,0,0,0,0,0,0,0],"id":26,"left_children":[1,3,5,7,9,11,13,-1,-1,-1,-1,-1,-1,-1,-1],"loss_changes":[8.298187E0,6.820542E0,7.30405E0,4.279519E0,1.6658611E0,6.2981358E0,8.225069E0,0E0,0E0,0E0,0E0,0E0,0E0,0E0,0E0],"parents":[2147483647,0,0,1,1,2,2,3,3,4,4,5,5,6,6],"right_children":[2,4,6,8,10,12,14,-1,-1,-1,-1,-1,-1,-1,-1],"split_conditions":[4E-1,5E0,2E-1,1.054E2,1.178E2,9.86E1,1E0,3.1009749E-2,-1.834103E-2,5.1749074E-3,3.8848605E-2,-5.0406974E-2,3.17004E-2,-2.43584E-3,1.2526626E-2],"split_indices":[2,6,3,1,0,1,7,0,0,0,0,0,0,0,0],"split_type":[0,0,0,0,0,0,0,0,0,0,0,0,0,0,0],"sum_hessian":[6.4571295E2,1.197793E2,5.2593365E2,1.0483518E2,1.4944117E1,3.0950453E1,4.949832E2,3.7087069E0,1.0112648E2,9.597933E0,5.3461833E0,1.6441967E0,2.9306257E1,3.7436728E2,1.2061588E2],"tree_param":{"num_deleted":"0","num_feature":"8","num_nodes":"15","size_leaf_vector":"1"}},{"base_weights":[4.1043348E-4,9.5603816E-2,-1.297466E-1,6.0899507E-2,5.764279E-1,-8.824236E-1,-9.94578E-2,-3.1573835E-4,1.4036976E-2,3.9025784E-2,7.379512E-3,-4.9090697E-3,-5.2445333E-2,-2.47715E-3,-2.2625515E-2],"categories":[],"categories_nodes":[],"categories_segments":[],"categories_sizes":[],"default_left":[0,0,0,0,0,0,0,0,0,0,0,0,0,0,0],"id":27,"left_children":[1,3,5,7,9,11,13,-1,-1,-1,-1,-1,-1,-1,-1],"loss_changes":[8.016922E0,6.200941E0,6.143476E0,5.168702E0,2.0762768E0,1.2609539E0,4.627841E0,0E0,0E0,0E0,0E0,0E0,0E0,0E0,0E0],"parents":[2147483647,0,0,1,1,2,2,3,3,4,4,5,5,6,6],"right_children":[2,4,6,8,10,12,14,-1,-1,-1,-1,-1,-1,-1,-1],"split_conditions":[1.164E2,1E0,1.026E2,1E0,1.122E2,-2.34E1,1E0,-3.1573835E-4,1.4036976E-2,3.9025784E-2,7.379512E-3,-4.9090697E-3,-5.2445333E-2,-2.47715E-3,-2.2625515E-2],"split_indices":[1,2,0,7,1,6,3,0,0,0,0,0,0,0,0],"split_type":[0,0,0,0,0,0,0,0,0,0,0,0,0,0,0],"sum_hessian":[6.450421E2,3.727143E2,2.7232782E2,3.4867474E2,2.4039545E1,9.446576E0,2.6288126E2,2.677758E2,8.0898964E1,1.5732316E1,8.307229E0,1.9325879E0,7.5139885E0,2.3131772E2,3.156353E1],"tree_param":{"num_deleted":"0","num_feature":"8","num_nodes":"15","size_leaf_vector":"1"}},{"base_weights":[3.6321807E-4,-1.18038654E-1,9.753962E-2,-3.3731274E-2,-3.6136314E-1,-6.1082147E-2,1.8730581E-1,-1.7727373E-2,1.4594923E-3,-2.1965712E-2,3.141968E-2,-9.209926E-3,1.6726678E-2,1.2773283E-2,-6.040667E-3],"categories":[],"categories_nodes":[],"categories_segments":[],"categories_sizes":[],"default_left":[0,0,0,0,0,0,0,0,0,0,0,0,0,0,0],"id":28,"left_children":[1,3,5,7,9,11,13,-1,-1,-1,-1,-1,-1,-1,-1],"loss_changes":[7.4395127E0,5.966891E0,5.067961E0,4.40215E0,6.0545826E0,6.3493247E0,4.798757E0,0E0,0E0,0E0,0E0,0E0,0E0,0E0,0E0],"parents":[2147483647,0,0,1,1,2,2,3,3,4,4,5,5,6,6],"right_children":[2,4,6,8,10,12,14,-1,-1,-1,-1,-1,-1,-1,-1],"split_conditions":[6E-1,8E-1,1.154E2,2E0,2E0,1E0,1.248E2,-1.7727373E-2,1.4594923E-3,-2.1965712E-2,3.141968E-2,-9.209926E-3,1.6726678E-2,1.2773283E-2,-6.040667E-3],"split_indices":[2,3,0,4,7,7,0,0,0,0,0,0,0,0,0],"split_type":[0,0,0,0,0,0,0,0,0,0,0,0,0,0,0],"sum_hessian":[6.4458356E2,2.904627E2,3.5412085E2,2.1656544E2,7.3897255E1,1.2809303E2,2.2602783E2,3.475011E1,1.8181534E2,6.901771E1,4.8795466E0,9.809887E1,2.999416E1,1.8522467E2,4.0803154E1],"tree_param":{"num_deleted":"0","num_feature":"8","num_nodes":"15","size_leaf_vector":"1"}},{"base_weights":[3.6652602E-4,9.031911E-2,-1.2245221E-1,5.7561163E-2,5.484926E-1,-8.404989E-1,-9.380912E-2,2.0659411E-2,9.855601E-4,3.7411716E-2,6.7135715E-3,-4.247221E-3,-5.015194E-2,-1.7291127E-2,-1.3466402E-3],"categories":[],"categories_nodes":[],"categories_segments":[],"categories_sizes":[],"default_left":[0,0,0,0,0,0,0,0,0,0,0,0,0,0,0],"id":29,"left_children":[1,3,5,7,9,11,13,-1,-1,-1,-1,-1,-1,-1,-1],"loss_changes":[7.1376977E0,5.5656857E0,5.538807E0,4.6917696E0,1.9486861E0,1.1860995E0,4.4364686E0,0E0,0E0,0E0,0E0,0E0,0E0,0E0,0E0],"parents":[2147483647,0,0,1,1,2,2,3,3,4,4,5,5,6,6],"right_children":[2,4,6,8,10,12,14,-1,-1,-1,-1,-1,-1,-1,-1],"split_conditions":[1.164E2,1E0,1.026E2,2E-1,1.122E2,-2.34E1,0E0,2.0659411E-2,9.855601E-4,3.7411716E-2,6.7135715E-3,-4.247221E-3,-5.015194E-2,-1.7291127E-2,-1.3466402E-3],"split_indices":[1,2,0,3,1,6,7,0,0,0,0,0,0,0,0],"split_type":[0,0,0,0,0,0,0,0,0,0,0,0,0,0,0],"sum_hessian":[6.4406934E2,3.7193115E2,2.7213818E2,3.4816415E2,2.3767E1,9.351972E0,2.6278622E2,3.253725E1,3.156269E2,1.549081E1,8.27619E0,1.92524E0,7.4267316E0,5.4235764E1,2.0855046E2],"tree_param":{"num_deleted":"0","num_feature":"8","num_nodes":"15","size_leaf_vector":"1"}},{"base_weights":[3.4519366E-4,-2.1346657E-1,4.9354054E-2,-2.969271E-1,3.5723335E-1,2.6100272E-1,-6.395343E-3,3.00318E-2,-1.6762173E-2,4.4534276E-3,3.760214E-2,-4.2240586E-2,1.41227385E-2,-1.1807191E-2,2.7971074E-3],"categories":[],"categories_nodes":[],"categories_segments":[],"categories_sizes":[],"default_left":[0,0,0,0,0,0,0,0,0,0,0,0,0,0,0],"id":30,"left_children":[1,3,5,7,9,11,13,-1,-1,-1,-1,-1,-1,-1,-1],"loss_changes":[6.7639356E0,5.8392906E0,6.1977406E0,3.8315964E0,1.6069803E0,2.836316E0,5.9799705E0,0E0,0E0,0E0,0E0,0E0,0E0,0E0,0E0],"parents":[2147483647,0,0,1,1,2,2,3,3,4,4,5,5,6,6],"right_children":[2,4,6,8,10,12,14,-1,-1,-1,-1,-1,-1,-1,-1],"split_conditions":[4E-1,5E0,4E-1,1.054E2,1.178E2,9.56E1,0E0,3.00318E-2,-1.6762173E-2,4.4534276E-3,3.760214E-2,-4.2240586E-2,1.41227385E-2,-1.1807191E-2,2.7971074E-3],"split_indices":[2,6,3,1,0,1,7,0,0,0,0,0,0,0,0],"split_type":[0,0,0,0,0,0,0,0,0,0,0,0,0,0,0],"sum_hessian":[6.434901E2,1.1936758E2,5.2412256E2,1.0455667E2,1.4810906E1,1.0850588E2,4.1561667E2,3.6798677E0,1.0087681E2,9.54994E0,5.260967E0,1.3344775E0,1.071714E2,8.8106575E1,3.275101E2],"tree_param":{"num_deleted":"0","num_feature":"8","num_nodes":"15","size_leaf_vector":"1"}},{"base_weights":[3.6709566E-4,-9.157441E-2,1.0656292E-1,5.217293E-2,-2.2015832E-1,7.950414E-1,7.486177E-2,4.7400915E-3,-1.977538E-2,-2.7247978E-2,-7.783598E-3,1.5070349E-2,5.495457E-2,4.488468E-3,-5.8032483E-2],"categories":[],"categories_nodes":[],"categories_segments":[],"categories_sizes":[],"default_left":[0,0,0,0,0,0,0,0,0,0,0,0,0,0,0],"id":31,"left_children":[1,3,5,7,9,11,13,-1,-1,-1,-1,-1,-1,-1,-1],"loss_changes":[6.2947836E0,6.3984156E0,6.469835E0,3.1665533E0,3.7394428E0,1.629591E0,5.392073E0,0E0,0E0,0E0,0E0,0E0,0E0,0E0,0E0],"parents":[2147483647,0,0,1,1,2,2,3,3,4,4,5,5,6,6],"right_children":[2,4,6,8,10,12,14,-1,-1,-1,-1,-1,-1,-1,-1],"split_conditions":[1.156E2,6E-1,1.16E2,1.148E2,2E0,6E-1,1.322E2,4.7400915E-3,-1.977538E-2,-2.7247978E-2,-7.783598E-3,1.5070349E-2,5.495457E-2,4.488468E-3,-5.8032483E-2],"split_indices":[0,3,0,0,4,2,1,0,0,0,0,0,0,0,0],"split_type":[0,0,0,0,0,0,0,0,0,0,0,0,0,0,0],"sum_hessian":[6.4270667E2,3.445458E2,2.9816086E2,1.6296132E2,1.8158449E2,1.20646305E1,2.8609622E2,1.4951271E2,1.3448616E1,2.8845642E1,1.5273885E2,5.357642E0,6.7069883E0,2.8360165E2,2.494575E0],"tree_param":{"num_deleted":"0","num_feature":"8","num_nodes":"15","size_leaf_vector":"1"}},{"base_weights":[3.033693E-4,3.9241964E-1,-2.3704847E-2,-4.9518175E-2,4.8477963E-1,-5.9862472E-2,2.8274584E-1,2.9476872E-2,-2.3902075E-3,-8.1152795E-3,1.7369653E-3,2.7309904E-2,-7.159192E-3],"categories":[],"categories_nodes":[],"categories_segments":[],"categories_sizes":[],"default_left":[0,0,0,0,0,0,0,0,0,0,0,0,0],"id":32,"left_children":[1,3,5,-1,7,9,11,-1,-1,-1,-1,-1,-1],"loss_changes":[6.064229E0,5.2266264E0,6.742997E0,0E0,2.009347E0,5.2755747E0,7.286386E0,0E0,0E0,0E0,0E0,0E0,0E0],"parents":[2147483647,0,0,1,1,2,2,4,4,5,5,6,6],"right_children":[2,4,6,-1,8,10,12,-1,-1,-1,-1,-1,-1],"split_conditions":[2E-1,9.86E1,1.14E1,-4.9518175E-2,1.22E2,6E-1,1.242E2,2.9476872E-2,-2.3902075E-3,-8.1152795E-3,1.7369653E-3,2.7309904E-2,-7.159192E-3],"split_indices":[3,1,6,0,0,2,0,0,0,0,0,0,0],"split_type":[0,0,0,0,0,0,0,0,0,0,0,0,0],"sum_hessian":[6.4218243E2,3.6165245E1,6.0601715E2,1.6555811E0,3.4509663E1,5.427801E2,6.3237095E1,2.8748058E1,5.761604E0,2.6024655E2,2.8253354E2,3.889613E1,2.4340965E1],"tree_param":{"num_deleted":"0","num_feature":"8","num_nodes":"13","size_leaf_vector":"1"}},{"base_weights":[2.939747E-4,8.142677E-2,-1.10036455E-1,5.06814E-2,5.160267E-1,-7.9115146E-1,-8.321396E-2,-5.3841394E-4,1.2656507E-2,4.8898485E-2,1.5161534E-2,4.4509475E-3,-4.5648318E-2,-2.6774418E-3,-3.0391473E-2],"categories":[],"categories_nodes":[],"categories_segments":[],"categories_sizes":[],"default_left":[0,0,0,0,0,0,0,0,0,0,0,0,0,0,0],"id":33,"left_children":[1,3,5,7,9,11,13,-1,-1,-1,-1,-1,-1,-1,-1],"loss_changes":[5.761099E0,4.9293804E0,4.91665E0,4.325458E0,2.1014137E0,1.1765618E0,4.068407E0,0E0,0E0,0E0,0E0,0E0,0E0,0E0,0E0],"parents":[2147483647,0,0,1,1,2,2,3,3,4,4,5,5,6,6],"right_children":[2,4,6,8,10,12,14,-1,-1,-1,-1,-1,-1,-1,-1],"split_conditions":[1.164E2,1E0,1.026E2,1E0,7.4E0,1.176E2,1.264E2,-5.3841394E-4,1.2656507E-2,4.8898485E-2,1.5161534E-2,4.4509475E-3,-4.5648318E-2,-2.6774418E-3,-3.0391473E-2],"split_indices":[1,2,0,7,6,1,0,0,0,0,0,0,0,0,0],"split_type":[0,0,0,0,0,0,0,0,0,0,0,0,0,0,0],"sum_hessian":[6.415954E2,3.6986948E2,2.7172592E2,3.4647504E2,2.339444E1,9.215557E0,2.6251038E2,2.6652344E2,7.995159E1,6.243998E0,1.7150442E1,1.1530992E0,8.062458E0,2.495039E2,1.3006479E1],"tree_param":{"num_deleted":"0","num_feature":"8","num_nodes":"15","size_leaf_vector":"1"}},{"base_weights":[2.8739026E-4,-1.9331855E-1,4.4656828E-2,-2.6956552E-1,3.324763E-1,-1.8354882E-1,9.127345E-2,2.9252896E-2,-1.5302353E-2,3.6968999E-3,3.5979908E-2,-3.009125E-2,9.997949E-4,2.639223E-2,3.1398472E-3],"categories":[],"categories_nodes":[],"categories_segments":[],"categories_sizes":[],"default_left":[0,0,0,0,0,0,0,0,0,0,0,0,0,0,0],"id":34,"left_children":[1,3,5,7,9,11,13,-1,-1,-1,-1,-1,-1,-1,-1],"loss_changes":[5.525187E0,4.897311E0,5.5834017E0,3.4616594E0,1.511686E0,7.5971184E0,5.3770113E0,0E0,0E0,0E0,0E0,0E0,0E0,0E0,0E0],"parents":[2147483647,0,0,1,1,2,2,3,3,4,4,5,5,6,6],"right_children":[2,4,6,8,10,12,14,-1,-1,-1,-1,-1,-1,-1,-1],"split_conditions":[4E-1,5E0,2E0,1.054E2,1.178E2,6E-1,2E-1,2.9252896E-2,-1.5302353E-2,3.6968999E-3,3.5979908E-2,-3.009125E-2,9.997949E-4,2.639223E-2,3.1398472E-3],"split_indices":[2,6,4,1,0,2,3,0,0,0,0,0,0,0,0],"split_type":[0,0,0,0,0,0,0,0,0,0,0,0,0,0,0],"sum_hessian":[6.411925E2,1.18921555E2,5.22271E2,1.04286064E2,1.4635497E1,8.809175E1,4.341792E2,3.6538188E0,1.0063224E2,9.489173E0,5.146324E0,2.8195145E1,5.989661E1,2.5512522E1,4.086667E2],"tree_param":{"num_deleted":"0","num_feature":"8","num_nodes":"15","size_leaf_vector":"1"}},{"base_weights":[3.6837335E-4,-8.244354E-2,9.624209E-2,4.8656162E-2,-1.9953202E-1,7.6866615E-1,6.5553166E-2,1.2344505E-4,2.3759386E-2,-2.498508E-2,-7.006501E-3,1.2822108E-2,5.2511003E-2,3.9921235E-3,-5.563013E-2],"categories":[],"categories_nodes":[],"categories_segments":[],"categories_sizes":[],"default_left":[0,0,0,0,0,0,0,0,0,0,0,0,0,0,0],"id":35,"left_children":[1,3,5,7,9,11,13,-1,-1,-1,-1,-1,-1,-1,-1],"loss_changes":[5.1013174E0,5.301696E0,6.09452E0,3.2187889E0,3.18054E0,1.591661E0,4.9015055E0,0E0,0E0,0E0,0E0,0E0,0E0,0E0,0E0],"parents":[2147483647,0,0,1,1,2,2,3,3,4,4,5,5,6,6],"right_children":[2,4,6,8,10,12,14,-1,-1,-1,-1,-1,-1,-1,-1],"split_conditions":[1.156E2,6E-1,1.16E2,1.2E2,2E0,6E-1,1.322E2,1.2344505E-4,2.3759386E-2,-2.498508E-2,-7.006501E-3,1.2822108E-2,5.2511003E-2,3.9921235E-3,-5.563013E-2],"split_indices":[0,3,0,1,4,3,1,0,0,0,0,0,0,0,0],"split_type":[0,0,0,0,0,0,0,0,0,0,0,0,0,0,0],"sum_hessian":[6.405255E2,3.4374893E2,2.967766E2,1.6244717E2,1.8130174E2,1.1903887E1,2.848727E2,1.474827E2,1.49644785E1,2.8726927E1,1.5257481E2,4.9000883E0,7.003798E0,2.823801E2,2.4926248E0],"tree_param":{"num_deleted":"0","num_feature":"8","num_nodes":"15","size_leaf_vector":"1"}},{"base_weights":[3.6269592E-4,7.642666E-2,-1.0289635E-1,4.7422674E-2,4.8968393E-1,-7.485163E-1,-7.777015E-2,1.1150561E-3,2.6284864E-2,4.7108397E-2,1.4132554E-2,-8.734648E-4,-4.5709345E-2,-1.5695839E-3,-2.0309648E-2],"categories":[],"categories_nodes":[],"categories_segments":[],"categories_sizes":[],"default_left":[0,0,0,0,0,0,0,0,0,0,0,0,0,0,0],"id":36,"left_children":[1,3,5,7,9,11,13,-1,-1,-1,-1,-1,-1,-1,-1],"loss_changes":[5.0430264E0,4.408283E0,4.3598633E0,4.152443E0,1.9950542E0,1.2056184E0,3.9972343E0,0E0,0E0,0E0,0E0,0E0,0E0,0E0,0E0],"parents":[2147483647,0,0,1,1,2,2,3,3,4,4,5,5,6,6],"right_children":[2,4,6,8,10,12,14,-1,-1,-1,-1,-1,-1,-1,-1],"split_conditions":[1.164E2,1E0,1.026E2,2E0,7.4E0,-2.34E1,1E0,1.1150561E-3,2.6284864E-2,4.7108397E-2,1.4132554E-2,-8.734648E-4,-4.5709345E-2,-1.5695839E-3,-2.0309648E-2],"split_indices":[1,2,0,7,6,6,3,0,0,0,0,0,0,0,0],"split_type":[0,0,0,0,0,0,0,0,0,0,0,0,0,0,0],"sum_hessian":[6.4007135E2,3.6872003E2,2.7135132E2,3.4558063E2,2.3139431E1,9.086354E0,2.6226498E2,3.293291E2,1.6251503E1,6.149179E0,1.6990252E1,1.8829578E0,7.203396E0,2.3077193E2,3.1493048E1],"tree_param":{"num_deleted":"0","num_feature":"8","num_nodes":"15","size_leaf_vector":"1"}},{"base_weights":[3.8013636E-4,3.540874E-1,-2.0874422E-2,-4.8870385E-2,4.4612992E-1,-5.349026E-2,2.5801072E-1,-2.3169508E-3,2.797017E-2,-5.1886314E-3,5.2817245E-3,2.5688633E-2,-7.5014047E-3],"categories":[],"categories_nodes":[],"categories_segments":[],"categories_sizes":[],"default_left":[0,0,0,0,0,0,0,0,0,0,0,0,0],"id":37,"left_children":[1,3,5,-1,7,9,11,-1,-1,-1,-1,-1,-1],"loss_changes":[4.823982E0,4.8936586E0,5.519754E0,0E0,1.962029E0,4.353676E0,6.709319E0,0E0,0E0,0E0,0E0,0E0,0E0],"parents":[2147483647,0,0,1,1,2,2,4,4,5,5,6,6],"right_children":[2,4,6,-1,8,10,12,-1,-1,-1,-1,-1,-1],"split_conditions":[2E-1,9.86E1,1.14E1,-4.8870385E-2,2E0,1E0,1.242E2,-2.3169508E-3,2.797017E-2,-5.1886314E-3,5.2817245E-3,2.5688633E-2,-7.5014047E-3],"split_indices":[3,1,6,0,5,7,0,0,0,0,0,0,0],"split_type":[0,0,0,0,0,0,0,0,0,0,0,0,0],"sum_hessian":[6.396836E2,3.537256E1,6.0431104E2,1.6651568E0,3.37074E1,5.4176E2,6.2551056E1,6.413765E0,2.7293638E1,4.119381E2,1.2982187E2,3.8290894E1,2.4260162E1],"tree_param":{"num_deleted":"0","num_feature":"8","num_nodes":"13","size_leaf_vector":"1"}},{"base_weights":[3.7159424E-4,-1.7895225E-1,4.1431747E-2,-2.1652135E-1,7.234737E-1,-1.7023343E-1,8.475714E-2,5.7841917E-3,-1.4344836E-2,4.9172837E-2,7.8193685E-3,-2.8087854E-2,1.0328706E-3,2.457682E-2,2.9390154E-3],"categories":[],"categories_nodes":[],"categories_segments":[],"categories_sizes":[],"default_left":[0,0,0,0,0,0,0,0,0,0,0,0,0,0,0],"id":38,"left_children":[1,3,5,7,9,11,13,-1,-1,-1,-1,-1,-1,-1,-1],"loss_changes":[4.721004E0,4.206695E0,4.798741E0,2.7323928E0,5.8406997E-1,6.661496E0,4.5542884E0,0E0,0E0,0E0,0E0,0E0,0E0,0E0,0E0],"parents":[2147483647,0,0,1,1,2,2,3,3,4,4,5,5,6,6],"right_children":[2,4,6,8,10,12,14,-1,-1,-1,-1,-1,-1,-1,-1],"split_conditions":[4E-1,1.2E1,2E0,1.042E2,1.054E2,6E-1,2E-1,5.7841917E-3,-1.4344836E-2,4.9172837E-2,7.8193685E-3,-2.8087854E-2,1.0328706E-3,2.457682E-2,2.9390154E-3],"split_indices":[2,6,4,0,1,2,3,0,0,0,0,0,0,0,0],"split_type":[0,0,0,0,0,0,0,0,0,0,0,0,0,0,0],"sum_hessian":[6.391668E2,1.1845868E2,5.207081E2,1.1445389E2,4.0047894E0,8.7975716E1,4.3273245E2,1.9895212E1,9.455868E1,2.2424853E0,1.7623037E0,2.8197945E1,5.9777775E1,2.4899616E1,4.0783282E2],"tree_param":{"num_deleted":"0","num_feature":"8","num_nodes":"15","size_leaf_vector":"1"}},{"base_weights":[4.3902601E-4,7.0656314E-2,-9.461255E-2,4.3307696E-2,4.6389624E-1,-7.2214174E-1,-7.041538E-2,9.788745E-4,2.4925197E-2,4.5541584E-2,1.30328685E-2,-1.1334292E-2,-5.0127666E-2,-2.075102E-3,-2.903767E-2],"categories":[],"categories_nodes":[],"categories_segments":[],"categories_sizes":[],"default_left":[0,0,0,0,0,0,0,0,0,0,0,0,0,0,0],"id":39,"left_children":[1,3,5,7,9,11,13,-1,-1,-1,-1,-1,-1,-1,-1],"loss_changes":[4.2759824E0,3.942595E0,4.082359E0,3.723474E0,1.9295688E0,1.1617956E0,3.8595972E0,0E0,0E0,0E0,0E0,0E0,0E0,0E0,0E0],"parents":[2147483647,0,0,1,1,2,2,3,3,4,4,5,5,6,6],"right_children":[2,4,6,8,10,12,14,-1,-1,-1,-1,-1,-1,-1,-1],"split_conditions":[1.164E2,1E0,1.026E2,2E0,7.4E0,2E-1,1.264E2,9.788745E-4,2.4925197E-2,4.5541584E-2,1.30328685E-2,-1.1334292E-2,-5.0127666E-2,-2.075102E-3,-2.903767E-2],"split_indices":[1,2,0,7,6,2,0,0,0,0,0,0,0,0,0],"split_type":[0,0,0,0,0,0,0,0,0,0,0,0,0,0,0],"sum_hessian":[6.3866565E2,3.674653E2,2.7120035E2,3.4460895E2,2.2856356E1,8.998159E0,2.6220218E2,3.2852533E2,1.6083612E1,6.056386E0,1.6799969E1,3.9056747E0,5.092485E0,2.4916689E2,1.3035298E1],"tree_param":{"num_deleted":"0","num_feature":"8","num_nodes":"15","size_leaf_vector":"1"}},{"base_weights":[4.0879112E-4,-7.502405E-2,8.7936066E-2,4.402678E-2,-1.8125752E-1,7.440176E-1,5.819422E-2,-5.522054E-5,2.3021115E-2,-3.894278E-2,-7.730834E-3,1.2187124E-2,5.1030736E-2,3.593418E-3,-5.3275466E-2],"categories":[],"categories_nodes":[],"categories_segments":[],"categories_sizes":[],"default_left":[0,0,0,0,0,0,0,0,0,0,0,0,0,0,0],"id":40,"left_children":[1,3,5,7,9,11,13,-1,-1,-1,-1,-1,-1,-1,-1],"loss_changes":[4.2275987E0,4.3575807E0,5.7402124E0,3.0633047E0,2.776124E0,1.5180917E0,4.450001E0,0E0,0E0,0E0,0E0,0E0,0E0,0E0,0E0],"parents":[2147483647,0,0,1,1,2,2,3,3,4,4,5,5,6,6],"right_children":[2,4,6,8,10,12,14,-1,-1,-1,-1,-1,-1,-1,-1],"split_conditions":[1.156E2,6E-1,1.16E2,1.2E2,1.012E2,6E-1,1.322E2,-5.522054E-5,2.3021115E-2,-3.894278E-2,-7.730834E-3,1.2187124E-2,5.1030736E-2,3.593418E-3,-5.3275466E-2],"split_indices":[0,3,0,1,0,3,1,0,0,0,0,0,0,0,0],"split_type":[0,0,0,0,0,0,0,0,0,0,0,0,0,0,0],"sum_hessian":[6.383101E2,3.4291855E2,2.953916E2,1.6198036E2,1.809382E2,1.1768648E1,2.8362292E2,1.4704065E2,1.493971E1,6.5169415E0,1.7442126E2,4.8598895E0,6.908758E0,2.8113788E2,2.485071E0],"tree_param":{"num_deleted":"0","num_feature":"8","num_nodes":"15","size_leaf_vector":"1"}},{"base_weights":[3.7551243E-4,1.5769498E-1,-3.991823E-2,1.2040331E-1,8.71066E-1,1.4977702E-1,-8.30745E-2,-3.46077E-4,1.3572763E-2,4.883073E-2,8.5371025E-3,-3.8785435E-2,1.0143866E-2,-1.6725512E-2,-1.973179E-3],"categories":[],"categories_nodes":[],"categories_segments":[],"categories_sizes":[],"default_left":[0,0,0,0,0,0,0,0,0,0,0,0,0,0,0],"id":41,"left_children":[1,3,5,7,9,11,13,-1,-1,-1,-1,-1,-1,-1,-1],"loss_changes":[4.0560536E0,3.3659315E0,4.182643E0,2.4087868E0,3.0048943E-1,4.814586E0,4.544322E0,0E0,0E0,0E0,0E0,0E0,0E0,0E0,0E0],"parents":[2147483647,0,0,1,1,2,2,3,3,4,4,5,5,6,6],"right_children":[2,4,6,8,10,12,14,-1,-1,-1,-1,-1,-1,-1,-1],"split_conditions":[4E-1,2E0,2E0,1.156E2,1.4E1,2E-1,2E0,-3.46077E-4,1.3572763E-2,4.883073E-2,8.5371025E-3,-3.8785435E-2,1.0143866E-2,-1.6725512E-2,-1.973179E-3],"split_indices":[3,7,5,0,6,2,4,0,0,0,0,0,0,0,0],"split_type":[0,0,0,0,0,0,0,0,0,0,0,0,0,0,0],"sum_hessian":[6.37865E2,1.2946788E2,5.083971E2,1.2414686E2,5.321031E0,9.37675E1,4.146296E2,6.788193E1,5.6264927E1,4.2812667E0,1.0397645E0,4.349616E0,8.9417885E1,6.0300575E1,3.5432904E2],"tree_param":{"num_deleted":"0","num_feature":"8","num_nodes":"15","size_leaf_vector":"1"}},{"base_weights":[4.0163397E-4,-1.6373965E-1,3.800589E-2,-2.3973535E-1,2.5448814E-1,-1.5702842E-1,7.800706E-2,-5.573732E-3,-2.7213022E-2,4.4861636E-3,3.5009544E-2,1.5784496E-2,-1.5338254E-2,2.3209257E-2,2.6870358E-3],"categories":[],"categories_nodes":[],"categories_segments":[],"categories_sizes":[],"default_left":[0,0,0,0,0,0,0,0,0,0,0,0,0,0,0],"id":42,"left_children":[1,3,5,7,9,11,13,-1,-1,-1,-1,-1,-1,-1,-1],"loss_changes":[3.9463758E0,3.8487508E0,4.0704546E0,3.8984294E0,1.3185164E0,6.386765E0,4.0263276E0,0E0,0E0,0E0,0E0,0E0,0E0,0E0,0E0],"parents":[2147483647,0,0,1,1,2,2,3,3,4,4,5,5,6,6],"right_children":[2,4,6,8,10,12,14,-1,-1,-1,-1,-1,-1,-1,-1],"split_conditions":[4E-1,3.4E0,2E0,-3E0,1.2E1,1.096E2,2E-1,-5.573732E-3,-2.7213022E-2,4.4861636E-3,3.5009544E-2,1.5784496E-2,-1.5338254E-2,2.3209257E-2,2.6870358E-3],"split_indices":[2,6,4,6,6,1,3,0,0,0,0,0,0,0,0],"split_type":[0,0,0,0,0,0,0,0,0,0,0,0,0,0,0],"sum_hessian":[6.373491E2,1.18173134E2,5.19176E2,1.0036306E2,1.7810076E1,8.786172E1,4.313143E2,7.1580605E1,2.8782457E1,1.388022E1,3.929855E0,2.0869246E1,6.699247E1,2.4428404E1,4.068859E2],"tree_param":{"num_deleted":"0","num_feature":"8","num_nodes":"15","size_leaf_vector":"1"}},{"base_weights":[4.4443048E-4,-1.9826384E-2,2.9307193E-1,3.19526E-1,-3.944387E-2,6.4669746E-1,7.617351E-2,-3.7602387E-2,1.9704983E-2,7.4828165E-3,-4.1415156E-3,4.5296945E-2,-3.5824217E-3,1.6058926E-2,-3.0409379E-2],"categories":[],"categories_nodes":[],"categories_segments":[],"categories_sizes":[],"default_left":[0,0,0,0,0,0,0,0,0,0,0,0,0,0,0],"id":43,"left_children":[1,3,5,7,9,11,13,-1,-1,-1,-1,-1,-1,-1,-1],"loss_changes":[3.7890787E0,3.9897203E0,3.1247926E0,2.9141212E0,4.653241E0,2.9698243E0,4.6861463E0,0E0,0E0,0E0,0E0,0E0,0E0,0E0,0E0],"parents":[2147483647,0,0,1,1,2,2,3,3,4,4,5,5,6,6],"right_children":[2,4,6,8,10,12,14,-1,-1,-1,-1,-1,-1,-1,-1],"split_conditions":[1E0,2E-1,1.122E2,9.86E1,2E0,1.82E1,7.4E0,-3.7602387E-2,1.9704983E-2,7.4828165E-3,-4.1415156E-3,4.5296945E-2,-3.5824217E-3,1.6058926E-2,-3.0409379E-2],"split_indices":[2,3,1,1,5,6,6,0,0,0,0,0,0,0,0],"split_type":[0,0,0,0,0,0,0,0,0,0,0,0,0,0,0],"sum_hessian":[6.3679456E2,5.964123E2,4.038227E1,3.1758104E1,5.646542E2,1.459895E1,2.578332E1,1.475242E0,3.0282862E1,1.04918144E2,4.5973605E2,1.0535635E1,4.063316E0,1.9376953E1,6.4063663E0],"tree_param":{"num_deleted":"0","num_feature":"8","num_nodes":"15","size_leaf_vector":"1"}},{"base_weights":[4.5746347E-4,6.492829E-2,-8.655475E-2,4.3268938E-2,4.9690667E-1,-3.948313E-1,-4.319119E-2,-4.5848656E-2,2.6944533E-3,2.969071E-2,-1.8910496E-2,-2.5291488E-2,2.2855844E-2,2.0808147E-2,-4.0452085E-3],"categories":[],"categories_nodes":[],"categories_segments":[],"categories_sizes":[],"default_left":[0,0,0,0,0,0,0,0,0,0,0,0,0,0,0],"id":44,"left_children":[1,3,5,7,9,11,13,-1,-1,-1,-1,-1,-1,-1,-1],"loss_changes":[3.5814366E0,3.409594E0,3.6152499E0,3.621721E0,1.7013555E0,3.3882513E0,4.1797667E0,0E0,0E0,0E0,0E0,0E0,0E0,0E0,0E0],"parents":[2147483647,0,0,1,1,2,2,3,3,4,4,5,5,6,6],"right_children":[2,4,6,8,10,12,14,-1,-1,-1,-1,-1,-1,-1,-1],"split_conditions":[1.164E2,2E0,1.074E2,9.66E1,7E0,1.254E2,-1.4E1,-4.5848656E-2,2.6944533E-3,2.969071E-2,-1.8910496E-2,-2.5291488E-2,2.2855844E-2,2.0808147E-2,-4.0452085E-3],"split_indices":[1,7,0,1,4,1,6,0,0,0,0,0,0,0,0],"split_type":[0,0,0,0,0,0,0,0,0,0,0,0,0,0,0],"sum_hessian":[6.3642896E2,3.6571207E2,2.7071692E2,3.4929843E2,1.6413628E1,3.2384758E1,2.3833215E2,2.887373E0,3.4641107E2,1.5066642E1,1.3469847E0,2.9011217E1,3.3735414E0,1.7321135E1,2.2101102E2],"tree_param":{"num_deleted":"0","num_feature":"8","num_nodes":"15","size_leaf_vector":"1"}},{"base_weights":[4.088455E-4,-8.159169E-2,6.809586E-2,-6.31285E-2,-7.7367365E-1,-6.3686386E-2,1.4366738E-1,-3.7556991E-3,6.596433E-2,-5.8449578E-2,3.2917723E-2,-8.478939E-3,1.4077701E-2,3.467587E-2,5.5770595E-3],"categories":[],"categories_nodes":[],"categories_segments":[],"categories_sizes":[],"default_left":[0,0,0,0,0,0,0,0,0,0,0,0,0,0,0],"id":45,"left_children":[1,3,5,7,9,11,13,-1,-1,-1,-1,-1,-1,-1,-1],"loss_changes":[3.541653E0,3.638142E0,3.4903255E0,4.773714E0,4.963751E0,4.7304735E0,3.852345E0,0E0,0E0,0E0,0E0,0E0,0E0,0E0,0E0],"parents":[2147483647,0,0,1,1,2,2,3,3,4,4,5,5,6,6],"right_children":[2,4,6,8,10,12,14,-1,-1,-1,-1,-1,-1,-1,-1],"split_conditions":[6E-1,1.278E2,1.154E2,1.274E2,1E0,1E0,1.16E2,-3.7556991E-3,6.596433E-2,-5.8449578E-2,3.2917723E-2,-8.478939E-3,1.4077701E-2,3.467587E-2,5.5770595E-3],"split_indices":[2,1,0,1,7,7,0,0,0,0,0,0,0,0,0],"split_type":[0,0,0,0,0,0,0,0,0,0,0,0,0,0,0],"sum_hessian":[6.36092E2,2.875407E2,3.4855127E2,2.8113196E2,6.40875E0,1.2708925E2,2.2146202E2,2.7965305E2,1.4789145E0,5.166261E0,1.2424887E0,9.764754E1,2.944171E1,1.1088669E1,2.1037335E2],"tree_param":{"num_deleted":"0","num_feature":"8","num_nodes":"15","size_leaf_vector":"1"}},{"base_weights":[5.236102E-4,-1.5073985E-1,3.51948E-2,-1.8453446E-1,6.800776E-1,-1.5095235E-1,7.340729E-2,7.5235153E-3,-1.2765782E-2,4.7292784E-2,6.03852E-3,-4.8062038E-2,-3.2311573E-3,-4.3828744E-2,4.0971716E-3],"categories":[],"categories_nodes":[],"categories_segments":[],"categories_sizes":[],"default_left":[0,0,0,0,0,0,0,0,0,0,0,0,0,0,0],"id":46,"left_children":[1,3,5,7,9,11,13,-1,-1,-1,-1,-1,-1,-1,-1],"loss_changes":[3.3448126E0,3.4646237E0,3.7016578E0,2.7668421E0,6.084914E-1,6.14222E0,3.5680554E0,0E0,0E0,0E0,0E0,0E0,0E0,0E0,0E0],"parents":[2147483647,0,0,1,1,2,2,3,3,4,4,5,5,6,6],"right_children":[2,4,6,8,10,12,14,-1,-1,-1,-1,-1,-1,-1,-1],"split_conditions":[4E-1,1.2E1,2E0,1.042E2,1.054E2,-9.8E0,9.66E1,7.5235153E-3,-1.2765782E-2,4.7292784E-2,6.03852E-3,-4.8062038E-2,-3.2311573E-3,-4.3828744E-2,4.0971716E-3],"split_indices":[2,6,4,0,1,6,1,0,0,0,0,0,0,0,0],"split_type":[0,0,0,0,0,0,0,0,0,0,0,0,0,0,0],"sum_hessian":[6.357656E2,1.1792681E2,5.178388E2,1.1406496E2,3.8618562E0,8.769479E1,4.3014404E2,1.9699951E1,9.4365005E1,2.1493726E0,1.7124835E0,7.467744E0,8.022705E1,2.9250684E0,4.2721896E2],"tree_param":{"num_deleted":"0","num_feature":"8","num_nodes":"15","size_leaf_vector":"1"}},{"base_weights":[4.323887E-4,-1.8384857E-2,2.736209E-1,3.037373E-1,-3.6837164E-2,6.168819E-1,6.6154815E-2,2.9737746E-2,6.2892614E-5,7.0200525E-3,-3.86957E-3,4.3623123E-2,-3.856112E-3,1.5117294E-2,-2.9350776E-2],"categories":[],"categories_nodes":[],"categories_segments":[],"categories_sizes":[],"default_left":[0,0,0,0,0,0,0,0,0,0,0,0,0,0,0],"id":47,"left_children":[1,3,5,7,9,11,13,-1,-1,-1,-1,-1,-1,-1,-1],"loss_changes":[3.2765005E0,3.5556457E0,2.8841975E0,2.85279E0,4.071246E0,2.7904325E0,4.2997055E0,0E0,0E0,0E0,0E0,0E0,0E0,0E0,0E0],"parents":[2147483647,0,0,1,1,2,2,3,3,4,4,5,5,6,6],"right_children":[2,4,6,8,10,12,14,-1,-1,-1,-1,-1,-1,-1,-1],"split_conditions":[1E0,2E-1,1.122E2,7.8E0,2E0,1.82E1,7.4E0,2.9737746E-2,6.2892614E-5,7.0200525E-3,-3.86957E-3,4.3623123E-2,-3.856112E-3,1.5117294E-2,-2.9350776E-2],"split_indices":[2,3,1,6,5,6,6,0,0,0,0,0,0,0,0],"split_type":[0,0,0,0,0,0,0,0,0,0,0,0,0,0,0],"sum_hessian":[6.353916E2,5.953187E2,4.0072895E1,3.1416676E1,5.6390204E2,1.4352573E1,2.572032E1,1.5519239E1,1.5897436E1,1.0454343E2,4.593586E2,1.0301648E1,4.0509253E0,1.9284145E1,6.4361744E0],"tree_param":{"num_deleted":"0","num_feature":"8","num_nodes":"15","size_leaf_vector":"1"}},{"base_weights":[5.1690504E-4,4.3562043E-1,-1.1287208E-2,-6.054419E-1,8.411037E-1,-1.6501068E-1,2.4268353E-2,-4.0562432E-2,-1.0728981E-2,4.757559E-2,3.5654313E-3,-1.164453E-2,1.2515398E-2,-8.296779E-3,3.1682313E-3],"categories":[],"categories_nodes":[],"categories_segments":[],"categories_sizes":[],"default_left":[0,0,0,0,0,0,0,0,0,0,0,0,0,0,0],"id":48,"left_children":[1,3,5,7,9,11,13,-1,-1,-1,-1,-1,-1,-1,-1],"loss_changes":[3.2717977E0,7.6119633E0,3.3941076E0,2.5209808E-1,9.9691296E-1,3.3465881E0,3.7629108E0,0E0,0E0,0E0,0E0,0E0,0E0,0E0,0E0],"parents":[2147483647,0,0,1,1,2,2,3,3,4,4,5,5,6,6],"right_children":[2,4,6,8,10,12,14,-1,-1,-1,-1,-1,-1,-1,-1],"split_conditions":[1.01E2,9.72E1,4E-1,1.92E1,2.3E1,1.164E2,2E0,-4.0562432E-2,-1.0728981E-2,4.757559E-2,3.5654313E-3,-1.164453E-2,1.2515398E-2,-8.296779E-3,3.1682313E-3],"split_indices":[1,1,2,6,6,0,4,0,0,0,0,0,0,0,0],"split_type":[0,0,0,0,0,0,0,0,0,0,0,0,0,0,0],"sum_hessian":[6.3507355E2,1.5825784E1,6.1924774E2,4.297916E0,1.1527868E1,1.1564011E2,5.0360767E2,2.110897E0,2.1870186E0,9.875423E0,1.6524444E0,9.9772484E1,1.5867625E1,8.531323E1,4.1829443E2],"tree_param":{"num_deleted":"0","num_feature":"8","num_nodes":"15","size_leaf_vector":"1"}},{"base_weights":[4.9319543E-4,6.048266E-2,-8.0375105E-2,4.015259E-2,4.6999565E-1,-6.696419E-2,-1.0271593E0,-4.072799E-2,2.4927E-3,1.4672819E-2,5.6387823E-2,-1.0659448E-2,1.4363279E-3,-6.266218E-2,-1.5619214E-2],"categories":[],"categories_nodes":[],"categories_segments":[],"categories_sizes":[],"default_left":[0,0,0,0,0,0,0,0,0,0,0,0,0,0,0],"id":49,"left_children":[1,3,5,7,9,11,13,-1,-1,-1,-1,-1,-1,-1,-1],"loss_changes":[3.0884764E0,3.0240402E0,3.3739147E0,2.9369993E0,1.6655462E0,3.7619548E0,2.0920324E-1,0E0,0E0,0E0,0E0,0E0,0E0,0E0,0E0],"parents":[2147483647,0,0,1,1,2,2,3,3,4,4,5,5,6,6],"right_children":[2,4,6,8,10,12,14,-1,-1,-1,-1,-1,-1,-1,-1],"split_conditions":[1.164E2,2E0,1.1E1,9.66E1,8E-1,1.132E2,1.178E2,-4.072799E-2,2.4927E-3,1.4672819E-2,5.6387823E-2,-1.0659448E-2,1.4363279E-3,-6.266218E-2,-1.5619214E-2],"split_indices":[1,7,6,1,3,0,1,0,0,0,0,0,0,0,0],"split_type":[0,0,0,0,0,0,0,0,0,0,0,0,0,0,0],"sum_hessian":[6.346336E2,3.6449628E2,2.7013736E2,3.4830298E2,1.6193277E1,2.6742017E2,2.7171996E0,2.9779384E0,3.4532504E2,1.3906891E1,2.2863863E0,1.0529352E2,1.6212665E2,1.4919535E0,1.2252461E0],"tree_param":{"num_deleted":"0","num_feature":"8","num_nodes":"15","size_leaf_vector":"1"}},{"base_weights":[3.8598053E-4,4.2252824E-1,-1.0976788E-2,-5.571342E-1,8.137633E-1,2.9945698E-1,-2.7183726E-2,-3.8154334E-2,-9.146897E-3,4.6134163E-2,3.3380904E-3,-1.8719306E-2,2.4329478E-2,-3.3651993E-3,5.0537083E-3],"categories":[],"categories_nodes":[],"categories_segments":[],"categories_sizes":[],"default_left":[0,0,0,0,0,0,0,0,0,0,0,0,0,0,0],"id":50,"left_children":[1,3,5,7,9,11,13,-1,-1,-1,-1,-1,-1,-1,-1],"loss_changes":[3.0518453E0,6.8451767E0,3.125432E0,2.7293134E-1,9.41103E-1,4.0692253E0,3.0415993E0,0E0,0E0,0E0,0E0,0E0,0E0,0E0,0E0],"parents":[2147483647,0,0,1,1,2,2,3,3,4,4,5,5,6,6],"right_children":[2,4,6,8,10,12,14,-1,-1,-1,-1,-1,-1,-1,-1],"split_conditions":[1.01E2,9.72E1,2E-1,1.92E1,2.3E1,1.048E2,1E0,-3.8154334E-2,-9.146897E-3,4.6134163E-2,3.3380904E-3,-1.8719306E-2,2.4329478E-2,-3.3651993E-3,5.0537083E-3],"split_indices":[1,1,3,6,6,1,7,0,0,0,0,0,0,0,0],"split_type":[0,0,0,0,0,0,0,0,0,0,0,0,0,0,0],"sum_hessian":[6.3427106E2,1.5676657E1,6.1859436E2,4.352885E0,1.1323771E1,2.982565E1,5.8876874E2,2.1372843E0,2.2156003E0,9.677515E0,1.6462568E0,6.2650976E0,2.356055E1,4.48842E2,1.399267E2],"tree_param":{"num_deleted":"0","num_feature":"8","num_nodes":"15","size_leaf_vector":"1"}},{"base_weights":[3.9624143E-4,-1.7372653E-2,2.5962013E-1,5.9153706E-2,-8.646989E-2,5.90318E-1,6.2479977E-2,2.612255E-2,1.7824753E-3,-6.593015E-3,1.2574269E-2,4.2179614E-2,-4.2450465E-3,1.4403452E-2,-2.7813105E-2],"categories":[],"categories_nodes":[],"categories_segments":[],"categories_sizes":[],"default_left":[0,0,0,0,0,0,0,0,0,0,0,0,0,0,0],"id":51,"left_children":[1,3,5,7,9,11,13,-1,-1,-1,-1,-1,-1,-1,-1],"loss_changes":[2.9290068E0,3.1519833E0,2.6225097E0,3.0628116E0,4.836831E0,2.6568475E0,3.8836024E0,0E0,0E0,0E0,0E0,0E0,0E0,0E0,0E0],"parents":[2147483647,0,0,1,1,2,2,3,3,4,4,5,5,6,6],"right_children":[2,4,6,8,10,12,14,-1,-1,-1,-1,-1,-1,-1,-1],"split_conditions":[1E0,6E-1,1.122E2,1.01E2,1.252E2,1.82E1,7.4E0,2.612255E-2,1.7824753E-3,-6.593015E-3,1.2574269E-2,4.2179614E-2,-4.2450465E-3,1.4403452E-2,-2.7813105E-2],"split_indices":[2,3,1,1,1,6,6,0,0,0,0,0,0,0,0],"split_type":[0,0,0,0,0,0,0,0,0,0,0,0,0,0,0],"sum_hessian":[6.3391516E2,5.941231E2,3.9792088E1,2.8197498E2,3.1214813E2,1.4116905E1,2.567518E1,1.2589629E1,2.6938535E2,2.7572556E2,3.6422573E1,1.0084758E1,4.0321484E0,1.9206905E1,6.4682765E0],"tree_param":{"num_deleted":"0","num_feature":"8","num_nodes":"15","size_leaf_vector":"1"}},{"base_weights":[4.798342E-4,-5.9867285E-2,7.077402E-2,-3.0169759E-2,-4.999577E-1,7.0726347E-1,4.2371016E-2,3.864698E-3,-6.242586E-3,-4.9689837E-2,-9.290204E-3,1.0401024E-2,4.9224943E-2,2.7752526E-3,-5.1427025E-2],"categories":[],"categories_nodes":[],"categories_segments":[],"categories_sizes":[],"default_left":[0,0,0,0,0,0,0,0,0,0,0,0,0,0,0],"id":52,"left_children":[1,3,5,7,9,11,13,-1,-1,-1,-1,-1,-1,-1,-1],"loss_changes":[2.6961975E0,4.4546576E0,5.2776875E0,3.2802663E0,3.1594086E0,1.5222678E0,4.025159E0,0E0,0E0,0E0,0E0,0E0,0E0,0E0,0E0],"parents":[2147483647,0,0,1,1,2,2,3,3,4,4,5,5,6,6],"right_children":[2,4,6,8,10,12,14,-1,-1,-1,-1,-1,-1,-1,-1],"split_conditions":[1.156E2,1.15E2,1.16E2,6E-1,1.152E2,6E-1,1.322E2,3.864698E-3,-6.242586E-3,-4.9689837E-2,-9.290204E-3,1.0401024E-2,4.9224943E-2,2.7752526E-3,-5.1427025E-2],"split_indices":[0,0,0,3,0,3,1,0,0,0,0,0,0,0,0],"split_type":[0,0,0,0,0,0,0,0,0,0,0,0,0,0,0],"sum_hessian":[6.335893E2,3.409953E2,2.9259402E2,3.2044037E2,2.0554928E1,1.147808E1,2.8111594E2,1.5017542E2,1.7026497E2,7.1507607E0,1.3404167E1,4.723101E0,6.7549787E0,2.7864667E2,2.46925E0],"tree_param":{"num_deleted":"0","num_feature":"8","num_nodes":"15","size_leaf_vector":"1"}},{"base_weights":[3.8254602E-4,-1.6439797E-2,2.4697557E-1,1.2961116E-1,-4.9785186E-2,3.1617957E-1,-6.099111E-1,3.3353944E-3,3.0857688E-2,1.5832154E-2,-3.6706277E-3,-9.666407E-3,2.1209603E-2,-1.5344969E-3,-4.525995E-2],"categories":[],"categories_nodes":[],"categories_segments":[],"categories_sizes":[],"default_left":[0,0,0,0,0,0,0,0,0,0,0,0,0,0,0],"id":53,"left_children":[1,3,5,7,9,11,13,-1,-1,-1,-1,-1,-1,-1,-1],"loss_changes":[2.6348963E0,2.9024065E0,2.5982847E0,3.3570275E0,4.220781E0,2.1837995E0,5.490655E-1,0E0,0E0,0E0,0E0,0E0,0E0,0E0,0E0],"parents":[2147483647,0,0,1,1,2,2,3,3,4,4,5,5,6,6],"right_children":[2,4,6,8,10,12,14,-1,-1,-1,-1,-1,-1,-1,-1],"split_conditions":[1E0,2E0,1E0,1.232E2,1.04E2,2E0,1.232E2,3.3353944E-3,3.0857688E-2,1.5832154E-2,-3.6706277E-3,-9.666407E-3,2.1209603E-2,-1.5344969E-3,-4.525995E-2],"split_indices":[2,5,3,1,1,4,0,0,0,0,0,0,0,0,0],"split_type":[0,0,0,0,0,0,0,0,0,0,0,0,0,0,0],"sum_hessian":[6.332003E2,5.9363635E2,3.956398E1,1.0980584E2,4.838305E2,3.719134E1,2.3726387E0,9.826447E1,1.1541366E1,2.8556509E1,4.55274E2,6.3671017E0,3.082424E1,1.1739037E0,1.1987351E0],"tree_param":{"num_deleted":"0","num_feature":"8","num_nodes":"15","size_leaf_vector":"1"}},{"base_weights":[3.8906722E-4,5.5566557E-2,-7.384748E-2,3.636828E-2,4.4532922E-1,-3.2023095E-2,-3.700885E-1,1.0930202E-3,2.9865388E-2,1.3556607E-2,5.500282E-2,-5.1518804E-3,9.749297E-3,-5.1576722E-2,-2.919869E-3],"categories":[],"categories_nodes":[],"categories_segments":[],"categories_sizes":[],"default_left":[0,0,0,0,0,0,0,0,0,0,0,0,0,0,0],"id":54,"left_children":[1,3,5,7,9,11,13,-1,-1,-1,-1,-1,-1,-1,-1],"loss_changes":[2.6008081E0,2.7091565E0,3.342338E0,2.820674E0,1.6416295E0,3.861999E0,6.8251796E0,0E0,0E0,0E0,0E0,0E0,0E0,0E0,0E0],"parents":[2147483647,0,0,1,1,2,2,3,3,4,4,5,5,6,6],"right_children":[2,4,6,8,10,12,14,-1,-1,-1,-1,-1,-1,-1,-1],"split_conditions":[1.164E2,2E0,1E0,1.282E2,8E-1,1.234E2,0E0,1.0930202E-3,2.9865388E-2,1.3556607E-2,5.500282E-2,-5.1518804E-3,9.749297E-3,-5.1576722E-2,-2.919869E-3],"split_indices":[1,7,3,0,3,1,7,0,0,0,0,0,0,0,0],"split_type":[0,0,0,0,0,0,0,0,0,0,0,0,0,0,0],"sum_hessian":[6.3293225E2,3.6321698E2,2.6971527E2,3.472081E2,1.6008886E1,2.3731795E2,3.2397316E1,3.3946722E2,7.740851E0,1.3761586E1,2.2473006E0,1.8118465E2,5.6133305E1,9.636991E0,2.2760326E1],"tree_param":{"num_deleted":"0","num_feature":"8","num_nodes":"15","size_leaf_vector":"1"}},{"base_weights":[4.509326E-4,-6.9061905E-2,5.7970393E-2,-5.1384076E-2,-7.3367226E-1,-5.8207344E-2,1.249419E-1,-3.1559353E-3,6.4553596E-2,-5.5671092E-2,3.1767122E-2,-7.638672E-3,1.2634858E-2,3.263391E-2,4.7283242E-3],"categories":[],"categories_nodes":[],"categories_segments":[],"categories_sizes":[],"default_left":[0,0,0,0,0,0,0,0,0,0,0,0,0,0,0],"id":55,"left_children":[1,3,5,7,9,11,13,-1,-1,-1,-1,-1,-1,-1,-1],"loss_changes":[2.5375423E0,3.338551E0,2.7093136E0,4.508112E0,4.539089E0,3.7922506E0,3.4746842E0,0E0,0E0,0E0,0E0,0E0,0E0,0E0,0E0],"parents":[2147483647,0,0,1,1,2,2,3,3,4,4,5,5,6,6],"right_children":[2,4,6,8,10,12,14,-1,-1,-1,-1,-1,-1,-1,-1],"split_conditions":[6E-1,1.278E2,1.154E2,1.274E2,1E0,1E0,1.16E2,-3.1559353E-3,6.4553596E-2,-5.5671092E-2,3.1767122E-2,-7.638672E-3,1.2634858E-2,3.263391E-2,4.7283242E-3],"split_indices":[2,1,0,1,7,7,0,0,0,0,0,0,0,0,0],"split_type":[0,0,0,0,0,0,0,0,0,0,0,0,0,0,0],"sum_hessian":[6.3264746E2,2.863681E2,3.4627936E2,2.799978E2,6.3702874E0,1.2667055E2,2.1960881E2,2.7851624E2,1.4815736E0,5.1331162E0,1.2371713E0,9.751773E1,2.9152813E1,1.0837266E1,2.0877155E2],"tree_param":{"num_deleted":"0","num_feature":"8","num_nodes":"15","size_leaf_vector":"1"}},{"base_weights":[5.58903E-4,1.2387054E-1,-3.0538525E-2,8.9811176E-2,8.0132663E-1,3.4683463E-1,-4.527142E-2,6.440647E-3,-1.6414447E-2,4.515796E-2,9.390482E-3,4.8543293E-2,3.9531365E-3,5.9343698E-3,-4.1086497E-3],"categories":[],"categories_nodes":[],"categories_segments":[],"categories_sizes":[],"default_left":[0,0,0,0,0,0,0,0,0,0,0,0,0,0,0],"id":56,"left_children":[1,3,5,7,9,11,13,-1,-1,-1,-1,-1,-1,-1,-1],"loss_changes":[2.4323678E0,2.8756218E0,2.8321602E0,2.044055E0,2.0453715E-1,3.1230683E0,2.9648972E0,0E0,0E0,0E0,0E0,0E0,0E0,0E0,0E0],"parents":[2147483647,0,0,1,1,2,2,3,3,4,4,5,5,6,6],"right_children":[2,4,6,8,10,12,14,-1,-1,-1,-1,-1,-1,-1,-1],"split_conditions":[4E-1,2E0,1.048E2,1.186E2,1.32E1,1.068E2,2E0,6.440647E-3,-1.6414447E-2,4.515796E-2,9.390482E-3,4.8543293E-2,3.9531365E-3,5.9343698E-3,-4.1086497E-3],"split_indices":[3,7,1,1,6,0,5,0,0,0,0,0,0,0,0],"split_type":[0,0,0,0,0,0,0,0,0,0,0,0,0,0,0],"sum_hessian":[6.323223E2,1.2674661E2,5.055757E2,1.2175777E2,4.9888463E0,1.8149403E1,4.8742633E2,1.1200178E2,9.755989E0,3.8737705E0,1.115076E0,4.661125E0,1.3488277E1,8.914158E1,3.9828473E2],"tree_param":{"num_deleted":"0","num_feature":"8","num_nodes":"15","size_leaf_vector":"1"}},{"base_weights":[6.95296E-4,-1.2766957E-1,3.0114388E-2,-1.5810895E-1,6.3725024E-1,-1.3505453E-1,6.4091615E-2,8.269047E-3,-1.1321659E-2,4.496303E-2,5.2356864E-3,-4.505183E-2,-2.7215194E-3,1.592749E-3,1.5586509E-2],"categories":[],"categories_nodes":[],"categories_segments":[],"categories_sizes":[],"default_left":[0,0,0,0,0,0,0,0,0,0,0,0,0,0,0],"id":57,"left_children":[1,3,5,7,9,11,13,-1,-1,-1,-1,-1,-1,-1,-1],"loss_changes":[2.3941233E0,2.8530383E0,2.9030292E0,2.567791E0,5.647936E-1,5.4050612E0,3.410263E0,0E0,0E0,0E0,0E0,0E0,0E0,0E0,0E0],"parents":[2147483647,0,0,1,1,2,2,3,3,4,4,5,5,6,6],"right_children":[2,4,6,8,10,12,14,-1,-1,-1,-1,-1,-1,-1,-1],"split_conditions":[4E-1,1.2E1,2E0,1.042E2,1.054E2,-9.8E0,1.234E2,8.269047E-3,-1.1321659E-2,4.496303E-2,5.2356864E-3,-4.505183E-2,-2.7215194E-3,1.592749E-3,1.5586509E-2],"split_indices":[2,6,4,0,1,6,1,0,0,0,0,0,0,0,0],"split_type":[0,0,0,0,0,0,0,0,0,0,0,0,0,0,0],"sum_hessian":[6.319553E2,1.1720648E2,5.1474884E2,1.1348378E2,3.7226985E0,8.7316086E1,4.2743277E2,1.9541494E1,9.394228E1,2.0335479E0,1.6891507E0,7.3462396E0,7.996985E1,3.7919876E2,4.823401E1],"tree_param":{"num_deleted":"0","num_feature":"8","num_nodes":"15","size_leaf_vector":"1"}},{"base_weights":[6.874898E-4,5.2289743E-2,-6.8664685E-2,3.131793E-2,3.6599118E-1,-4.241228E-2,-5.452922E-1,9.3458703E-4,3.2698672E-2,4.0586904E-2,8.423834E-3,-9.2998445E-3,2.8781549E-3,-4.4021662E-2,-2.1989597E-3],"categories":[],"categories_nodes":[],"categories_segments":[],"categories_sizes":[],"default_left":[0,0,0,0,0,0,0,0,0,0,0,0,0,0,0],"id":58,"left_children":[1,3,5,7,9,11,13,-1,-1,-1,-1,-1,-1,-1,-1],"loss_changes":[2.2677064E0,2.3787684E0,3.359546E0,2.6737103E0,1.8594267E0,3.7044072E0,2.3182282E0,0E0,0E0,0E0,0E0,0E0,0E0,0E0,0E0],"parents":[2147483647,0,0,1,1,2,2,3,3,4,4,5,5,6,6],"right_children":[2,4,6,8,10,12,14,-1,-1,-1,-1,-1,-1,-1,-1],"split_conditions":[1.164E2,1E0,1.264E2,1E0,7.4E0,1.132E2,1.212E2,9.3458703E-4,3.2698672E-2,4.0586904E-2,8.423834E-3,-9.2998445E-3,2.8781549E-3,-4.4021662E-2,-2.1989597E-3],"split_indices":[1,2,0,3,6,0,1,0,0,0,0,0,0,0,0],"split_type":[0,0,0,0,0,0,0,0,0,0,0,0,0,0,0],"sum_hessian":[6.316594E2,3.623184E2,2.69341E2,3.4064514E2,2.167324E1,2.563124E2,1.3028572E1,3.348844E2,5.760756E0,5.6999464E0,1.5973295E1,1.0485676E2,1.5145567E2,7.355183E0,5.6733894E0],"tree_param":{"num_deleted":"0","num_feature":"8","num_nodes":"15","size_leaf_vector":"1"}},{"base_weights":[7.0520997E-4,4.873175E-3,-8.4531444E-1,-1.8801756E-2,1.9460025E-1,-5.654465E-2,-8.045489E-3,1.9030781E-2,-1.815047E-3,1.23386355E-2,-4.0471103E-2],"categories":[],"categories_nodes":[],"categories_segments":[],"categories_sizes":[],"default_left":[0,0,0,0,0,0,0,0,0,0,0],"id":59,"left_children":[1,3,5,7,9,-1,-1,-1,-1,-1,-1],"loss_changes":[2.2337787E0,2.8344216E0,4.250219E-1,3.9363549E0,3.86671E0,0E0,0E0,0E0,0E0,0E0,0E0],"parents":[2147483647,0,0,1,1,2,2,3,3,4,4],"right_children":[2,4,6,8,10,-1,-1,-1,-1,-1,-1],"split_conditions":[1.34E2,1.14E1,1.354E2,2E-1,6E0,-5.654465E-2,-8.045489E-3,1.9030781E-2,-1.815047E-3,1.23386355E-2,-4.0471103E-2],"split_indices":[0,6,0,3,5,0,0,0,0,0,0],"split_type":[0,0,0,0,0,0,0,0,0,0,0],"sum_hessian":[6.3131573E2,6.2921014E2,2.1056006E0,5.602062E2,6.9003944E1,1.025373E0,1.0802276E0,2.26425E1,5.3756366E2,6.631235E1,2.6916008E0],"tree_param":{"num_deleted":"0","num_feature":"8","num_nodes":"11","size_leaf_vector":"1"}},{"base_weights":[5.592413E-4,3.576664E-1,-8.77396E-3,-5.90958E-1,7.53084E-1,-1.38564E-1,2.1224316E-2,-4.3881736E-3,-3.5476707E-2,4.312813E-2,1.6434472E-3,-1.0049055E-2,1.2151725E-2,-7.400304E-3,2.8030851E-3],"categories":[],"categories_nodes":[],"categories_segments":[],"categories_sizes":[],"default_left":[0,0,0,0,0,0,0,0,0,0,0,0,0,0,0],"id":60,"left_children":[1,3,5,7,9,11,13,-1,-1,-1,-1,-1,-1,-1,-1],"loss_changes":[2.1093874E0,6.491537E0,2.404544E0,2.541237E-1,9.0338564E-1,2.8102052E0,2.967229E0,0E0,0E0,0E0,0E0,0E0,0E0,0E0,0E0],"parents":[2147483647,0,0,1,1,2,2,3,3,4,4,5,5,6,6],"right_children":[2,4,6,8,10,12,14,-1,-1,-1,-1,-1,-1,-1,-1],"split_conditions":[1.01E2,9.72E1,4E-1,1.092E2,2.3E1,1.164E2,2E0,-4.3881736E-3,-3.5476707E-2,4.312813E-2,1.6434472E-3,-1.0049055E-2,1.2151725E-2,-7.400304E-3,2.8030851E-3],"split_indices":[1,1,2,0,6,0,4,0,0,0,0,0,0,0,0],"split_type":[0,0,0,0,0,0,0,0,0,0,0,0,0,0,0],"sum_hessian":[6.309469E2,1.5119571E1,6.1582733E2,4.3026958E0,1.0816875E1,1.1493451E2,5.008928E2,1.1524127E0,3.150283E0,9.218017E0,1.5988587E0,9.918447E1,1.5750037E1,8.4955246E1,4.1593756E2],"tree_param":{"num_deleted":"0","num_feature":"8","num_nodes":"15","size_leaf_vector":"1"}},{"base_weights":[5.432462E-4,4.6035224E-3,-8.180453E-1,-3.587694E-3,5.042035E-1,-5.4677755E-2,-7.7870437E-3,4.710462E-4,-1.4239922E-2,4.6100706E-2,1.1021426E-2],"categories":[],"categories_nodes":[],"categories_segments":[],"categories_sizes":[],"default_left":[0,0,0,0,0,0,0,0,0,0,0],"id":61,"left_children":[1,3,5,7,9,-1,-1,-1,-1,-1,-1],"loss_changes":[2.10277E0,2.5775414E0,3.9946818E-1,2.2716389E0,1.0013783E0,0E0,0E0,0E0,0E0,0E0,0E0],"parents":[2147483647,0,0,1,1,2,2,3,3,4,4],"right_children":[2,4,6,8,10,-1,-1,-1,-1,-1,-1],"split_conditions":[1.34E2,1.292E2,1.354E2,1.254E2,1.302E2,-5.4677755E-2,-7.7870437E-3,4.710462E-4,-1.4239922E-2,4.6100706E-2,1.1021426E-2],"split_indices":[0,0,0,0,0,0,0,0,0,0,0],"split_type":[0,0,0,0,0,0,0,0,0,0,0],"sum_hessian":[6.3052716E2,6.284046E2,2.1225696E0,6.1924457E2,9.160036E0,1.0391574E0,1.0834122E0,5.9278906E2,2.6455519E1,2.7953112E0,6.3647246E0],"tree_param":{"num_deleted":"0","num_feature":"8","num_nodes":"11","size_leaf_vector":"1"}},{"base_weights":[4.8894377E-4,-1.43437395E-2,2.19884E-1,1.16338745E-1,-4.4098288E-2,2.8673714E-1,-5.906359E-1,2.8664037E-3,2.8801957E-2,1.3925562E-2,-3.2284528E-3,5.349909E-2,1.07142255E-2,-1.4730919E-3,-4.3745518E-2],"categories":[],"categories_nodes":[],"categories_segments":[],"categories_sizes":[],"default_left":[0,0,0,0,0,0,0,0,0,0,0,0,0,0,0],"id":62,"left_children":[1,3,5,7,9,11,13,-1,-1,-1,-1,-1,-1,-1,-1],"loss_changes":[2.0583227E0,2.3089516E0,2.33972E0,2.9552295E0,3.2099187E0,1.908721E0,5.1323664E-1,0E0,0E0,0E0,0E0,0E0,0E0,0E0,0E0],"parents":[2147483647,0,0,1,1,2,2,3,3,4,4,5,5,6,6],"right_children":[2,4,6,8,10,12,14,-1,-1,-1,-1,-1,-1,-1,-1],"split_conditions":[1E0,2E0,1E0,1.232E2,1.04E2,1.14E2,1.232E2,2.8664037E-3,2.8801957E-2,1.3925562E-2,-3.2284528E-3,5.349909E-2,1.07142255E-2,-1.4730919E-3,-4.3745518E-2],"split_indices":[2,5,3,1,1,0,0,0,0,0,0,0,0,0,0],"split_type":[0,0,0,0,0,0,0,0,0,0,0,0,0,0,0],"sum_hessian":[6.3054004E2,5.9148596E2,3.905408E1,1.0915693E2,4.82329E2,3.667527E1,2.3788118E0,9.773555E1,1.1421378E1,2.8027267E1,4.5430176E2,1.9395766E0,3.473569E1,1.1709425E0,1.2078693E0],"tree_param":{"num_deleted":"0","num_feature":"8","num_nodes":"15","size_leaf_vector":"1"}},{"base_weights":[5.6782726E-4,3.3511654E-2,-9.585116E-2,1.2974878E-2,3.5338986E-1,-5.6965566E-1,2.9188076E-2,8.716977E-3,-7.814662E-4,2.8314209E-2,5.1217107E-3,-7.920462E-3,-3.8157836E-2,-1.811966E-2,6.6433437E-3],"categories":[],"categories_nodes":[],"categories_segments":[],"categories_sizes":[],"default_left":[0,0,0,0,0,0,0,0,0,0,0,0,0,0,0],"id":63,"left_children":[1,3,5,7,9,11,13,-1,-1,-1,-1,-1,-1,-1,-1],"loss_changes":[2.0085065E0,3.091372E0,9.556682E0,2.05157E0,1.4589741E0,2.5586023E0,5.2592993E0,0E0,0E0,0E0,0E0,0E0,0E0,0E0,0E0],"parents":[2147483647,0,0,1,1,2,2,3,3,4,4,5,5,6,6],"right_children":[2,4,6,8,10,12,14,-1,-1,-1,-1,-1,-1,-1,-1],"split_conditions":[8E-1,1E0,0E0,1.078E2,1.132E2,-7.6E0,4E-1,8.716977E-3,-7.814662E-4,2.8314209E-2,5.1217107E-3,-7.920462E-3,-3.8157836E-2,-1.811966E-2,6.6433437E-3],"split_indices":[3,2,7,0,1,6,2,0,0,0,0,0,0,0,0],"split_type":[0,0,0,0,0,0,0,0,0,0,0,0,0,0,0],"sum_hessian":[6.303084E2,4.7027893E2,1.6002948E2,4.428854E2,2.7393507E1,3.2671875E1,1.27357605E2,6.591948E1,3.7696594E2,1.4140837E1,1.325267E1,1.1035931E1,2.1635942E1,2.6138933E1,1.0121867E2],"tree_param":{"num_deleted":"0","num_feature":"8","num_nodes":"15","size_leaf_vector":"1"}},{"base_weights":[5.1829655E-4,4.4806483E-3,-7.9514456E-1,-3.3140394E-3,4.8286247E-1,-5.283249E-2,-7.777549E-3,4.4637043E-5,-4.223692E-2,4.451437E-2,1.0446006E-2],"categories":[],"categories_nodes":[],"categories_segments":[],"categories_sizes":[],"default_left":[0,0,0,0,0,0,0,0,0,0,0],"id":64,"left_children":[1,3,5,7,9,-1,-1,-1,-1,-1,-1],"loss_changes":[1.9928201E0,2.3464344E0,3.5952413E-1,2.194473E0,9.400153E-1,0E0,0E0,0E0,0E0,0E0,0E0],"parents":[2147483647,0,0,1,1,2,2,3,3,4,4],"right_children":[2,4,6,8,10,-1,-1,-1,-1,-1,-1],"split_conditions":[1.34E2,1.292E2,1.354E2,5E0,1.302E2,-5.283249E-2,-7.777549E-3,4.4637043E-5,-4.223692E-2,4.451437E-2,1.0446006E-2],"split_indices":[0,0,0,7,0,0,0,0,0,0,0],"split_type":[0,0,0,0,0,0,0,0,0,0,0],"sum_hessian":[6.299702E2,6.27838E2,2.1322258E0,6.1874927E2,9.088743E0,1.0506079E0,1.081618E0,6.1666516E2,2.0841362E0,2.74954E0,6.339203E0],"tree_param":{"num_deleted":"0","num_feature":"8","num_nodes":"11","size_leaf_vector":"1"}},{"base_weights":[4.1921338E-4,-6.7606366E-1,4.9568233E-3,-6.622047E-3,-4.8271723E-2,6.406028E-1,-8.115847E-3,8.945412E-3,4.5282487E-2,1.2855529E-2,-1.082968E-3],"categories":[],"categories_nodes":[],"categories_segments":[],"categories_sizes":[],"default_left":[0,0,0,0,0,0,0,0,0,0,0],"id":65,"left_children":[1,3,5,-1,-1,7,9,-1,-1,-1,-1],"loss_changes":[1.9401157E0,5.3460264E-1,5.221426E0,0E0,0E0,1.3874717E0,2.2185643E0,0E0,0E0,0E0,0E0],"parents":[2147483647,0,0,1,1,2,2,5,5,6,6],"right_children":[2,4,6,-1,-1,8,10,-1,-1,-1,-1],"split_conditions":[9.66E1,6E-1,1.01E2,-6.622047E-3,-4.8271723E-2,1.124E2,2E-1,8.945412E-3,4.5282487E-2,1.2855529E-2,-1.082968E-3],"split_indices":[1,2,1,0,0,0,3,0,0,0,0],"split_type":[0,0,0,0,0,0,0,0,0,0,0],"sum_hessian":[6.2994696E2,3.2112505E0,6.2673566E2,1.621926E0,1.5893246E0,1.1662342E1,6.1507336E2,4.8642097E0,6.798132E0,2.900846E1,5.860649E2],"tree_param":{"num_deleted":"0","num_feature":"8","num_nodes":"11","size_leaf_vector":"1"}},{"base_weights":[4.245814E-4,4.286233E-3,-7.712939E-1,-1.6492475E-2,1.7258763E-1,-5.1235598E-2,-7.5362637E-3,1.7685298E-2,-1.6231185E-3,1.1188272E-2,-3.9605573E-2],"categories":[],"categories_nodes":[],"categories_segments":[],"categories_sizes":[],"default_left":[0,0,0,0,0,0,0,0,0,0,0],"id":66,"left_children":[1,3,5,7,9,-1,-1,-1,-1,-1,-1],"loss_changes":[1.882833E0,2.2009227E0,3.4026396E-1,3.3244941E0,3.5917764E0,0E0,0E0,0E0,0E0,0E0,0E0],"parents":[2147483647,0,0,1,1,2,2,3,3,4,4],"right_children":[2,4,6,8,10,-1,-1,-1,-1,-1,-1],"split_conditions":[1.34E2,1.14E1,1.354E2,2E-1,6E0,-5.1235598E-2,-7.5362637E-3,1.7685298E-2,-1.6231185E-3,1.1188272E-2,-3.9605573E-2],"split_indices":[0,6,0,3,5,0,0,0,0,0,0],"split_type":[0,0,0,0,0,0,0,0,0,0,0],"sum_hessian":[6.29691E2,6.275452E2,2.1457682E0,5.593849E2,6.816037E1,1.0611752E0,1.0845928E0,2.225864E1,5.371262E2,6.545594E1,2.7044265E0],"tree_param":{"num_deleted":"0","num_feature":"8","num_nodes":"11","size_leaf_vector":"1"}},{"base_weights":[2.978439E-4,-6.611132E-1,4.754577E-3,-6.71108E-3,-4.687421E-2,6.174739E-1,-7.6424116E-3,8.44193E-3,4.4018637E-2,-3.5991527E-3,2.2811878E-3],"categories":[],"categories_nodes":[],"categories_segments":[],"categories_sizes":[],"default_left":[0,0,0,0,0,0,0,0,0,0,0],"id":67,"left_children":[1,3,5,-1,-1,7,9,-1,-1,-1,-1],"loss_changes":[1.8612304E0,4.895655E-1,4.768232E0,0E0,0E0,1.3196559E0,2.1132941E0,0E0,0E0,0E0,0E0],"parents":[2147483647,0,0,1,1,2,2,5,5,6,6],"right_children":[2,4,6,-1,-1,8,10,-1,-1,-1,-1],"split_conditions":[9.66E1,6E-1,1.01E2,-6.71108E-3,-4.687421E-2,1.124E2,6E-1,8.44193E-3,4.4018637E-2,-3.5991527E-3,2.2811878E-3],"split_indices":[1,2,1,0,0,0,2,0,0,0,0],"split_type":[0,0,0,0,0,0,0,0,0,0,0],"sum_hessian":[6.293446E2,3.2261124E0,6.2611847E2,1.6211343E0,1.6049781E0,1.1448919E1,6.1466956E2,4.8369355E0,6.611984E0,2.7823535E2,3.364342E2],"tree_param":{"num_deleted":"0","num_feature":"8","num_nodes":"11","size_leaf_vector":"1"}},{"base_weights":[2.8589286E-4,4.058605E-3,-7.5008804E-1,-6.840488E-4,7.158501E-1,-4.9728375E-2,-7.393233E-3,1.6726414E-4,-4.042098E-2,1.15988515E-2,4.4338357E-2],"categories":[],"categories_nodes":[],"categories_segments":[],"categories_sizes":[],"default_left":[0,0,0,0,0,0,0,0,0,0,0],"id":68,"left_children":[1,3,5,7,9,-1,-1,-1,-1,-1,-1],"loss_changes":[1.7868084E0,2.1202688E0,3.1782258E-1,2.0361354E0,1.380992E-1,0E0,0E0,0E0,0E0,0E0,0E0],"parents":[2147483647,0,0,1,1,2,2,3,3,4,4],"right_children":[2,4,6,8,10,-1,-1,-1,-1,-1,-1],"split_conditions":[1.34E2,1.312E2,1.354E2,5E0,1.62E1,-4.9728375E-2,-7.393233E-3,1.6726414E-4,-4.042098E-2,1.15988515E-2,4.4338357E-2],"split_indices":[0,0,0,7,6,0,0,0,0,0,0],"split_type":[0,0,0,0,0,0,0,0,0,0,0],"sum_hessian":[6.290949E2,6.269374E2,2.1575098E0,6.237802E2,3.1571972E0,1.0711653E0,1.0863445E0,6.2167487E2,2.1053228E0,1.4394116E0,1.7177856E0],"tree_param":{"num_deleted":"0","num_feature":"8","num_nodes":"11","size_leaf_vector":"1"}},{"base_weights":[2.0802472E-4,-6.375165E-1,4.5291474E-3,-6.5023713E-3,-4.509808E-2,5.9873235E-1,-7.326203E-3,8.109135E-3,4.2964485E-2,-6.1681764E-3,9.738301E-4],"categories":[],"categories_nodes":[],"categories_segments":[],"categories_sizes":[],"default_left":[0,0,0,0,0,0,0,0,0,0,0],"id":69,"left_children":[1,3,5,-1,-1,7,9,-1,-1,-1,-1],"loss_changes":[1.739168E0,4.527192E-1,4.420043E0,0E0,0E0,1.2567186E0,1.9168432E0,0E0,0E0,0E0,0E0],"parents":[2147483647,0,0,1,1,2,2,5,5,6,6],"right_children":[2,4,6,-1,-1,8,10,-1,-1,-1,-1],"split_conditions":[9.66E1,6E-1,1.01E2,-6.5023713E-3,-4.509808E-2,1.124E2,4E-1,8.109135E-3,4.2964485E-2,-6.1681764E-3,9.738301E-4],"split_indices":[1,2,1,0,0,0,2,0,0,0,0],"split_type":[0,0,0,0,0,0,0,0,0,0,0],"sum_hessian":[6.29072E2,3.2475915E0,6.2582446E2,1.6236289E0,1.6239626E0,1.1273648E1,6.145508E2,4.8201666E0,6.4534817E0,1.1463952E2,4.9991125E2],"tree_param":{"num_deleted":"0","num_feature":"8","num_nodes":"11","size_leaf_vector":"1"}},{"base_weights":[1.9445331E-4,3.873945E-3,-7.286644E-1,-3.3084992E-3,4.5015708E-1,-4.8249096E-2,-7.218583E-3,4.717868E-4,-1.3909817E-2,4.312815E-2,8.881988E-3],"categories":[],"categories_nodes":[],"categories_segments":[],"categories_sizes":[],"default_left":[0,0,0,0,0,0,0,0,0,0,0],"id":70,"left_children":[1,3,5,7,9,-1,-1,-1,-1,-1,-1],"loss_changes":[1.6918665E0,2.0133333E0,2.9822505E-1,2.1700518E0,9.6486545E-1,0E0,0E0,0E0,0E0,0E0,0E0],"parents":[2147483647,0,0,1,1,2,2,3,3,4,4],"right_children":[2,4,6,8,10,-1,-1,-1,-1,-1,-1],"split_conditions":[1.34E2,1.292E2,1.354E2,1.254E2,1.302E2,-4.8249096E-2,-7.218583E-3,4.717868E-4,-1.3909817E-2,4.312815E-2,8.881988E-3],"split_indices":[0,0,0,0,0,0,0,0,0,0,0],"split_type":[0,0,0,0,0,0,0,0,0,0,0],"sum_hessian":[6.288101E2,6.2664136E2,2.1687832E0,6.176928E2,8.948512E0,1.080312E0,1.0884712E0,5.912474E2,2.6445486E1,2.6989574E0,6.249554E0],"tree_param":{"num_deleted":"0","num_feature":"8","num_nodes":"11","size_leaf_vector":"1"}},{"base_weights":[1.6062552E-4,-4.7934808E-2,5.638274E-2,-1.832322E-2,-4.8596665E-1,6.767195E-1,2.9116955E-2,4.6533035E-4,-1.8970994E-2,-4.758635E-2,-9.383588E-3,8.906171E-3,4.777328E-2,2.0837567E-3,-4.9495026E-2],"categories":[],"categories_nodes":[],"categories_segments":[],"categories_sizes":[],"default_left":[0,0,0,0,0,0,0,0,0,0,0,0,0,0,0],"id":71,"left_children":[1,3,5,7,9,11,13,-1,-1,-1,-1,-1,-1,-1,-1],"loss_changes":[1.7057412E0,4.4009233E0,4.89947E0,3.191115E0,2.8068953E0,1.5253806E0,3.6197453E0,0E0,0E0,0E0,0E0,0E0,0E0,0E0,0E0],"parents":[2147483647,0,0,1,1,2,2,3,3,4,4,5,5,6,6],"right_children":[2,4,6,8,10,12,14,-1,-1,-1,-1,-1,-1,-1,-1],"split_conditions":[1.156E2,1.15E2,1.16E2,6.8E0,1.152E2,6E-1,1.322E2,4.6533035E-4,-1.8970994E-2,-4.758635E-2,-9.383588E-3,8.906171E-3,4.777328E-2,2.0837567E-3,-4.9495026E-2],"split_indices":[0,0,0,6,0,3,1,0,0,0,0,0,0,0,0],"split_type":[0,0,0,0,0,0,0,0,0,0,0,0,0,0,0],"sum_hessian":[6.288156E2,3.3898065E2,2.8983496E2,3.1849197E2,2.0488688E1,1.1199964E1,2.7863498E2,2.9675925E2,2.173273E1,7.143775E0,1.3344913E1,4.603913E0,6.5960507E0,2.7619037E2,2.444616E0],"tree_param":{"num_deleted":"0","num_feature":"8","num_nodes":"15","size_leaf_vector":"1"}},{"base_weights":[5.4340777E-5,3.0634131E-2,-8.939923E-2,1.1819426E-2,3.273909E-1,-5.414695E-1,2.996371E-2,1.5137775E-3,-1.2524542E-2,7.1856603E-3,3.0595997E-2,-7.290357E-3,-3.637236E-2,-3.0198083E-3,2.3234693E-2],"categories":[],"categories_nodes":[],"categories_segments":[],"categories_sizes":[],"default_left":[0,0,0,0,0,0,0,0,0,0,0,0,0,0,0],"id":72,"left_children":[1,3,5,7,9,11,13,-1,-1,-1,-1,-1,-1,-1,-1],"loss_changes":[1.7253047E0,2.620507E0,8.686682E0,2.1524734E0,1.3746738E0,2.3675604E0,5.0587583E0,0E0,0E0,0E0,0E0,0E0,0E0,0E0,0E0],"parents":[2147483647,0,0,1,1,2,2,3,3,4,4,5,5,6,6],"right_children":[2,4,6,8,10,12,14,-1,-1,-1,-1,-1,-1,-1,-1],"split_conditions":[8E-1,1E0,0E0,1.242E2,6E-1,-7.6E0,1.252E2,1.5137775E-3,-1.2524542E-2,7.1856603E-3,3.0595997E-2,-7.290357E-3,-3.637236E-2,-3.0198083E-3,2.3234693E-2],"split_indices":[3,2,7,0,3,6,1,0,0,0,0,0,0,0,0],"split_type":[0,0,0,0,0,0,0,0,0,0,0,0,0,0,0],"sum_hessian":[6.2871454E2,4.6903278E2,1.5968176E2,4.4204636E2,2.6986397E1,3.26162E1,1.2706556E2,4.1381497E2,2.8231398E1,1.7314266E1,9.672131E0,1.0999363E1,2.1616835E1,1.0591244E2,2.1153124E1],"tree_param":{"num_deleted":"0","num_feature":"8","num_nodes":"15","size_leaf_vector":"1"}},{"base_weights":[6.114537E-5,4.4364803E-2,-5.925995E-2,2.5870953E-2,4.230084E-1,-4.6416156E-2,-9.7128695E-1,-3.6298286E-2,1.7342841E-3,1.2545258E-2,5.3679533E-2,-2.4531592E-4,-1.696561E-2,-5.9728395E-2,-1.382787E-2],"categories":[],"categories_nodes":[],"categories_segments":[],"categories_sizes":[],"default_left":[0,0,0,0,0,0,0,0,0,0,0,0,0,0,0],"id":73,"left_children":[1,3,5,7,9,11,13,-1,-1,-1,-1,-1,-1,-1,-1],"loss_changes":[1.6571953E0,2.5167687E0,3.112848E0,2.313064E0,1.6054568E0,3.2432642E0,2.425878E-1,0E0,0E0,0E0,0E0,0E0,0E0,0E0,0E0],"parents":[2147483647,0,0,1,1,2,2,3,3,4,4,5,5,6,6],"right_children":[2,4,6,8,10,12,14,-1,-1,-1,-1,-1,-1,-1,-1],"split_conditions":[1.164E2,2E0,1.1E1,9.66E1,8E-1,1E0,1.306E2,-3.6298286E-2,1.7342841E-3,1.2545258E-2,5.3679533E-2,-2.4531592E-4,-1.696561E-2,-5.9728395E-2,-1.382787E-2],"split_indices":[1,7,6,1,3,3,0,0,0,0,0,0,0,0,0],"split_type":[0,0,0,0,0,0,0,0,0,0,0,0,0,0,0],"sum_hessian":[6.285575E2,3.5996878E2,2.685887E2,3.4422437E2,1.574441E1,2.658951E2,2.6936247E0,3.0461962E0,3.4117816E2,1.35465145E1,2.1978953E0,2.3378006E2,3.2115044E1,1.4939944E0,1.1996305E0],"tree_param":{"num_deleted":"0","num_feature":"8","num_nodes":"15","size_leaf_vector":"1"}},{"base_weights":[-3.2865664E-5,-4.6898168E-2,5.482832E-2,-1.8593838E-2,-4.6462387E-1,6.5597224E-1,2.8622596E-2,3.8203827E-4,-1.797138E-2,-4.5358386E-2,-9.0238E-3,8.445638E-3,4.655558E-2,2.041467E-3,-4.8232168E-2],"categories":[],"categories_nodes":[],"categories_segments":[],"categories_sizes":[],"default_left":[0,0,0,0,0,0,0,0,0,0,0,0,0,0,0],"id":74,"left_children":[1,3,5,7,9,11,13,-1,-1,-1,-1,-1,-1,-1,-1],"loss_changes":[1.6206958E0,4.0107465E0,4.5560784E0,2.8588793E0,2.543757E0,1.4622478E0,3.4259994E0,0E0,0E0,0E0,0E0,0E0,0E0,0E0,0E0],"parents":[2147483647,0,0,1,1,2,2,3,3,4,4,5,5,6,6],"right_children":[2,4,6,8,10,12,14,-1,-1,-1,-1,-1,-1,-1,-1],"split_conditions":[1.156E2,1.15E2,1.16E2,6.8E0,1.152E2,6E-1,1.322E2,3.8203827E-4,-1.797138E-2,-4.5358386E-2,-9.0238E-3,8.445638E-3,4.655558E-2,2.041467E-3,-4.8232168E-2],"split_indices":[0,0,0,6,0,3,1,0,0,0,0,0,0,0,0],"split_type":[0,0,0,0,0,0,0,0,0,0,0,0,0,0,0],"sum_hessian":[6.283545E2,3.389504E2,2.8940408E2,3.184194E2,2.0531004E1,1.1085169E1,2.783189E2,2.965695E2,2.1849918E1,7.170608E0,1.3360396E1,4.58413E0,6.501039E0,2.758873E2,2.4316232E0],"tree_param":{"num_deleted":"0","num_feature":"8","num_nodes":"15","size_leaf_vector":"1"}},{"base_weights":[-1.254601E-4,1.0221898E-1,-2.5662348E-2,6.881696E-2,7.7434915E-1,5.3275425E-2,-3.0348193E-2,-4.3124493E-2,4.2503104E-3,4.3501165E-2,9.727001E-3,-4.564671E-2,-1.2064093E-3],"categories":[],"categories_nodes":[],"categories_segments":[],"categories_sizes":[],"default_left":[0,0,0,0,0,0,0,0,0,0,0,0,0],"id":75,"left_children":[1,3,5,7,9,-1,11,-1,-1,-1,-1,-1,-1],"loss_changes":[1.6471702E0,2.772204E0,2.6112738E0,1.8975546E0,1.55859E-1,0E0,2.7403746E0,0E0,0E0,0E0,0E0,0E0,0E0],"parents":[2147483647,0,0,1,1,2,2,3,3,4,4,6,6],"right_children":[2,4,6,8,10,-1,12,-1,-1,-1,-1,-1,-1],"split_conditions":[4E-1,2E0,9.52E1,-1.56E1,1.32E1,5.3275425E-2,9.74E1,-4.3124493E-2,4.2503104E-3,4.3501165E-2,9.727001E-3,-4.564671E-2,-1.2064093E-3],"split_indices":[3,7,0,6,6,0,0,0,0,0,0,0,0],"split_type":[0,0,0,0,0,0,0,0,0,0,0,0,0],"sum_hessian":[6.2823676E2,1.2485426E2,5.033825E2,1.19993484E2,4.8607807E0,1.184416E0,5.021981E2,1.1570535E0,1.1883643E2,3.7426703E0,1.1181107E0,2.494314E0,4.9970377E2],"tree_param":{"num_deleted":"0","num_feature":"8","num_nodes":"13","size_leaf_vector":"1"}},{"base_weights":[-8.403688E-5,3.4947149E-3,-7.0679915E-1,-1.0410385E-3,6.9189626E-1,-4.6954807E-2,-6.8621724E-3,1.4455331E-4,-3.9229225E-2,1.0856423E-2,4.3270003E-2],"categories":[],"categories_nodes":[],"categories_segments":[],"categories_sizes":[],"default_left":[0,0,0,0,0,0,0,0,0,0,0],"id":76,"left_children":[1,3,5,7,9,-1,-1,-1,-1,-1,-1],"loss_changes":[1.5932473E0,1.9578563E0,2.9104853E-1,1.9238622E0,1.501888E-1,0E0,0E0,0E0,0E0,0E0,0E0],"parents":[2147483647,0,0,1,1,2,2,3,3,4,4],"right_children":[2,4,6,8,10,-1,-1,-1,-1,-1,-1],"split_conditions":[1.34E2,1.312E2,1.354E2,5E0,1.62E1,-4.6954807E-2,-6.8621724E-3,1.4455331E-4,-3.9229225E-2,1.0856423E-2,4.3270003E-2],"split_indices":[0,0,0,7,6,0,0,0,0,0,0],"split_type":[0,0,0,0,0,0,0,0,0,0,0],"sum_hessian":[6.2797504E2,6.258011E2,2.1739545E0,6.226968E2,3.104349E0,1.083301E0,1.0906534E0,6.205788E2,2.117979E0,1.4334246E0,1.6709243E0],"tree_param":{"num_deleted":"0","num_feature":"8","num_nodes":"11","size_leaf_vector":"1"}},{"base_weights":[-1.3950843E-4,-5.4334577E-2,4.4868864E-2,-3.777817E-2,-6.812477E-1,-5.8291223E-2,1.0481682E-1,-2.467462E-3,6.375418E-2,-5.262602E-2,3.165716E-2,-7.2092237E-3,1.1316791E-2,3.0113617E-2,3.8388867E-3],"categories":[],"categories_nodes":[],"categories_segments":[],"categories_sizes":[],"default_left":[0,0,0,0,0,0,0,0,0,0,0,0,0,0,0],"id":77,"left_children":[1,3,5,7,9,11,13,-1,-1,-1,-1,-1,-1,-1,-1],"loss_changes":[1.5365947E0,2.9407659E0,2.1343837E0,4.3090343E0,4.2263603E0,3.1406019E0,2.9947019E0,0E0,0E0,0E0,0E0,0E0,0E0,0E0,0E0],"parents":[2147483647,0,0,1,1,2,2,3,3,4,4,5,5,6,6],"right_children":[2,4,6,8,10,12,14,-1,-1,-1,-1,-1,-1,-1,-1],"split_conditions":[6E-1,1.278E2,1.154E2,1.274E2,1E0,1E0,1.16E2,-2.467462E-3,6.375418E-2,-5.262602E-2,3.165716E-2,-7.2092237E-3,1.1316791E-2,3.0113617E-2,3.8388867E-3],"split_indices":[2,1,0,1,7,7,0,0,0,0,0,0,0,0,0],"split_type":[0,0,0,0,0,0,0,0,0,0,0,0,0,0,0],"sum_hessian":[6.279508E2,2.8480582E2,3.43145E2,2.7851077E2,6.295046E0,1.2612802E2,2.1701695E2,2.7703152E2,1.4792416E0,5.063894E0,1.231152E0,9.7268326E1,2.8859697E1,1.0486736E1,2.0653021E2],"tree_param":{"num_deleted":"0","num_feature":"8","num_nodes":"15","size_leaf_vector":"1"}},{"base_weights":[-4.8837987E-6,3.4960157E-3,-6.8934E-1,-8.8504254E-4,6.744885E-1,-4.568432E-2,-6.780109E-3,1.4585913E-4,-3.771343E-2,1.0437834E-2,4.240305E-2],"categories":[],"categories_nodes":[],"categories_segments":[],"categories_sizes":[],"default_left":[0,0,0,0,0,0,0,0,0,0,0],"id":78,"left_children":[1,3,5,7,9,-1,-1,-1,-1,-1,-1],"loss_changes":[1.5195144E0,1.8421844E0,2.71348E-1,1.7879459E0,1.5157676E-1,0E0,0E0,0E0,0E0,0E0,0E0],"parents":[2147483647,0,0,1,1,2,2,3,3,4,4],"right_children":[2,4,6,8,10,-1,-1,-1,-1,-1,-1],"split_conditions":[1.34E2,1.312E2,1.354E2,5E0,1.62E1,-4.568432E-2,-6.780109E-3,1.4585913E-4,-3.771343E-2,1.0437834E-2,4.240305E-2],"split_indices":[0,0,0,7,6,0,0,0,0,0,0],"split_type":[0,0,0,0,0,0,0,0,0,0,0],"sum_hessian":[6.2764496E2,6.254634E2,2.1815882E0,6.223983E2,3.0650952E0,1.0899582E0,1.09163E0,6.2026404E2,2.134261E0,1.4302195E0,1.6348755E0],"tree_param":{"num_deleted":"0","num_feature":"8","num_nodes":"11","size_leaf_vector":"1"}},{"base_weights":[-6.198146E-5,4.1893665E-2,-5.6212444E-2,2.4179192E-2,4.075289E-1,-3.1385694E-2,-5.0725585E-1,2.1014571E-2,4.0757094E-4,2.8993315E-3,3.457562E-2,-2.9911814E-2,-4.7555316E-4,-4.0920623E-2,-1.92999E-3],"categories":[],"categories_nodes":[],"categories_segments":[],"categories_sizes":[],"default_left":[0,0,0,0,0,0,0,0,0,0,0,0,0,0,0],"id":79,"left_children":[1,3,5,7,9,11,13,-1,-1,-1,-1,-1,-1,-1,-1],"loss_changes":[1.4832716E0,2.3242037E0,2.999228E0,2.1854482E0,1.6065953E0,3.172061E0,2.0072875E0,0E0,0E0,0E0,0E0,0E0,0E0,0E0,0E0],"parents":[2147483647,0,0,1,1,2,2,3,3,4,4,5,5,6,6],"right_children":[2,4,6,8,10,12,14,-1,-1,-1,-1,-1,-1,-1,-1],"split_conditions":[1.164E2,2E0,1.264E2,1.024E2,1.13E2,1.026E2,1.212E2,2.1014571E-2,4.0757094E-4,2.8993315E-3,3.457562E-2,-2.9911814E-2,-4.7555316E-4,-4.0920623E-2,-1.92999E-3],"split_indices":[1,7,0,0,0,0,1,0,0,0,0,0,0,0,0],"split_type":[0,0,0,0,0,0,0,0,0,0,0,0,0,0,0],"sum_hessian":[6.2761804E2,3.5935886E2,2.682592E2,3.4376987E2,1.5589E1,2.5527754E2,1.298164E1,1.2388028E1,3.3138184E2,7.5276937E0,8.061306E0,8.506074E0,2.4677147E2,7.353263E0,5.6283765E0],"tree_param":{"num_deleted":"0","num_feature":"8","num_nodes":"15","size_leaf_vector":"1"}},{"base_weights":[-7.950112E-5,-5.7951784E-1,3.8976055E-3,-4.757914E-3,-4.2144183E-2,5.86567E-1,-7.6035E-3,8.581898E-3,4.1961234E-2,1.1430791E-2,-9.7384147E-4],"categories":[],"categories_nodes":[],"categories_segments":[],"categories_sizes":[],"default_left":[0,0,0,0,0,0,0,0,0,0,0],"id":80,"left_children":[1,3,5,-1,-1,7,9,-1,-1,-1,-1],"loss_changes":[1.4503194E0,4.6706772E-1,4.193303E0,0E0,0E0,1.12573E0,1.7264408E0,0E0,0E0,0E0,0E0],"parents":[2147483647,0,0,1,1,2,2,5,5,6,6],"right_children":[2,4,6,-1,-1,8,10,-1,-1,-1,-1],"split_conditions":[9.66E1,6E-1,1.01E2,-4.757914E-3,-4.2144183E-2,1.124E2,2E-1,8.581898E-3,4.1961234E-2,1.1430791E-2,-9.7384147E-4],"split_indices":[1,2,1,0,0,0,3,0,0,0,0],"split_type":[0,0,0,0,0,0,0,0,0,0,0],"sum_hessian":[6.273654E2,3.2902083E0,6.240752E2,1.638372E0,1.6518363E0,1.1112112E1,6.129631E2,4.8411026E0,6.2710094E0,2.846183E1,5.845013E2],"tree_param":{"num_deleted":"0","num_feature":"8","num_nodes":"11","size_leaf_vector":"1"}},{"base_weights":[-4.605977E-5,3.3693947E-3,-6.726199E-1,-3.4227439E-3,4.3087453E-1,-4.4927042E-2,-6.333181E-3,5.291267E-4,-1.09765185E-2,4.2189643E-2,7.979914E-3],"categories":[],"categories_nodes":[],"categories_segments":[],"categories_sizes":[],"default_left":[0,0,0,0,0,0,0,0,0,0,0],"id":81,"left_children":[1,3,5,7,9,-1,-1,-1,-1,-1,-1],"loss_changes":[1.4451585E0,1.819016E0,2.7824533E-1,1.8702128E0,9.627738E-1,0E0,0E0,0E0,0E0,0E0,0E0],"parents":[2147483647,0,0,1,1,2,2,3,3,4,4],"right_children":[2,4,6,8,10,-1,-1,-1,-1,-1,-1],"split_conditions":[1.34E2,1.292E2,1.354E2,1.244E2,1.302E2,-4.4927042E-2,-6.333181E-3,5.291267E-4,-1.09765185E-2,4.2189643E-2,7.979914E-3],"split_indices":[0,0,0,0,0,0,0,0,0,0,0],"split_type":[0,0,0,0,0,0,0,0,0,0,0],"sum_hessian":[6.2712396E2,6.249454E2,2.1785984E0,6.1614813E2,8.797277E0,1.0841553E0,1.094443E0,5.795409E2,3.6607246E1,2.6512573E0,6.14602E0],"tree_param":{"num_deleted":"0","num_feature":"8","num_nodes":"11","size_leaf_vector":"1"}},{"base_weights":[-5.9669277E-5,-5.2234028E-2,4.3311864E-2,-3.6442358E-2,-6.52377E-1,5.7590798E-2,-3.7302762E-1,-2.3839497E-3,6.178422E-2,-5.0658938E-2,3.082706E-2,-2.6803797E-3,6.15355E-3,3.5795853E-3,-4.9507048E-2],"categories":[],"categories_nodes":[],"categories_segments":[],"categories_sizes":[],"default_left":[0,0,0,0,0,0,0,0,0,0,0,0,0,0,0],"id":82,"left_children":[1,3,5,7,9,11,13,-1,-1,-1,-1,-1,-1,-1,-1],"loss_changes":[1.4236608E0,2.682796E0,2.0638509E0,4.0516763E0,3.9497952E0,2.43145E0,3.23328E0,0E0,0E0,0E0,0E0,0E0,0E0,0E0,0E0],"parents":[2147483647,0,0,1,1,2,2,3,3,4,4,5,5,6,6],"right_children":[2,4,6,8,10,12,14,-1,-1,-1,-1,-1,-1,-1,-1],"split_conditions":[6E-1,1.278E2,7E0,1.274E2,1E0,1.154E2,4.4E0,-2.3839497E-3,6.178422E-2,-5.0658938E-2,3.082706E-2,-2.6803797E-3,6.15355E-3,3.5795853E-3,-4.9507048E-2],"split_indices":[2,1,4,1,7,0,6,0,0,0,0,0,0,0,0],"split_type":[0,0,0,0,0,0,0,0,0,0,0,0,0,0,0],"sum_hessian":[6.271364E2,2.8458582E2,3.4255057E2,2.7832297E2,6.262838E0,3.32025E2,1.05255785E1,2.7684018E2,1.4827949E0,5.0332384E0,1.2295994E0,1.2312152E2,2.0890349E2,6.6316094E0,3.893969E0],"tree_param":{"num_deleted":"0","num_feature":"8","num_nodes":"15","size_leaf_vector":"1"}},{"base_weights":[-5.855743E-5,-1.16611095E-2,1.9948445E-1,2.845638E-2,-1.4332007E-1,5.139836E-1,-1.8898113E-1,5.2478805E-4,1.5972214E-2,-2.9507114E-2,-1.4564851E-3,3.6307525E-2,-1.6515452E-2,-2.3430943E-2,3.3968918E-2],"categories":[],"categories_nodes":[],"categories_segments":[],"categories_sizes":[],"default_left":[0,0,0,0,0,0,0,0,0,0,0,0,0,0,0],"id":83,"left_children":[1,3,5,7,9,11,13,-1,-1,-1,-1,-1,-1,-1,-1],"loss_changes":[1.4560025E0,3.143194E0,4.31911E0,2.3817163E0,7.0732865E0,3.7088556E0,4.250182E0,0E0,0E0,0E0,0E0,0E0,0E0,0E0,0E0],"parents":[2147483647,0,0,1,1,2,2,3,3,4,4,5,5,6,6],"right_children":[2,4,6,8,10,12,14,-1,-1,-1,-1,-1,-1,-1,-1],"split_conditions":[1.26E2,8E-1,1.28E2,1E0,0E0,3E0,-7E0,5.2478805E-4,1.5972214E-2,-2.9507114E-2,-1.4564851E-3,3.6307525E-2,-1.6515452E-2,-2.3430943E-2,3.3968918E-2],"split_indices":[1,3,1,2,7,4,6,0,0,0,0,0,0,0,0],"split_type":[0,0,0,0,0,0,0,0,0,0,0,0,0,0,0],"sum_hessian":[6.268815E2,5.9332385E2,3.355762E1,4.5535693E2,1.3796689E2,1.8365734E1,1.5191888E1,4.2986075E2,2.549619E1,2.7233858E1,1.10733025E2,1.4789205E1,3.5765288E0,1.1839541E1,3.3523467E0],"tree_param":{"num_deleted":"0","num_feature":"8","num_nodes":"15","size_leaf_vector":"1"}},{"base_weights":[-2.8554496E-5,3.3252938E-3,-6.595167E-1,-8.703034E-4,6.538541E-1,-4.391058E-2,-6.3120197E-3,1.4181071E-4,-3.661774E-2,1.0059293E-2,4.1283235E-2],"categories":[],"categories_nodes":[],"categories_segments":[],"categories_sizes":[],"default_left":[0,0,0,0,0,0,0,0,0,0,0],"id":84,"left_children":[1,3,5,7,9,-1,-1,-1,-1,-1,-1],"loss_changes":[1.3903384E0,1.707568E0,2.600664E-1,1.6895995E0,1.4569235E-1,0E0,0E0,0E0,0E0,0E0,0E0],"parents":[2147483647,0,0,1,1,2,2,3,3,4,4],"right_children":[2,4,6,8,10,-1,-1,-1,-1,-1,-1],"split_conditions":[1.34E2,1.312E2,1.354E2,5E0,1.62E1,-4.391058E-2,-6.3120197E-3,1.4181071E-4,-3.661774E-2,1.0059293E-2,4.1283235E-2],"split_indices":[0,0,0,7,6,0,0,0,0,0,0],"split_type":[0,0,0,0,0,0,0,0,0,0,0],"sum_hessian":[6.266023E2,6.244217E2,2.1805592E0,6.2141254E2,3.0091496E0,1.0876815E0,1.0928777E0,6.1927075E2,2.1417947E0,1.425189E0,1.5839607E0],"tree_param":{"num_deleted":"0","num_feature":"8","num_nodes":"11","size_leaf_vector":"1"}},{"base_weights":[-8.1796104E-5,-5.064557E-1,4.2857886E-3,-3.5856854E-2,-1.4382075E-1,6.542314E-1,-7.246563E-3,1.8867662E-2,-2.9901013E-2,3.8913675E-2,-5.342063E-3,-5.6463135E-3,8.591753E-4],"categories":[],"categories_nodes":[],"categories_segments":[],"categories_sizes":[],"default_left":[0,0,0,0,0,0,0,0,0,0,0,0,0],"id":85,"left_children":[1,3,5,-1,7,9,11,-1,-1,-1,-1,-1,-1],"loss_changes":[1.3901314E0,3.075174E-1,4.675862E0,0E0,9.8933154E-1,1.1098943E0,1.5853931E0,0E0,0E0,0E0,0E0,0E0,0E0],"parents":[2147483647,0,0,1,1,2,2,4,4,5,5,6,6],"right_children":[2,4,6,-1,8,10,12,-1,-1,-1,-1,-1,-1],"split_conditions":[9.72E1,1.92E1,1.01E2,-3.5856854E-2,1.196E2,2.3E1,4E-1,1.8867662E-2,